<?xml version="1.0"?>
<opencv_storage>
<cascade>
  <stageType>BOOST</stageType>
  <featureType>HAAR</featureType>
  <height>30</height>
  <width>30</width>
  <stageParams>
    <boostType>GAB</boostType>
    <minHitRate>9.9989998340606689e-01</minHitRate>
    <maxFalseAlarm>1.0000000149011612e-01</maxFalseAlarm>
    <weightTrimRate>9.4999999999999996e-01</weightTrimRate>
    <maxDepth>1</maxDepth>
    <maxWeakCount>100</maxWeakCount></stageParams>
  <featureParams>
    <maxCatCount>0</maxCatCount>
    <featSize>1</featSize>
    <mode>BASIC</mode></featureParams>
  <stageNum>6</stageNum>
  <stages>
    <!-- stage 0 -->
    <_>
      <maxWeakCount>7</maxWeakCount>
      <stageThreshold>-8.0844801664352417e-01</stageThreshold>
      <weakClassifiers>
        <_>
          <internalNodes>
            0 -1 42 2.1713003516197205e-03</internalNodes>
          <leafValues>
            -9.4348508119583130e-01 7.9466819763183594e-01</leafValues></_>
        <_>
          <internalNodes>
            0 -1 32 -3.5570436157286167e-03</internalNodes>
          <leafValues>
            6.4762902259826660e-01 -8.8224399089813232e-01</leafValues></_>
        <_>
          <internalNodes>
            0 -1 37 -2.9429874848574400e-04</internalNodes>
          <leafValues>
            5.2255004644393921e-01 -9.5158219337463379e-01</leafValues></_>
        <_>
          <internalNodes>
            0 -1 3 1.5763228759169579e-02</internalNodes>
          <leafValues>
            -6.6832309961318970e-01 7.5383883714675903e-01</leafValues></_>
        <_>
          <internalNodes>
            0 -1 57 4.4867966789752245e-04</internalNodes>
          <leafValues>
            -9.6175825595855713e-01 4.8901805281639099e-01</leafValues></_>
        <_>
          <internalNodes>
            0 -1 23 -3.8847193354740739e-04</internalNodes>
          <leafValues>
            4.0104314684867859e-01 -9.9796450138092041e-01</leafValues></_>
        <_>
          <internalNodes>
            0 -1 44 3.0265562236309052e-04</internalNodes>
          <leafValues>
            -9.8300296068191528e-01 3.0160728096961975e-01</leafValues></_></weakClassifiers></_>
    <!-- stage 1 -->
    <_>
      <maxWeakCount>11</maxWeakCount>
      <stageThreshold>-9.4778913259506226e-01</stageThreshold>
      <weakClassifiers>
        <_>
          <internalNodes>
            0 -1 41 1.7282231710851192e-03</internalNodes>
          <leafValues>
            -8.5041552782058716e-01 7.2937905788421631e-01</leafValues></_>
        <_>
          <internalNodes>
            0 -1 27 3.9097788976505399e-04</internalNodes>
          <leafValues>
            -8.4226733446121216e-01 5.4766482114791870e-01</leafValues></_>
        <_>
          <internalNodes>
            0 -1 58 3.4337511169724166e-04</internalNodes>
          <leafValues>
            4.0334922075271606e-01 -9.5216399431228638e-01</leafValues></_>
        <_>
          <internalNodes>
            0 -1 69 4.9214588943868876e-04</internalNodes>
          <leafValues>
            -7.1172392368316650e-01 5.3023254871368408e-01</leafValues></_>
        <_>
          <internalNodes>
            0 -1 1 -8.1844497472047806e-03</internalNodes>
          <leafValues>
            7.0900309085845947e-01 -5.2986091375350952e-01</leafValues></_>
        <_>
          <internalNodes>
            0 -1 29 2.9763748170807958e-04</internalNodes>
          <leafValues>
            -9.8091614246368408e-01 3.9268878102302551e-01</leafValues></_>
        <_>
          <internalNodes>
            0 -1 80 -7.3769143782556057e-03</internalNodes>
          <leafValues>
            6.9576531648635864e-01 -5.2972406148910522e-01</leafValues></_>
        <_>
          <internalNodes>
            0 -1 61 4.1712727397680283e-04</internalNodes>
          <leafValues>
            3.5675135254859924e-01 -9.7418695688247681e-01</leafValues></_>
        <_>
          <internalNodes>
            0 -1 64 -1.9746697944356129e-05</internalNodes>
          <leafValues>
            -9.5232450962066650e-01 3.2433173060417175e-01</leafValues></_>
        <_>
          <internalNodes>
            0 -1 36 6.8897642195224762e-03</internalNodes>
          <leafValues>
            -5.3440701961517334e-01 6.4388847351074219e-01</leafValues></_>
        <_>
          <internalNodes>
            0 -1 63 6.1287439893931150e-04</internalNodes>
          <leafValues>
            3.4799921512603760e-01 -9.3275707960128784e-01</leafValues></_></weakClassifiers></_>
    <!-- stage 2 -->
    <_>
      <maxWeakCount>12</maxWeakCount>
      <stageThreshold>-8.6488258838653564e-01</stageThreshold>
      <weakClassifiers>
        <_>
          <internalNodes>
            0 -1 62 9.1221969341859221e-05</internalNodes>
          <leafValues>
            -9.7913563251495361e-01 6.3400477170944214e-01</leafValues></_>
        <_>
          <internalNodes>
            0 -1 7 2.5003452319651842e-03</internalNodes>
          <leafValues>
            -7.6269537210464478e-01 5.5995470285415649e-01</leafValues></_>
        <_>
          <internalNodes>
            0 -1 70 2.0836237818002701e-03</internalNodes>
          <leafValues>
            -9.2028325796127319e-01 3.9322996139526367e-01</leafValues></_>
        <_>
          <internalNodes>
            0 -1 53 -2.5340988941024989e-05</internalNodes>
          <leafValues>
            2.7695986628532410e-01 -9.1825425624847412e-01</leafValues></_>
        <_>
          <internalNodes>
            0 -1 49 -6.7995541030541062e-04</internalNodes>
          <leafValues>
            -9.5969837903976440e-01 2.6744928956031799e-01</leafValues></_>
        <_>
          <internalNodes>
            0 -1 38 -3.2230481156148016e-04</internalNodes>
          <leafValues>
            3.3320999145507812e-01 -7.8354918956756592e-01</leafValues></_>
        <_>
          <internalNodes>
            0 -1 16 6.7196332383900881e-04</internalNodes>
          <leafValues>
            2.8458982706069946e-01 -9.7101986408233643e-01</leafValues></_>
        <_>
          <internalNodes>
            0 -1 26 4.1140629036817700e-05</internalNodes>
          <leafValues>
            -9.5619887113571167e-01 2.6582261919975281e-01</leafValues></_>
        <_>
          <internalNodes>
            0 -1 54 -2.0960755646228790e-03</internalNodes>
          <leafValues>
            4.0848064422607422e-01 -6.6887128353118896e-01</leafValues></_>
        <_>
          <internalNodes>
            0 -1 60 2.4748820578679442e-05</internalNodes>
          <leafValues>
            -9.1673147678375244e-01 2.7612924575805664e-01</leafValues></_>
        <_>
          <internalNodes>
            0 -1 48 9.5123781647998840e-05</internalNodes>
          <leafValues>
            2.9382911324501038e-01 -8.4239405393600464e-01</leafValues></_>
        <_>
          <internalNodes>
            0 -1 40 5.1988608902320266e-04</internalNodes>
          <leafValues>
            -9.5070028305053711e-01 2.5195810198783875e-01</leafValues></_></weakClassifiers></_>
    <!-- stage 3 -->
    <_>
      <maxWeakCount>15</maxWeakCount>
      <stageThreshold>-7.4189418554306030e-01</stageThreshold>
      <weakClassifiers>
        <_>
          <internalNodes>
            0 -1 35 -1.3357447460293770e-03</internalNodes>
          <leafValues>
            6.2557238340377808e-01 -7.5689882040023804e-01</leafValues></_>
        <_>
          <internalNodes>
            0 -1 75 1.2938445433974266e-03</internalNodes>
          <leafValues>
            -6.0803717374801636e-01 5.5694347620010376e-01</leafValues></_>
        <_>
          <internalNodes>
            0 -1 4 9.5888171344995499e-03</internalNodes>
          <leafValues>
            -6.1595684289932251e-01 4.7856250405311584e-01</leafValues></_>
        <_>
          <internalNodes>
            0 -1 47 1.6886454541236162e-03</internalNodes>
          <leafValues>
            -9.6508574485778809e-01 3.2981440424919128e-01</leafValues></_>
        <_>
          <internalNodes>
            0 -1 6 2.3744227364659309e-03</internalNodes>
          <leafValues>
            -5.4517841339111328e-01 5.3647869825363159e-01</leafValues></_>
        <_>
          <internalNodes>
            0 -1 25 4.6088889939710498e-04</internalNodes>
          <leafValues>
            2.6678916811943054e-01 -9.8022830486297607e-01</leafValues></_>
        <_>
          <internalNodes>
            0 -1 18 8.0315716331824660e-04</internalNodes>
          <leafValues>
            2.8940412402153015e-01 -8.7504827976226807e-01</leafValues></_>
        <_>
          <internalNodes>
            0 -1 45 1.7804281014832668e-05</internalNodes>
          <leafValues>
            2.5705471634864807e-01 -7.9827785491943359e-01</leafValues></_>
        <_>
          <internalNodes>
            0 -1 24 -6.8049441324546933e-05</internalNodes>
          <leafValues>
            2.0309767127037048e-01 -9.6812456846237183e-01</leafValues></_>
        <_>
          <internalNodes>
            0 -1 34 -3.6378530785441399e-03</internalNodes>
          <leafValues>
            6.9228827953338623e-01 -3.9368334412574768e-01</leafValues></_>
        <_>
          <internalNodes>
            0 -1 66 4.3601990910246968e-05</internalNodes>
          <leafValues>
            -6.6478306055068970e-01 3.7547963857650757e-01</leafValues></_>
        <_>
          <internalNodes>
            0 -1 72 7.5849454151466489e-04</internalNodes>
          <leafValues>
            2.5337970256805420e-01 -9.7023034095764160e-01</leafValues></_>
        <_>
          <internalNodes>
            0 -1 11 5.1697380840778351e-03</internalNodes>
          <leafValues>
            -4.1549226641654968e-01 6.4423251152038574e-01</leafValues></_>
        <_>
          <internalNodes>
            0 -1 19 2.4556764401495457e-04</internalNodes>
          <leafValues>
            -9.8546189069747925e-01 2.7101415395736694e-01</leafValues></_>
        <_>
          <internalNodes>
            0 -1 0 -1.5015429817140102e-03</internalNodes>
          <leafValues>
            3.4731912612915039e-01 -6.4092677831649780e-01</leafValues></_></weakClassifiers></_>
    <!-- stage 4 -->
    <_>
      <maxWeakCount>19</maxWeakCount>
      <stageThreshold>-1.1447886228561401e+00</stageThreshold>
      <weakClassifiers>
        <_>
          <internalNodes>
            0 -1 10 -4.8187877982854843e-03</internalNodes>
          <leafValues>
            -9.1776025295257568e-01 5.6942379474639893e-01</leafValues></_>
        <_>
          <internalNodes>
            0 -1 13 6.9907563738524914e-04</internalNodes>
          <leafValues>
            -5.6847655773162842e-01 5.1188009977340698e-01</leafValues></_>
        <_>
          <internalNodes>
            0 -1 17 -1.4989459887146950e-03</internalNodes>
          <leafValues>
            3.6079517006874084e-01 -9.4193202257156372e-01</leafValues></_>
        <_>
          <internalNodes>
            0 -1 67 5.0748167559504509e-03</internalNodes>
          <leafValues>
            -4.6549305319786072e-01 5.8249765634536743e-01</leafValues></_>
        <_>
          <internalNodes>
            0 -1 77 -4.7703394666314125e-03</internalNodes>
          <leafValues>
            4.9553069472312927e-01 -4.8536011576652527e-01</leafValues></_>
        <_>
          <internalNodes>
            0 -1 50 2.8159131034044549e-05</internalNodes>
          <leafValues>
            -9.1557365655899048e-01 2.0338527858257294e-01</leafValues></_>
        <_>
          <internalNodes>
            0 -1 76 2.2868858650326729e-04</internalNodes>
          <leafValues>
            2.2700855135917664e-01 -8.4020376205444336e-01</leafValues></_>
        <_>
          <internalNodes>
            0 -1 15 2.4589599343016744e-04</internalNodes>
          <leafValues>
            2.1319766342639923e-01 -8.8744509220123291e-01</leafValues></_>
        <_>
          <internalNodes>
            0 -1 56 1.3451839331537485e-03</internalNodes>
          <leafValues>
            -9.7746992111206055e-01 1.7154251039028168e-01</leafValues></_>
        <_>
          <internalNodes>
            0 -1 5 2.2670296020805836e-03</internalNodes>
          <leafValues>
            -5.6147831678390503e-01 3.6771795153617859e-01</leafValues></_>
        <_>
          <internalNodes>
            0 -1 28 9.5461291493847966e-05</internalNodes>
          <leafValues>
            -8.5671865940093994e-01 2.3083579540252686e-01</leafValues></_>
        <_>
          <internalNodes>
            0 -1 14 9.4509596237912774e-04</internalNodes>
          <leafValues>
            1.8985812366008759e-01 -8.0358588695526123e-01</leafValues></_>
        <_>
          <internalNodes>
            0 -1 31 5.8511577663011849e-05</internalNodes>
          <leafValues>
            -7.8007847070693970e-01 2.3038993775844574e-01</leafValues></_>
        <_>
          <internalNodes>
            0 -1 9 2.1795776774524711e-05</internalNodes>
          <leafValues>
            -6.4926874637603760e-01 2.7079898118972778e-01</leafValues></_>
        <_>
          <internalNodes>
            0 -1 68 1.0116372141055763e-04</internalNodes>
          <leafValues>
            -6.3966774940490723e-01 3.1421384215354919e-01</leafValues></_>
        <_>
          <internalNodes>
            0 -1 81 -6.2138627981767058e-04</internalNodes>
          <leafValues>
            5.4271346330642700e-01 -4.3460524082183838e-01</leafValues></_>
        <_>
          <internalNodes>
            0 -1 79 -2.7832603082060814e-03</internalNodes>
          <leafValues>
            5.4317575693130493e-01 -3.8926908373832703e-01</leafValues></_>
        <_>
          <internalNodes>
            0 -1 52 -3.5751302493736148e-04</internalNodes>
          <leafValues>
            -8.9529442787170410e-01 2.3787957429885864e-01</leafValues></_>
        <_>
          <internalNodes>
            0 -1 78 -5.1593212410807610e-03</internalNodes>
          <leafValues>
            -8.1155407428741455e-01 2.1656443178653717e-01</leafValues></_></weakClassifiers></_>
    <!-- stage 5 -->
    <_>
      <maxWeakCount>18</maxWeakCount>
      <stageThreshold>-9.2679327726364136e-01</stageThreshold>
      <weakClassifiers>
        <_>
          <internalNodes>
            0 -1 59 1.5724694821983576e-04</internalNodes>
          <leafValues>
            5.9389102458953857e-01 -7.1070933341979980e-01</leafValues></_>
        <_>
          <internalNodes>
            0 -1 55 -1.1750620615202934e-04</internalNodes>
          <leafValues>
            5.1979005336761475e-01 -5.2359980344772339e-01</leafValues></_>
        <_>
          <internalNodes>
            0 -1 43 3.4414319088682532e-04</internalNodes>
          <leafValues>
            -7.5295829772949219e-01 3.8046190142631531e-01</leafValues></_>
        <_>
          <internalNodes>
            0 -1 2 -5.0812447443604469e-04</internalNodes>
          <leafValues>
            4.0159630775451660e-01 -6.4294362068176270e-01</leafValues></_>
        <_>
          <internalNodes>
            0 -1 8 3.5561624099500477e-04</internalNodes>
          <leafValues>
            -8.3015108108520508e-01 2.7972102165222168e-01</leafValues></_>
        <_>
          <internalNodes>
            0 -1 51 -3.9076941902749240e-05</internalNodes>
          <leafValues>
            2.8274691104888916e-01 -7.3541128635406494e-01</leafValues></_>
        <_>
          <internalNodes>
            0 -1 20 -1.1278056772425771e-03</internalNodes>
          <leafValues>
            -9.6589255332946777e-01 1.8997132778167725e-01</leafValues></_>
        <_>
          <internalNodes>
            0 -1 22 -2.8082587959943339e-05</internalNodes>
          <leafValues>
            2.5443494319915771e-01 -7.8533285856246948e-01</leafValues></_>
        <_>
          <internalNodes>
            0 -1 71 5.3487683180719614e-04</internalNodes>
          <leafValues>
            -7.2600716352462769e-01 2.7612745761871338e-01</leafValues></_>
        <_>
          <internalNodes>
            0 -1 46 -1.0008398676291108e-03</internalNodes>
          <leafValues>
            5.1502120494842529e-01 -4.3240195512771606e-01</leafValues></_>
        <_>
          <internalNodes>
            0 -1 30 -2.3925498680910096e-05</internalNodes>
          <leafValues>
            -8.1775349378585815e-01 2.7648672461509705e-01</leafValues></_>
        <_>
          <internalNodes>
            0 -1 12 -3.8063356187194586e-03</internalNodes>
          <leafValues>
            -7.7953237295150757e-01 2.6102852821350098e-01</leafValues></_>
        <_>
          <internalNodes>
            0 -1 33 5.7759447372518480e-05</internalNodes>
          <leafValues>
            -6.0134756565093994e-01 3.2716637849807739e-01</leafValues></_>
        <_>
          <internalNodes>
            0 -1 21 2.0588987972587347e-03</internalNodes>
          <leafValues>
            1.9924956560134888e-01 -8.5460507869720459e-01</leafValues></_>
        <_>
          <internalNodes>
            0 -1 65 5.8231460570823401e-05</internalNodes>
          <leafValues>
            -8.1817573308944702e-01 2.0499470829963684e-01</leafValues></_>
        <_>
          <internalNodes>
            0 -1 74 -4.4191008782945573e-05</internalNodes>
          <leafValues>
            -7.9650765657424927e-01 2.3275640606880188e-01</leafValues></_>
        <_>
          <internalNodes>
            0 -1 73 -2.2197427824721672e-05</internalNodes>
          <leafValues>
            -8.7682247161865234e-01 2.0834279060363770e-01</leafValues></_>
        <_>
          <internalNodes>
            0 -1 39 -1.1881461250595748e-04</internalNodes>
          <leafValues>
            3.0927428603172302e-01 -6.3382959365844727e-01</leafValues></_></weakClassifiers></_></stages>
  <features>
    <_>
      <rects>
        <_>
          1 17 6 3 -1.</_>
        <_>
          3 17 2 3 3.</_></rects>
      <tilted>0</tilted></_>
    <_>
      <rects>
        <_>
          2 12 3 15 -1.</_>
        <_>
          3 12 1 15 3.</_></rects>
      <tilted>0</tilted></_>
    <_>
      <rects>
        <_>
          2 15 3 2 -1.</_>
        <_>
          3 15 1 2 3.</_></rects>
      <tilted>0</tilted></_>
    <_>
      <rects>
        <_>
          3 16 6 10 -1.</_>
        <_>
          5 16 2 10 3.</_></rects>
      <tilted>0</tilted></_>
    <_>
      <rects>
        <_>
          3 17 4 12 -1.</_>
        <_>
          5 17 2 12 2.</_></rects>
      <tilted>0</tilted></_>
    <_>
      <rects>
        <_>
          4 15 3 5 -1.</_>
        <_>
          5 15 1 5 3.</_></rects>
      <tilted>0</tilted></_>
    <_>
      <rects>
        <_>
          5 3 4 4 -1.</_>
        <_>
          5 3 2 2 2.</_>
        <_>
          7 5 2 2 2.</_></rects>
      <tilted>0</tilted></_>
    <_>
      <rects>
        <_>
          5 9 1 10 -1.</_>
        <_>
          5 14 1 5 2.</_></rects>
      <tilted>0</tilted></_>
    <_>
      <rects>
        <_>
          5 11 1 12 -1.</_>
        <_>
          5 15 1 4 3.</_></rects>
      <tilted>0</tilted></_>
    <_>
      <rects>
        <_>
          5 23 4 6 -1.</_>
        <_>
          5 23 2 3 2.</_>
        <_>
          7 26 2 3 2.</_></rects>
      <tilted>0</tilted></_>
    <_>
      <rects>
        <_>
          5 26 22 2 -1.</_>
        <_>
          16 26 11 2 2.</_></rects>
      <tilted>0</tilted></_>
    <_>
      <rects>
        <_>
          6 0 20 2 -1.</_>
        <_>
          6 1 20 1 2.</_></rects>
      <tilted>0</tilted></_>
    <_>
      <rects>
        <_>
          6 2 21 1 -1.</_>
        <_>
          13 2 7 1 3.</_></rects>
      <tilted>0</tilted></_>
    <_>
      <rects>
        <_>
          6 3 6 2 -1.</_>
        <_>
          6 3 3 1 2.</_>
        <_>
          9 4 3 1 2.</_></rects>
      <tilted>0</tilted></_>
    <_>
      <rects>
        <_>
          6 17 1 6 -1.</_>
        <_>
          6 19 1 2 3.</_></rects>
      <tilted>0</tilted></_>
    <_>
      <rects>
        <_>
          6 19 1 6 -1.</_>
        <_>
          6 22 1 3 2.</_></rects>
      <tilted>0</tilted></_>
    <_>
      <rects>
        <_>
          6 20 2 8 -1.</_>
        <_>
          6 24 2 4 2.</_></rects>
      <tilted>0</tilted></_>
    <_>
      <rects>
        <_>
          6 27 14 1 -1.</_>
        <_>
          13 27 7 1 2.</_></rects>
      <tilted>0</tilted></_>
    <_>
      <rects>
        <_>
          7 19 1 9 -1.</_>
        <_>
          7 22 1 3 3.</_></rects>
      <tilted>0</tilted></_>
    <_>
      <rects>
        <_>
          7 19 2 6 -1.</_>
        <_>
          7 22 2 3 2.</_></rects>
      <tilted>0</tilted></_>
    <_>
      <rects>
        <_>
          7 21 2 8 -1.</_>
        <_>
          8 21 1 8 2.</_></rects>
      <tilted>0</tilted></_>
    <_>
      <rects>
        <_>
          7 21 3 9 -1.</_>
        <_>
          8 21 1 9 3.</_></rects>
      <tilted>0</tilted></_>
    <_>
      <rects>
        <_>
          7 22 2 6 -1.</_>
        <_>
          8 22 1 6 2.</_></rects>
      <tilted>0</tilted></_>
    <_>
      <rects>
        <_>
          7 22 4 2 -1.</_>
        <_>
          9 22 2 2 2.</_></rects>
      <tilted>0</tilted></_>
    <_>
      <rects>
        <_>
          7 24 4 3 -1.</_>
        <_>
          9 24 2 3 2.</_></rects>
      <tilted>0</tilted></_>
    <_>
      <rects>
        <_>
          7 24 3 4 -1.</_>
        <_>
          7 26 3 2 2.</_></rects>
      <tilted>0</tilted></_>
    <_>
      <rects>
        <_>
          7 24 5 4 -1.</_>
        <_>
          7 26 5 2 2.</_></rects>
      <tilted>0</tilted></_>
    <_>
      <rects>
        <_>
          8 18 1 4 -1.</_>
        <_>
          8 20 1 2 2.</_></rects>
      <tilted>0</tilted></_>
    <_>
      <rects>
        <_>
          8 22 2 6 -1.</_>
        <_>
          8 22 1 3 2.</_>
        <_>
          9 25 1 3 2.</_></rects>
      <tilted>0</tilted></_>
    <_>
      <rects>
        <_>
          8 22 3 4 -1.</_>
        <_>
          8 24 3 2 2.</_></rects>
      <tilted>0</tilted></_>
    <_>
      <rects>
        <_>
          8 24 3 4 -1.</_>
        <_>
          8 26 3 2 2.</_></rects>
      <tilted>0</tilted></_>
    <_>
      <rects>
        <_>
          9 25 3 3 -1.</_>
        <_>
          10 25 1 3 3.</_></rects>
      <tilted>0</tilted></_>
    <_>
      <rects>
        <_>
          9 27 12 1 -1.</_>
        <_>
          13 27 4 1 3.</_></rects>
      <tilted>0</tilted></_>
    <_>
      <rects>
        <_>
          11 1 4 2 -1.</_>
        <_>
          11 1 2 1 2.</_>
        <_>
          13 2 2 1 2.</_></rects>
      <tilted>0</tilted></_>
    <_>
      <rects>
        <_>
          13 0 5 3 -1.</_>
        <_>
          13 1 5 1 3.</_></rects>
      <tilted>0</tilted></_>
    <_>
      <rects>
        <_>
          14 2 2 4 -1.</_>
        <_>
          14 4 2 2 2.</_></rects>
      <tilted>0</tilted></_>
    <_>
      <rects>
        <_>
          14 2 8 4 -1.</_>
        <_>
          14 2 4 2 2.</_>
        <_>
          18 4 4 2 2.</_></rects>
      <tilted>0</tilted></_>
    <_>
      <rects>
        <_>
          14 3 2 2 -1.</_>
        <_>
          14 4 2 1 2.</_></rects>
      <tilted>0</tilted></_>
    <_>
      <rects>
        <_>
          15 2 4 1 -1.</_>
        <_>
          17 2 2 1 2.</_></rects>
      <tilted>0</tilted></_>
    <_>
      <rects>
        <_>
          16 3 1 2 -1.</_>
        <_>
          16 4 1 1 2.</_></rects>
      <tilted>0</tilted></_>
    <_>
      <rects>
        <_>
          16 26 6 2 -1.</_>
        <_>
          18 26 2 2 3.</_></rects>
      <tilted>0</tilted></_>
    <_>
      <rects>
        <_>
          18 22 4 2 -1.</_>
        <_>
          20 22 2 2 2.</_></rects>
      <tilted>0</tilted></_>
    <_>
      <rects>
        <_>
          20 19 4 3 -1.</_>
        <_>
          22 19 2 3 2.</_></rects>
      <tilted>0</tilted></_>
    <_>
      <rects>
        <_>
          20 21 3 2 -1.</_>
        <_>
          21 21 1 2 3.</_></rects>
      <tilted>0</tilted></_>
    <_>
      <rects>
        <_>
          20 21 4 4 -1.</_>
        <_>
          20 23 4 2 2.</_></rects>
      <tilted>0</tilted></_>
    <_>
      <rects>
        <_>
          20 26 4 2 -1.</_>
        <_>
          22 26 2 2 2.</_></rects>
      <tilted>0</tilted></_>
    <_>
      <rects>
        <_>
          21 3 4 2 -1.</_>
        <_>
          21 3 2 1 2.</_>
        <_>
          23 4 2 1 2.</_></rects>
      <tilted>0</tilted></_>
    <_>
      <rects>
        <_>
          21 17 4 11 -1.</_>
        <_>
          23 17 2 11 2.</_></rects>
      <tilted>0</tilted></_>
    <_>
      <rects>
        <_>
          21 23 4 4 -1.</_>
        <_>
          23 23 2 4 2.</_></rects>
      <tilted>0</tilted></_>
    <_>
      <rects>
        <_>
          21 23 4 5 -1.</_>
        <_>
          23 23 2 5 2.</_></rects>
      <tilted>0</tilted></_>
    <_>
      <rects>
        <_>
          21 23 3 4 -1.</_>
        <_>
          21 25 3 2 2.</_></rects>
      <tilted>0</tilted></_>
    <_>
      <rects>
        <_>
          21 24 4 4 -1.</_>
        <_>
          23 24 2 4 2.</_></rects>
      <tilted>0</tilted></_>
    <_>
      <rects>
        <_>
          21 25 4 2 -1.</_>
        <_>
          23 25 2 2 2.</_></rects>
      <tilted>0</tilted></_>
    <_>
      <rects>
        <_>
          21 25 4 3 -1.</_>
        <_>
          23 25 2 3 2.</_></rects>
      <tilted>0</tilted></_>
    <_>
      <rects>
        <_>
          22 2 4 6 -1.</_>
        <_>
          22 2 2 3 2.</_>
        <_>
          24 5 2 3 2.</_></rects>
      <tilted>0</tilted></_>
    <_>
      <rects>
        <_>
          22 3 3 1 -1.</_>
        <_>
          23 3 1 1 3.</_></rects>
      <tilted>0</tilted></_>
    <_>
      <rects>
        <_>
          22 16 3 12 -1.</_>
        <_>
          22 20 3 4 3.</_></rects>
      <tilted>0</tilted></_>
    <_>
      <rects>
        <_>
          22 17 4 1 -1.</_>
        <_>
          24 17 2 1 2.</_></rects>
      <tilted>0</tilted></_>
    <_>
      <rects>
        <_>
          22 21 2 6 -1.</_>
        <_>
          22 23 2 2 3.</_></rects>
      <tilted>0</tilted></_>
    <_>
      <rects>
        <_>
          22 21 4 7 -1.</_>
        <_>
          24 21 2 7 2.</_></rects>
      <tilted>0</tilted></_>
    <_>
      <rects>
        <_>
          22 22 3 4 -1.</_>
        <_>
          22 24 3 2 2.</_></rects>
      <tilted>0</tilted></_>
    <_>
      <rects>
        <_>
          22 23 3 4 -1.</_>
        <_>
          22 25 3 2 2.</_></rects>
      <tilted>0</tilted></_>
    <_>
      <rects>
        <_>
          23 18 2 8 -1.</_>
        <_>
          23 22 2 4 2.</_></rects>
      <tilted>0</tilted></_>
    <_>
      <rects>
        <_>
          23 19 1 8 -1.</_>
        <_>
          23 23 1 4 2.</_></rects>
      <tilted>0</tilted></_>
    <_>
      <rects>
        <_>
          23 21 1 6 -1.</_>
        <_>
          23 24 1 3 2.</_></rects>
      <tilted>0</tilted></_>
    <_>
      <rects>
        <_>
          23 21 2 6 -1.</_>
        <_>
          23 24 2 3 2.</_></rects>
      <tilted>0</tilted></_>
    <_>
      <rects>
        <_>
          23 22 2 6 -1.</_>
        <_>
          23 25 2 3 2.</_></rects>
      <tilted>0</tilted></_>
    <_>
      <rects>
        <_>
          24 0 2 6 -1.</_>
        <_>
          24 2 2 2 3.</_></rects>
      <tilted>0</tilted></_>
    <_>
      <rects>
        <_>
          24 3 2 1 -1.</_>
        <_>
          25 3 1 1 2.</_></rects>
      <tilted>0</tilted></_>
    <_>
      <rects>
        <_>
          24 3 2 2 -1.</_>
        <_>
          25 3 1 2 2.</_></rects>
      <tilted>0</tilted></_>
    <_>
      <rects>
        <_>
          24 11 2 15 -1.</_>
        <_>
          24 16 2 5 3.</_></rects>
      <tilted>0</tilted></_>
    <_>
      <rects>
        <_>
          24 15 3 12 -1.</_>
        <_>
          25 15 1 12 3.</_></rects>
      <tilted>0</tilted></_>
    <_>
      <rects>
        <_>
          24 18 1 10 -1.</_>
        <_>
          24 23 1 5 2.</_></rects>
      <tilted>0</tilted></_>
    <_>
      <rects>
        <_>
          24 19 1 6 -1.</_>
        <_>
          24 22 1 3 2.</_></rects>
      <tilted>0</tilted></_>
    <_>
      <rects>
        <_>
          25 12 1 6 -1.</_>
        <_>
          25 14 1 2 3.</_></rects>
      <tilted>0</tilted></_>
    <_>
      <rects>
        <_>
          25 12 3 3 -1.</_>
        <_>
          26 12 1 3 3.</_></rects>
      <tilted>0</tilted></_>
    <_>
      <rects>
        <_>
          25 16 1 4 -1.</_>
        <_>
          25 18 1 2 2.</_></rects>
      <tilted>0</tilted></_>
    <_>
      <rects>
        <_>
          26 0 2 24 -1.</_>
        <_>
          26 0 1 12 2.</_>
        <_>
          27 12 1 12 2.</_></rects>
      <tilted>0</tilted></_>
    <_>
      <rects>
        <_>
          26 5 1 15 -1.</_>
        <_>
          26 10 1 5 3.</_></rects>
      <tilted>0</tilted></_>
    <_>
      <rects>
        <_>
          26 14 3 7 -1.</_>
        <_>
          27 14 1 7 3.</_></rects>
      <tilted>0</tilted></_>
    <_>
      <rects>
        <_>
          27 14 3 14 -1.</_>
        <_>
          28 14 1 14 3.</_></rects>
      <tilted>0</tilted></_>
    <_>
      <rects>
        <_>
          27 27 3 1 -1.</_>
        <_>
          28 27 1 1 3.</_></rects>
      <tilted>0</tilted></_></features></cascade>
</opencv_storage>
