<?xml version="1.0"?>
<opencv_storage>
<cascade>
  <stageType>BOOST</stageType>
  <featureType>HAAR</featureType>
  <height>30</height>
  <width>30</width>
  <stageParams>
    <boostType>GAB</boostType>
    <minHitRate>9.9900001287460327e-01</minHitRate>
    <maxFalseAlarm>3.0000001192092896e-01</maxFalseAlarm>
    <weightTrimRate>9.4999999999999996e-01</weightTrimRate>
    <maxDepth>1</maxDepth>
    <maxWeakCount>100</maxWeakCount></stageParams>
  <featureParams>
    <maxCatCount>0</maxCatCount>
    <featSize>1</featSize>
    <mode>BASIC</mode></featureParams>
  <stageNum>10</stageNum>
  <stages>
    <!-- stage 0 -->
    <_>
      <maxWeakCount>5</maxWeakCount>
      <stageThreshold>-1.3166384696960449e+00</stageThreshold>
      <weakClassifiers>
        <_>
          <internalNodes>
            0 -1 40 5.0356336869299412e-03</internalNodes>
          <leafValues>
            -8.7432867288589478e-01 8.7675207853317261e-01</leafValues></_>
        <_>
          <internalNodes>
            0 -1 10 7.8164786100387573e-03</internalNodes>
          <leafValues>
            -8.5295271873474121e-01 8.2156139612197876e-01</leafValues></_>
        <_>
          <internalNodes>
            0 -1 46 -7.8542355913668871e-04</internalNodes>
          <leafValues>
            6.6921854019165039e-01 -8.6033636331558228e-01</leafValues></_>
        <_>
          <internalNodes>
            0 -1 8 -1.2990608811378479e-02</internalNodes>
          <leafValues>
            7.4321269989013672e-01 -6.8064326047897339e-01</leafValues></_>
        <_>
          <internalNodes>
            0 -1 20 2.8635142371058464e-04</internalNodes>
          <leafValues>
            -9.7802126407623291e-01 5.2776652574539185e-01</leafValues></_></weakClassifiers></_>
    <!-- stage 1 -->
    <_>
      <maxWeakCount>5</maxWeakCount>
      <stageThreshold>-1.0829015970230103e+00</stageThreshold>
      <weakClassifiers>
        <_>
          <internalNodes>
            0 -1 38 2.0822111517190933e-02</internalNodes>
          <leafValues>
            -6.7422491312026978e-01 9.0049493312835693e-01</leafValues></_>
        <_>
          <internalNodes>
            0 -1 1 7.2856433689594269e-03</internalNodes>
          <leafValues>
            -7.6432567834854126e-01 7.9757398366928101e-01</leafValues></_>
        <_>
          <internalNodes>
            0 -1 47 6.1963626649230719e-04</internalNodes>
          <leafValues>
            -8.2672065496444702e-01 6.5413641929626465e-01</leafValues></_>
        <_>
          <internalNodes>
            0 -1 9 2.3214956745505333e-03</internalNodes>
          <leafValues>
            -7.2734206914901733e-01 7.0216846466064453e-01</leafValues></_>
        <_>
          <internalNodes>
            0 -1 45 -3.4743471769616008e-04</internalNodes>
          <leafValues>
            4.8020112514495850e-01 -9.6419233083724976e-01</leafValues></_></weakClassifiers></_>
    <!-- stage 2 -->
    <_>
      <maxWeakCount>6</maxWeakCount>
      <stageThreshold>-1.2016352415084839e+00</stageThreshold>
      <weakClassifiers>
        <_>
          <internalNodes>
            0 -1 3 -2.1155606955289841e-02</internalNodes>
          <leafValues>
            8.7396264076232910e-01 -6.3899254798889160e-01</leafValues></_>
        <_>
          <internalNodes>
            0 -1 24 -2.2931126877665520e-03</internalNodes>
          <leafValues>
            7.1473884582519531e-01 -7.7361226081848145e-01</leafValues></_>
        <_>
          <internalNodes>
            0 -1 19 5.0033151637762785e-04</internalNodes>
          <leafValues>
            -9.1356223821640015e-01 5.2500748634338379e-01</leafValues></_>
        <_>
          <internalNodes>
            0 -1 16 -5.9575721388682723e-04</internalNodes>
          <leafValues>
            3.9976257085800171e-01 -9.6405196189880371e-01</leafValues></_>
        <_>
          <internalNodes>
            0 -1 48 1.5546364011242986e-04</internalNodes>
          <leafValues>
            -8.6884367465972900e-01 3.6756029725074768e-01</leafValues></_>
        <_>
          <internalNodes>
            0 -1 14 4.7234253725036979e-04</internalNodes>
          <leafValues>
            -9.9233549833297729e-01 2.8245371580123901e-01</leafValues></_></weakClassifiers></_>
    <!-- stage 3 -->
    <_>
      <maxWeakCount>6</maxWeakCount>
      <stageThreshold>-1.1021327972412109e+00</stageThreshold>
      <weakClassifiers>
        <_>
          <internalNodes>
            0 -1 0 1.5617218613624573e-01</internalNodes>
          <leafValues>
            -6.3825756311416626e-01 8.6111110448837280e-01</leafValues></_>
        <_>
          <internalNodes>
            0 -1 31 1.9389617955312133e-04</internalNodes>
          <leafValues>
            -8.6876004934310913e-01 6.2169587612152100e-01</leafValues></_>
        <_>
          <internalNodes>
            0 -1 11 1.1821232037618756e-03</internalNodes>
          <leafValues>
            -9.0009802579879761e-01 4.4643974304199219e-01</leafValues></_>
        <_>
          <internalNodes>
            0 -1 51 8.2120765000581741e-04</internalNodes>
          <leafValues>
            -7.7172905206680298e-01 4.7913387417793274e-01</leafValues></_>
        <_>
          <internalNodes>
            0 -1 22 1.1762729627662338e-05</internalNodes>
          <leafValues>
            -9.9833452701568604e-01 3.1472474336624146e-01</leafValues></_>
        <_>
          <internalNodes>
            0 -1 22 1.5416414244100451e-03</internalNodes>
          <leafValues>
            4.1544944047927856e-01 -9.8723828792572021e-01</leafValues></_></weakClassifiers></_>
    <!-- stage 4 -->
    <_>
      <maxWeakCount>6</maxWeakCount>
      <stageThreshold>-7.4727755784988403e-01</stageThreshold>
      <weakClassifiers>
        <_>
          <internalNodes>
            0 -1 25 1.8967380747199059e-03</internalNodes>
          <leafValues>
            -7.7258759737014771e-01 7.4479764699935913e-01</leafValues></_>
        <_>
          <internalNodes>
            0 -1 2 -2.1669093519449234e-02</internalNodes>
          <leafValues>
            7.6935458183288574e-01 -5.5211901664733887e-01</leafValues></_>
        <_>
          <internalNodes>
            0 -1 29 9.6450485216337256e-06</internalNodes>
          <leafValues>
            -9.9475121498107910e-01 4.6886026859283447e-01</leafValues></_>
        <_>
          <internalNodes>
            0 -1 29 1.4219087315723300e-03</internalNodes>
          <leafValues>
            4.2908626794815063e-01 -9.5269745588302612e-01</leafValues></_>
        <_>
          <internalNodes>
            0 -1 7 3.7362002767622471e-03</internalNodes>
          <leafValues>
            -6.7273539304733276e-01 5.8661836385726929e-01</leafValues></_>
        <_>
          <internalNodes>
            0 -1 27 1.5844752488192171e-04</internalNodes>
          <leafValues>
            -9.9476164579391479e-01 3.5221794247627258e-01</leafValues></_></weakClassifiers></_>
    <!-- stage 5 -->
    <_>
      <maxWeakCount>6</maxWeakCount>
      <stageThreshold>-9.4497388601303101e-01</stageThreshold>
      <weakClassifiers>
        <_>
          <internalNodes>
            0 -1 27 1.4522054698318243e-03</internalNodes>
          <leafValues>
            6.8736708164215088e-01 -9.4915252923965454e-01</leafValues></_>
        <_>
          <internalNodes>
            0 -1 17 2.2344660013914108e-02</internalNodes>
          <leafValues>
            -7.5880050659179688e-01 6.7892450094223022e-01</leafValues></_>
        <_>
          <internalNodes>
            0 -1 43 2.3210188373923302e-02</internalNodes>
          <leafValues>
            -5.9746855497360229e-01 7.6065355539321899e-01</leafValues></_>
        <_>
          <internalNodes>
            0 -1 49 8.9853873942047358e-04</internalNodes>
          <leafValues>
            -8.6043381690979004e-01 5.0828671455383301e-01</leafValues></_>
        <_>
          <internalNodes>
            0 -1 42 -1.7704091442283243e-04</internalNodes>
          <leafValues>
            3.0787706375122070e-01 -9.7626858949661255e-01</leafValues></_>
        <_>
          <internalNodes>
            0 -1 41 -6.7733271862380207e-05</internalNodes>
          <leafValues>
            2.7648484706878662e-01 -9.9875938892364502e-01</leafValues></_></weakClassifiers></_>
    <!-- stage 6 -->
    <_>
      <maxWeakCount>7</maxWeakCount>
      <stageThreshold>-1.6857728958129883e+00</stageThreshold>
      <weakClassifiers>
        <_>
          <internalNodes>
            0 -1 13 1.1556011158972979e-03</internalNodes>
          <leafValues>
            -6.3734483718872070e-01 7.6706051826477051e-01</leafValues></_>
        <_>
          <internalNodes>
            0 -1 30 -1.2893236707895994e-03</internalNodes>
          <leafValues>
            6.3037765026092529e-01 -7.4960726499557495e-01</leafValues></_>
        <_>
          <internalNodes>
            0 -1 35 -5.4664351046085358e-04</internalNodes>
          <leafValues>
            -9.9136573076248169e-01 3.7745758891105652e-01</leafValues></_>
        <_>
          <internalNodes>
            0 -1 35 2.3172676446847618e-04</internalNodes>
          <leafValues>
            4.3829008936882019e-01 -9.9057561159133911e-01</leafValues></_>
        <_>
          <internalNodes>
            0 -1 39 1.3233431382104754e-03</internalNodes>
          <leafValues>
            -6.8825006484985352e-01 5.2266323566436768e-01</leafValues></_>
        <_>
          <internalNodes>
            0 -1 52 -4.7542410902678967e-04</internalNodes>
          <leafValues>
            4.5737689733505249e-01 -7.5703144073486328e-01</leafValues></_>
        <_>
          <internalNodes>
            0 -1 32 8.0753357906360179e-05</internalNodes>
          <leafValues>
            -9.6551752090454102e-01 3.3071306347846985e-01</leafValues></_></weakClassifiers></_>
    <!-- stage 7 -->
    <_>
      <maxWeakCount>5</maxWeakCount>
      <stageThreshold>-4.3423968553543091e-01</stageThreshold>
      <weakClassifiers>
        <_>
          <internalNodes>
            0 -1 6 -1.1865813576150686e-04</internalNodes>
          <leafValues>
            7.0015388727188110e-01 -8.1667816638946533e-01</leafValues></_>
        <_>
          <internalNodes>
            0 -1 50 6.5475818701088428e-04</internalNodes>
          <leafValues>
            -6.9961243867874146e-01 6.1946249008178711e-01</leafValues></_>
        <_>
          <internalNodes>
            0 -1 15 4.4584053102880716e-04</internalNodes>
          <leafValues>
            -9.0361237525939941e-01 4.3184554576873779e-01</leafValues></_>
        <_>
          <internalNodes>
            0 -1 34 -2.0319465547800064e-03</internalNodes>
          <leafValues>
            -9.7209733724594116e-01 3.5701856017112732e-01</leafValues></_>
        <_>
          <internalNodes>
            0 -1 33 -1.1535968224052340e-04</internalNodes>
          <leafValues>
            3.0956980586051941e-01 -9.8883640766143799e-01</leafValues></_></weakClassifiers></_>
    <!-- stage 8 -->
    <_>
      <maxWeakCount>5</maxWeakCount>
      <stageThreshold>-2.7057769894599915e-01</stageThreshold>
      <weakClassifiers>
        <_>
          <internalNodes>
            0 -1 23 -2.3200156283564866e-04</internalNodes>
          <leafValues>
            6.8402546644210815e-01 -7.6811593770980835e-01</leafValues></_>
        <_>
          <internalNodes>
            0 -1 28 2.0453738397918642e-04</internalNodes>
          <leafValues>
            4.4291406869888306e-01 -9.7759765386581421e-01</leafValues></_>
        <_>
          <internalNodes>
            0 -1 44 -1.5893224626779556e-02</internalNodes>
          <leafValues>
            6.2922149896621704e-01 -6.5036249160766602e-01</leafValues></_>
        <_>
          <internalNodes>
            0 -1 21 -6.9983501452952623e-04</internalNodes>
          <leafValues>
            -9.8611670732498169e-01 3.6670464277267456e-01</leafValues></_>
        <_>
          <internalNodes>
            0 -1 26 -1.9763592717936262e-05</internalNodes>
          <leafValues>
            3.3862939476966858e-01 -9.7293168306350708e-01</leafValues></_></weakClassifiers></_>
    <!-- stage 9 -->
    <_>
      <maxWeakCount>7</maxWeakCount>
      <stageThreshold>-1.4169439077377319e+00</stageThreshold>
      <weakClassifiers>
        <_>
          <internalNodes>
            0 -1 12 1.3195417523093056e-05</internalNodes>
          <leafValues>
            -9.6575343608856201e-01 6.4735096693038940e-01</leafValues></_>
        <_>
          <internalNodes>
            0 -1 5 1.0678419843316078e-02</internalNodes>
          <leafValues>
            -6.1539316177368164e-01 7.9455780982971191e-01</leafValues></_>
        <_>
          <internalNodes>
            0 -1 4 3.9590630331076682e-04</internalNodes>
          <leafValues>
            -7.3654937744140625e-01 6.3970601558685303e-01</leafValues></_>
        <_>
          <internalNodes>
            0 -1 18 6.3252163818106055e-04</internalNodes>
          <leafValues>
            -9.6544206142425537e-01 4.2343303561210632e-01</leafValues></_>
        <_>
          <internalNodes>
            0 -1 37 -2.1889389608986676e-04</internalNodes>
          <leafValues>
            3.7962913513183594e-01 -8.8077795505523682e-01</leafValues></_>
        <_>
          <internalNodes>
            0 -1 53 -2.3104518186300993e-03</internalNodes>
          <leafValues>
            6.3170868158340454e-01 -6.3397377729415894e-01</leafValues></_>
        <_>
          <internalNodes>
            0 -1 36 -4.9755792133510113e-04</internalNodes>
          <leafValues>
            -9.8308801651000977e-01 3.7896627187728882e-01</leafValues></_></weakClassifiers></_></stages>
  <features>
    <_>
      <rects>
        <_>
          5 13 21 13 -1.</_>
        <_>
          12 13 7 13 3.</_></rects>
      <tilted>0</tilted></_>
    <_>
      <rects>
        <_>
          7 3 12 4 -1.</_>
        <_>
          7 3 6 2 2.</_>
        <_>
          13 5 6 2 2.</_></rects>
      <tilted>0</tilted></_>
    <_>
      <rects>
        <_>
          7 19 6 10 -1.</_>
        <_>
          7 19 3 5 2.</_>
        <_>
          10 24 3 5 2.</_></rects>
      <tilted>0</tilted></_>
    <_>
      <rects>
        <_>
          7 22 10 8 -1.</_>
        <_>
          7 22 5 4 2.</_>
        <_>
          12 26 5 4 2.</_></rects>
      <tilted>0</tilted></_>
    <_>
      <rects>
        <_>
          7 25 2 4 -1.</_>
        <_>
          7 25 1 2 2.</_>
        <_>
          8 27 1 2 2.</_></rects>
      <tilted>0</tilted></_>
    <_>
      <rects>
        <_>
          9 2 8 4 -1.</_>
        <_>
          9 2 4 2 2.</_>
        <_>
          13 4 4 2 2.</_></rects>
      <tilted>0</tilted></_>
    <_>
      <rects>
        <_>
          9 3 2 1 -1.</_>
        <_>
          10 3 1 1 2.</_></rects>
      <tilted>0</tilted></_>
    <_>
      <rects>
        <_>
          9 3 10 2 -1.</_>
        <_>
          9 3 5 1 2.</_>
        <_>
          14 4 5 1 2.</_></rects>
      <tilted>0</tilted></_>
    <_>
      <rects>
        <_>
          9 5 8 8 -1.</_>
        <_>
          9 5 4 4 2.</_>
        <_>
          13 9 4 4 2.</_></rects>
      <tilted>0</tilted></_>
    <_>
      <rects>
        <_>
          9 13 2 8 -1.</_>
        <_>
          9 13 1 4 2.</_>
        <_>
          10 17 1 4 2.</_></rects>
      <tilted>0</tilted></_>
    <_>
      <rects>
        <_>
          9 16 4 8 -1.</_>
        <_>
          11 16 2 8 2.</_></rects>
      <tilted>0</tilted></_>
    <_>
      <rects>
        <_>
          10 16 3 8 -1.</_>
        <_>
          11 16 1 8 3.</_></rects>
      <tilted>0</tilted></_>
    <_>
      <rects>
        <_>
          10 16 8 6 -1.</_>
        <_>
          10 18 8 2 3.</_></rects>
      <tilted>0</tilted></_>
    <_>
      <rects>
        <_>
          11 6 2 3 -1.</_>
        <_>
          12 6 1 3 2.</_></rects>
      <tilted>0</tilted></_>
    <_>
      <rects>
        <_>
          11 8 12 1 -1.</_>
        <_>
          17 8 6 1 2.</_></rects>
      <tilted>0</tilted></_>
    <_>
      <rects>
        <_>
          11 14 2 2 -1.</_>
        <_>
          12 14 1 2 2.</_></rects>
      <tilted>0</tilted></_>
    <_>
      <rects>
        <_>
          12 5 6 4 -1.</_>
        <_>
          12 5 3 2 2.</_>
        <_>
          15 7 3 2 2.</_></rects>
      <tilted>0</tilted></_>
    <_>
      <rects>
        <_>
          12 5 12 6 -1.</_>
        <_>
          12 7 12 2 3.</_></rects>
      <tilted>0</tilted></_>
    <_>
      <rects>
        <_>
          12 6 9 3 -1.</_>
        <_>
          12 7 9 1 3.</_></rects>
      <tilted>0</tilted></_>
    <_>
      <rects>
        <_>
          12 13 4 1 -1.</_>
        <_>
          14 13 2 1 2.</_></rects>
      <tilted>0</tilted></_>
    <_>
      <rects>
        <_>
          12 13 4 2 -1.</_>
        <_>
          12 14 4 1 2.</_></rects>
      <tilted>0</tilted></_>
    <_>
      <rects>
        <_>
          12 14 5 8 -1.</_>
        <_>
          12 18 5 4 2.</_></rects>
      <tilted>0</tilted></_>
    <_>
      <rects>
        <_>
          12 17 6 5 -1.</_>
        <_>
          15 17 3 5 2.</_></rects>
      <tilted>0</tilted></_>
    <_>
      <rects>
        <_>
          12 24 1 2 -1.</_>
        <_>
          12 25 1 1 2.</_></rects>
      <tilted>0</tilted></_>
    <_>
      <rects>
        <_>
          13 8 7 2 -1.</_>
        <_>
          13 9 7 1 2.</_></rects>
      <tilted>0</tilted></_>
    <_>
      <rects>
        <_>
          13 12 6 2 -1.</_>
        <_>
          13 13 6 1 2.</_></rects>
      <tilted>0</tilted></_>
    <_>
      <rects>
        <_>
          13 15 4 6 -1.</_>
        <_>
          13 18 4 3 2.</_></rects>
      <tilted>0</tilted></_>
    <_>
      <rects>
        <_>
          13 16 6 4 -1.</_>
        <_>
          16 16 3 4 2.</_></rects>
      <tilted>0</tilted></_>
    <_>
      <rects>
        <_>
          13 16 5 6 -1.</_>
        <_>
          13 18 5 2 3.</_></rects>
      <tilted>0</tilted></_>
    <_>
      <rects>
        <_>
          13 17 6 5 -1.</_>
        <_>
          16 17 3 5 2.</_></rects>
      <tilted>0</tilted></_>
    <_>
      <rects>
        <_>
          13 25 3 2 -1.</_>
        <_>
          13 26 3 1 2.</_></rects>
      <tilted>0</tilted></_>
    <_>
      <rects>
        <_>
          14 4 1 2 -1.</_>
        <_>
          14 5 1 1 2.</_></rects>
      <tilted>0</tilted></_>
    <_>
      <rects>
        <_>
          14 14 4 7 -1.</_>
        <_>
          16 14 2 7 2.</_></rects>
      <tilted>0</tilted></_>
    <_>
      <rects>
        <_>
          14 15 3 10 -1.</_>
        <_>
          14 20 3 5 2.</_></rects>
      <tilted>0</tilted></_>
    <_>
      <rects>
        <_>
          14 15 4 10 -1.</_>
        <_>
          14 20 4 5 2.</_></rects>
      <tilted>0</tilted></_>
    <_>
      <rects>
        <_>
          14 18 4 6 -1.</_>
        <_>
          14 21 4 3 2.</_></rects>
      <tilted>0</tilted></_>
    <_>
      <rects>
        <_>
          15 15 1 10 -1.</_>
        <_>
          15 20 1 5 2.</_></rects>
      <tilted>0</tilted></_>
    <_>
      <rects>
        <_>
          15 22 4 4 -1.</_>
        <_>
          15 22 2 2 2.</_>
        <_>
          17 24 2 2 2.</_></rects>
      <tilted>0</tilted></_>
    <_>
      <rects>
        <_>
          15 22 10 8 -1.</_>
        <_>
          15 22 5 4 2.</_>
        <_>
          20 26 5 4 2.</_></rects>
      <tilted>0</tilted></_>
    <_>
      <rects>
        <_>
          16 3 2 2 -1.</_>
        <_>
          16 4 2 1 2.</_></rects>
      <tilted>0</tilted></_>
    <_>
      <rects>
        <_>
          16 6 8 4 -1.</_>
        <_>
          16 6 4 2 2.</_>
        <_>
          20 8 4 2 2.</_></rects>
      <tilted>0</tilted></_>
    <_>
      <rects>
        <_>
          17 16 2 8 -1.</_>
        <_>
          17 20 2 4 2.</_></rects>
      <tilted>0</tilted></_>
    <_>
      <rects>
        <_>
          17 19 4 4 -1.</_>
        <_>
          17 19 2 2 2.</_>
        <_>
          19 21 2 2 2.</_></rects>
      <tilted>0</tilted></_>
    <_>
      <rects>
        <_>
          17 21 8 8 -1.</_>
        <_>
          17 21 4 4 2.</_>
        <_>
          21 25 4 4 2.</_></rects>
      <tilted>0</tilted></_>
    <_>
      <rects>
        <_>
          19 7 4 16 -1.</_>
        <_>
          19 7 2 8 2.</_>
        <_>
          21 15 2 8 2.</_></rects>
      <tilted>0</tilted></_>
    <_>
      <rects>
        <_>
          19 15 2 3 -1.</_>
        <_>
          20 15 1 3 2.</_></rects>
      <tilted>0</tilted></_>
    <_>
      <rects>
        <_>
          20 17 2 4 -1.</_>
        <_>
          21 17 1 4 2.</_></rects>
      <tilted>0</tilted></_>
    <_>
      <rects>
        <_>
          21 6 2 2 -1.</_>
        <_>
          21 7 2 1 2.</_></rects>
      <tilted>0</tilted></_>
    <_>
      <rects>
        <_>
          21 27 1 2 -1.</_>
        <_>
          21 28 1 1 2.</_></rects>
      <tilted>0</tilted></_>
    <_>
      <rects>
        <_>
          22 7 2 6 -1.</_>
        <_>
          22 9 2 2 3.</_></rects>
      <tilted>0</tilted></_>
    <_>
      <rects>
        <_>
          22 11 2 2 -1.</_>
        <_>
          23 11 1 2 2.</_></rects>
      <tilted>0</tilted></_>
    <_>
      <rects>
        <_>
          22 25 1 4 -1.</_>
        <_>
          22 27 1 2 2.</_></rects>
      <tilted>0</tilted></_>
    <_>
      <rects>
        <_>
          22 26 2 4 -1.</_>
        <_>
          22 26 1 2 2.</_>
        <_>
          23 28 1 2 2.</_></rects>
      <tilted>0</tilted></_>
    <_>
      <rects>
        <_>
          24 9 3 4 -1.</_>
        <_>
          25 9 1 4 3.</_></rects>
      <tilted>0</tilted></_></features></cascade>
</opencv_storage>
