<?xml version="1.0"?>
<opencv_storage>
<cascade>
  <stageType>BOOST</stageType>
  <featureType>HAAR</featureType>
  <height>30</height>
  <width>30</width>
  <stageParams>
    <boostType>GAB</boostType>
    <minHitRate>9.9900001287460327e-01</minHitRate>
    <maxFalseAlarm>1.5000000596046448e-01</maxFalseAlarm>
    <weightTrimRate>9.4999999999999996e-01</weightTrimRate>
    <maxDepth>1</maxDepth>
    <maxWeakCount>100</maxWeakCount></stageParams>
  <featureParams>
    <maxCatCount>0</maxCatCount>
    <featSize>1</featSize>
    <mode>BASIC</mode></featureParams>
  <stageNum>7</stageNum>
  <stages>
    <!-- stage 0 -->
    <_>
      <maxWeakCount>4</maxWeakCount>
      <stageThreshold>-1.7115666866302490e+00</stageThreshold>
      <weakClassifiers>
        <_>
          <internalNodes>
            0 -1 23 7.8455626964569092e-02</internalNodes>
          <leafValues>
            -9.0913027524948120e-01 9.3922770023345947e-01</leafValues></_>
        <_>
          <internalNodes>
            0 -1 15 8.9479275047779083e-03</internalNodes>
          <leafValues>
            -8.1316113471984863e-01 9.0939098596572876e-01</leafValues></_>
        <_>
          <internalNodes>
            0 -1 28 1.7304654465988278e-03</internalNodes>
          <leafValues>
            -9.5871758460998535e-01 7.6313132047653198e-01</leafValues></_>
        <_>
          <internalNodes>
            0 -1 48 2.3803988005965948e-03</internalNodes>
          <leafValues>
            -8.7891566753387451e-01 7.1604591608047485e-01</leafValues></_></weakClassifiers></_>
    <!-- stage 1 -->
    <_>
      <maxWeakCount>7</maxWeakCount>
      <stageThreshold>-1.4379918575286865e+00</stageThreshold>
      <weakClassifiers>
        <_>
          <internalNodes>
            0 -1 18 -9.1702751815319061e-03</internalNodes>
          <leafValues>
            8.7427145242691040e-01 -8.2368654012680054e-01</leafValues></_>
        <_>
          <internalNodes>
            0 -1 11 2.8293472714722157e-03</internalNodes>
          <leafValues>
            -9.0654569864273071e-01 7.4219071865081787e-01</leafValues></_>
        <_>
          <internalNodes>
            0 -1 0 6.3881454989314079e-03</internalNodes>
          <leafValues>
            -6.9033449888229370e-01 8.1849956512451172e-01</leafValues></_>
        <_>
          <internalNodes>
            0 -1 45 -8.4904278628528118e-04</internalNodes>
          <leafValues>
            5.9406107664108276e-01 -9.2823880910873413e-01</leafValues></_>
        <_>
          <internalNodes>
            0 -1 12 1.6355423722416162e-03</internalNodes>
          <leafValues>
            -9.0638577938079834e-01 5.0702840089797974e-01</leafValues></_>
        <_>
          <internalNodes>
            0 -1 52 -2.1063836757093668e-03</internalNodes>
          <leafValues>
            6.5963602066040039e-01 -6.9228303432464600e-01</leafValues></_>
        <_>
          <internalNodes>
            0 -1 50 2.1314498735591769e-04</internalNodes>
          <leafValues>
            -7.6771461963653564e-01 5.7376837730407715e-01</leafValues></_></weakClassifiers></_>
    <!-- stage 2 -->
    <_>
      <maxWeakCount>8</maxWeakCount>
      <stageThreshold>-1.1806334257125854e+00</stageThreshold>
      <weakClassifiers>
        <_>
          <internalNodes>
            0 -1 47 -7.7157444320619106e-03</internalNodes>
          <leafValues>
            7.9499310255050659e-01 -8.5128980875015259e-01</leafValues></_>
        <_>
          <internalNodes>
            0 -1 33 1.0225072037428617e-03</internalNodes>
          <leafValues>
            -7.9873216152191162e-01 6.8916070461273193e-01</leafValues></_>
        <_>
          <internalNodes>
            0 -1 22 4.9960133619606495e-03</internalNodes>
          <leafValues>
            -7.6500672101974487e-01 6.3094496726989746e-01</leafValues></_>
        <_>
          <internalNodes>
            0 -1 26 5.2735181525349617e-03</internalNodes>
          <leafValues>
            -9.0012031793594360e-01 5.4268580675125122e-01</leafValues></_>
        <_>
          <internalNodes>
            0 -1 4 -2.4788125883787870e-03</internalNodes>
          <leafValues>
            5.5101585388183594e-01 -7.3999732732772827e-01</leafValues></_>
        <_>
          <internalNodes>
            0 -1 10 -5.3523099049925804e-03</internalNodes>
          <leafValues>
            5.1730203628540039e-01 -7.8294968605041504e-01</leafValues></_>
        <_>
          <internalNodes>
            0 -1 51 8.1328937085345387e-04</internalNodes>
          <leafValues>
            -8.2562905550003052e-01 4.6358510851860046e-01</leafValues></_>
        <_>
          <internalNodes>
            0 -1 37 -8.2100041254307143e-06</internalNodes>
          <leafValues>
            -9.4513201713562012e-01 3.6605700850486755e-01</leafValues></_></weakClassifiers></_>
    <!-- stage 3 -->
    <_>
      <maxWeakCount>10</maxWeakCount>
      <stageThreshold>-1.0434786081314087e+00</stageThreshold>
      <weakClassifiers>
        <_>
          <internalNodes>
            0 -1 21 1.6413071751594543e-01</internalNodes>
          <leafValues>
            -6.7378979921340942e-01 8.1879335641860962e-01</leafValues></_>
        <_>
          <internalNodes>
            0 -1 49 9.6452154684811831e-04</internalNodes>
          <leafValues>
            -8.4806036949157715e-01 6.2547630071640015e-01</leafValues></_>
        <_>
          <internalNodes>
            0 -1 14 9.3794297426939011e-03</internalNodes>
          <leafValues>
            -7.9446417093276978e-01 5.5096012353897095e-01</leafValues></_>
        <_>
          <internalNodes>
            0 -1 20 -1.9794833497144282e-04</internalNodes>
          <leafValues>
            3.6597076058387756e-01 -9.5395755767822266e-01</leafValues></_>
        <_>
          <internalNodes>
            0 -1 2 7.2516202926635742e-03</internalNodes>
          <leafValues>
            -6.2208926677703857e-01 5.6466168165206909e-01</leafValues></_>
        <_>
          <internalNodes>
            0 -1 29 2.2451397962868214e-03</internalNodes>
          <leafValues>
            -9.3001425266265869e-01 3.7270513176918030e-01</leafValues></_>
        <_>
          <internalNodes>
            0 -1 41 -1.1165247997269034e-04</internalNodes>
          <leafValues>
            3.1913113594055176e-01 -9.4067633152008057e-01</leafValues></_>
        <_>
          <internalNodes>
            0 -1 44 -1.6830669483169913e-04</internalNodes>
          <leafValues>
            2.5824874639511108e-01 -9.8279339075088501e-01</leafValues></_>
        <_>
          <internalNodes>
            0 -1 19 2.7150072855874896e-04</internalNodes>
          <leafValues>
            -8.9613837003707886e-01 2.9015430808067322e-01</leafValues></_>
        <_>
          <internalNodes>
            0 -1 46 4.9972860142588615e-04</internalNodes>
          <leafValues>
            -7.6222985982894897e-01 3.6177137494087219e-01</leafValues></_></weakClassifiers></_>
    <!-- stage 4 -->
    <_>
      <maxWeakCount>8</maxWeakCount>
      <stageThreshold>-1.2472910881042480e+00</stageThreshold>
      <weakClassifiers>
        <_>
          <internalNodes>
            0 -1 9 7.0325434207916260e-02</internalNodes>
          <leafValues>
            -6.1245673894882202e-01 7.9485017061233521e-01</leafValues></_>
        <_>
          <internalNodes>
            0 -1 8 6.1726099811494350e-03</internalNodes>
          <leafValues>
            -8.8776570558547974e-01 5.2599734067916870e-01</leafValues></_>
        <_>
          <internalNodes>
            0 -1 24 2.4604002013802528e-02</internalNodes>
          <leafValues>
            -8.2441568374633789e-01 4.3470695614814758e-01</leafValues></_>
        <_>
          <internalNodes>
            0 -1 27 -1.4977861195802689e-02</internalNodes>
          <leafValues>
            5.0507372617721558e-01 -6.5467017889022827e-01</leafValues></_>
        <_>
          <internalNodes>
            0 -1 35 -2.2152129531605169e-05</internalNodes>
          <leafValues>
            -9.7406554222106934e-01 3.7262022495269775e-01</leafValues></_>
        <_>
          <internalNodes>
            0 -1 34 2.1244122181087732e-03</internalNodes>
          <leafValues>
            3.6361750960350037e-01 -9.7196555137634277e-01</leafValues></_>
        <_>
          <internalNodes>
            0 -1 40 -5.3024734370410442e-05</internalNodes>
          <leafValues>
            2.4152259528636932e-01 -9.7027087211608887e-01</leafValues></_>
        <_>
          <internalNodes>
            0 -1 7 8.6746539454907179e-04</internalNodes>
          <leafValues>
            -6.5950614213943481e-01 4.6207252144813538e-01</leafValues></_></weakClassifiers></_>
    <!-- stage 5 -->
    <_>
      <maxWeakCount>8</maxWeakCount>
      <stageThreshold>-4.4594869017601013e-01</stageThreshold>
      <weakClassifiers>
        <_>
          <internalNodes>
            0 -1 13 5.0605550408363342e-02</internalNodes>
          <leafValues>
            -7.3639935255050659e-01 6.9546228647232056e-01</leafValues></_>
        <_>
          <internalNodes>
            0 -1 54 -8.0960895866155624e-03</internalNodes>
          <leafValues>
            6.8147015571594238e-01 -6.1632758378982544e-01</leafValues></_>
        <_>
          <internalNodes>
            0 -1 42 1.8786990549415350e-03</internalNodes>
          <leafValues>
            -7.7333021163940430e-01 5.0106120109558105e-01</leafValues></_>
        <_>
          <internalNodes>
            0 -1 30 5.5670025176368654e-05</internalNodes>
          <leafValues>
            4.0050405263900757e-01 -9.1944980621337891e-01</leafValues></_>
        <_>
          <internalNodes>
            0 -1 1 3.6795064806938171e-03</internalNodes>
          <leafValues>
            -7.2995024919509888e-01 4.7426572442054749e-01</leafValues></_>
        <_>
          <internalNodes>
            0 -1 39 5.6750216754153371e-04</internalNodes>
          <leafValues>
            3.1074836850166321e-01 -9.8335516452789307e-01</leafValues></_>
        <_>
          <internalNodes>
            0 -1 43 1.7837021732702851e-04</internalNodes>
          <leafValues>
            -9.8211079835891724e-01 2.9321849346160889e-01</leafValues></_>
        <_>
          <internalNodes>
            0 -1 6 1.0461154161021113e-03</internalNodes>
          <leafValues>
            -9.2128247022628784e-01 2.4693424999713898e-01</leafValues></_></weakClassifiers></_>
    <!-- stage 6 -->
    <_>
      <maxWeakCount>10</maxWeakCount>
      <stageThreshold>-7.5031846761703491e-01</stageThreshold>
      <weakClassifiers>
        <_>
          <internalNodes>
            0 -1 32 2.4622876197099686e-02</internalNodes>
          <leafValues>
            -6.4882630109786987e-01 7.5853657722473145e-01</leafValues></_>
        <_>
          <internalNodes>
            0 -1 53 -9.3421770725399256e-04</internalNodes>
          <leafValues>
            6.6209328174591064e-01 -6.8024420738220215e-01</leafValues></_>
        <_>
          <internalNodes>
            0 -1 25 1.4496531337499619e-02</internalNodes>
          <leafValues>
            -8.9194542169570923e-01 4.6812486648559570e-01</leafValues></_>
        <_>
          <internalNodes>
            0 -1 3 1.2125356122851372e-02</internalNodes>
          <leafValues>
            -8.3033311367034912e-01 4.9032947421073914e-01</leafValues></_>
        <_>
          <internalNodes>
            0 -1 5 -1.3715401291847229e-04</internalNodes>
          <leafValues>
            5.2577108144760132e-01 -7.7103888988494873e-01</leafValues></_>
        <_>
          <internalNodes>
            0 -1 31 -8.2422152627259493e-04</internalNodes>
          <leafValues>
            3.9901703596115112e-01 -8.3328759670257568e-01</leafValues></_>
        <_>
          <internalNodes>
            0 -1 36 1.5664109378121793e-04</internalNodes>
          <leafValues>
            3.5338127613067627e-01 -9.6373039484024048e-01</leafValues></_>
        <_>
          <internalNodes>
            0 -1 38 -8.5603416664525867e-04</internalNodes>
          <leafValues>
            -9.7153490781784058e-01 2.8285634517669678e-01</leafValues></_>
        <_>
          <internalNodes>
            0 -1 17 4.7759621520526707e-04</internalNodes>
          <leafValues>
            -9.1978961229324341e-01 2.9248034954071045e-01</leafValues></_>
        <_>
          <internalNodes>
            0 -1 16 1.1652540415525436e-02</internalNodes>
          <leafValues>
            -7.6591807603836060e-01 3.8426408171653748e-01</leafValues></_></weakClassifiers></_></stages>
  <features>
    <_>
      <rects>
        <_>
          5 10 3 11 -1.</_>
        <_>
          6 10 1 11 3.</_></rects>
      <tilted>0</tilted></_>
    <_>
      <rects>
        <_>
          5 10 2 13 -1.</_>
        <_>
          6 10 1 13 2.</_></rects>
      <tilted>0</tilted></_>
    <_>
      <rects>
        <_>
          5 12 3 8 -1.</_>
        <_>
          6 12 1 8 3.</_></rects>
      <tilted>0</tilted></_>
    <_>
      <rects>
        <_>
          7 2 16 8 -1.</_>
        <_>
          7 2 8 4 2.</_>
        <_>
          15 6 8 4 2.</_></rects>
      <tilted>0</tilted></_>
    <_>
      <rects>
        <_>
          7 2 10 2 -1.</_>
        <_>
          7 3 10 1 2.</_></rects>
      <tilted>0</tilted></_>
    <_>
      <rects>
        <_>
          8 2 1 2 -1.</_>
        <_>
          8 3 1 1 2.</_></rects>
      <tilted>0</tilted></_>
    <_>
      <rects>
        <_>
          8 2 6 2 -1.</_>
        <_>
          11 2 3 2 2.</_></rects>
      <tilted>0</tilted></_>
    <_>
      <rects>
        <_>
          8 27 2 2 -1.</_>
        <_>
          8 28 2 1 2.</_></rects>
      <tilted>0</tilted></_>
    <_>
      <rects>
        <_>
          8 27 12 2 -1.</_>
        <_>
          12 27 4 2 3.</_></rects>
      <tilted>0</tilted></_>
    <_>
      <rects>
        <_>
          9 3 6 25 -1.</_>
        <_>
          11 3 2 25 3.</_></rects>
      <tilted>0</tilted></_>
    <_>
      <rects>
        <_>
          9 9 3 13 -1.</_>
        <_>
          10 9 1 13 3.</_></rects>
      <tilted>0</tilted></_>
    <_>
      <rects>
        <_>
          9 27 9 1 -1.</_>
        <_>
          12 27 3 1 3.</_></rects>
      <tilted>0</tilted></_>
    <_>
      <rects>
        <_>
          10 2 6 2 -1.</_>
        <_>
          12 2 2 2 3.</_></rects>
      <tilted>0</tilted></_>
    <_>
      <rects>
        <_>
          10 5 12 17 -1.</_>
        <_>
          16 5 6 17 2.</_></rects>
      <tilted>0</tilted></_>
    <_>
      <rects>
        <_>
          10 6 2 16 -1.</_>
        <_>
          11 6 1 16 2.</_></rects>
      <tilted>0</tilted></_>
    <_>
      <rects>
        <_>
          10 7 2 19 -1.</_>
        <_>
          11 7 1 19 2.</_></rects>
      <tilted>0</tilted></_>
    <_>
      <rects>
        <_>
          10 22 15 8 -1.</_>
        <_>
          10 26 15 4 2.</_></rects>
      <tilted>0</tilted></_>
    <_>
      <rects>
        <_>
          11 25 3 2 -1.</_>
        <_>
          12 25 1 2 3.</_></rects>
      <tilted>0</tilted></_>
    <_>
      <rects>
        <_>
          12 5 2 21 -1.</_>
        <_>
          13 5 1 21 2.</_></rects>
      <tilted>0</tilted></_>
    <_>
      <rects>
        <_>
          12 24 2 4 -1.</_>
        <_>
          12 24 1 2 2.</_>
        <_>
          13 26 1 2 2.</_></rects>
      <tilted>0</tilted></_>
    <_>
      <rects>
        <_>
          13 3 1 4 -1.</_>
        <_>
          13 5 1 2 2.</_></rects>
      <tilted>0</tilted></_>
    <_>
      <rects>
        <_>
          13 5 12 19 -1.</_>
        <_>
          17 5 4 19 3.</_></rects>
      <tilted>0</tilted></_>
    <_>
      <rects>
        <_>
          13 27 9 3 -1.</_>
        <_>
          13 28 9 1 3.</_></rects>
      <tilted>0</tilted></_>
    <_>
      <rects>
        <_>
          14 6 9 19 -1.</_>
        <_>
          17 6 3 19 3.</_></rects>
      <tilted>0</tilted></_>
    <_>
      <rects>
        <_>
          15 12 6 15 -1.</_>
        <_>
          17 12 2 15 3.</_></rects>
      <tilted>0</tilted></_>
    <_>
      <rects>
        <_>
          16 5 6 8 -1.</_>
        <_>
          18 5 2 8 3.</_></rects>
      <tilted>0</tilted></_>
    <_>
      <rects>
        <_>
          16 7 3 17 -1.</_>
        <_>
          17 7 1 17 3.</_></rects>
      <tilted>0</tilted></_>
    <_>
      <rects>
        <_>
          17 2 8 6 -1.</_>
        <_>
          17 2 4 3 2.</_>
        <_>
          21 5 4 3 2.</_></rects>
      <tilted>0</tilted></_>
    <_>
      <rects>
        <_>
          17 4 2 4 -1.</_>
        <_>
          17 6 2 2 2.</_></rects>
      <tilted>0</tilted></_>
    <_>
      <rects>
        <_>
          17 4 3 12 -1.</_>
        <_>
          17 8 3 4 3.</_></rects>
      <tilted>0</tilted></_>
    <_>
      <rects>
        <_>
          17 12 1 6 -1.</_>
        <_>
          17 14 1 2 3.</_></rects>
      <tilted>0</tilted></_>
    <_>
      <rects>
        <_>
          17 18 1 8 -1.</_>
        <_>
          17 22 1 4 2.</_></rects>
      <tilted>0</tilted></_>
    <_>
      <rects>
        <_>
          17 19 8 10 -1.</_>
        <_>
          17 19 4 5 2.</_>
        <_>
          21 24 4 5 2.</_></rects>
      <tilted>0</tilted></_>
    <_>
      <rects>
        <_>
          18 4 2 2 -1.</_>
        <_>
          18 5 2 1 2.</_></rects>
      <tilted>0</tilted></_>
    <_>
      <rects>
        <_>
          18 6 1 18 -1.</_>
        <_>
          18 12 1 6 3.</_></rects>
      <tilted>0</tilted></_>
    <_>
      <rects>
        <_>
          18 7 1 10 -1.</_>
        <_>
          18 12 1 5 2.</_></rects>
      <tilted>0</tilted></_>
    <_>
      <rects>
        <_>
          18 7 1 14 -1.</_>
        <_>
          18 14 1 7 2.</_></rects>
      <tilted>0</tilted></_>
    <_>
      <rects>
        <_>
          18 10 2 4 -1.</_>
        <_>
          18 12 2 2 2.</_></rects>
      <tilted>0</tilted></_>
    <_>
      <rects>
        <_>
          18 13 1 10 -1.</_>
        <_>
          18 18 1 5 2.</_></rects>
      <tilted>0</tilted></_>
    <_>
      <rects>
        <_>
          18 13 2 9 -1.</_>
        <_>
          18 16 2 3 3.</_></rects>
      <tilted>0</tilted></_>
    <_>
      <rects>
        <_>
          18 15 1 6 -1.</_>
        <_>
          18 18 1 3 2.</_></rects>
      <tilted>0</tilted></_>
    <_>
      <rects>
        <_>
          18 23 1 2 -1.</_>
        <_>
          18 24 1 1 2.</_></rects>
      <tilted>0</tilted></_>
    <_>
      <rects>
        <_>
          18 27 6 1 -1.</_>
        <_>
          21 27 3 1 2.</_></rects>
      <tilted>0</tilted></_>
    <_>
      <rects>
        <_>
          19 9 1 15 -1.</_>
        <_>
          19 14 1 5 3.</_></rects>
      <tilted>0</tilted></_>
    <_>
      <rects>
        <_>
          19 15 2 2 -1.</_>
        <_>
          20 15 1 2 2.</_></rects>
      <tilted>0</tilted></_>
    <_>
      <rects>
        <_>
          19 27 6 2 -1.</_>
        <_>
          19 27 3 1 2.</_>
        <_>
          22 28 3 1 2.</_></rects>
      <tilted>0</tilted></_>
    <_>
      <rects>
        <_>
          20 2 4 1 -1.</_>
        <_>
          22 2 2 1 2.</_></rects>
      <tilted>0</tilted></_>
    <_>
      <rects>
        <_>
          20 9 2 15 -1.</_>
        <_>
          21 9 1 15 2.</_></rects>
      <tilted>0</tilted></_>
    <_>
      <rects>
        <_>
          21 25 2 4 -1.</_>
        <_>
          21 27 2 2 2.</_></rects>
      <tilted>0</tilted></_>
    <_>
      <rects>
        <_>
          21 26 2 2 -1.</_>
        <_>
          21 27 2 1 2.</_></rects>
      <tilted>0</tilted></_>
    <_>
      <rects>
        <_>
          22 3 2 1 -1.</_>
        <_>
          23 3 1 1 2.</_></rects>
      <tilted>0</tilted></_>
    <_>
      <rects>
        <_>
          23 23 1 4 -1.</_>
        <_>
          23 25 1 2 2.</_></rects>
      <tilted>0</tilted></_>
    <_>
      <rects>
        <_>
          23 23 2 6 -1.</_>
        <_>
          23 23 1 3 2.</_>
        <_>
          24 26 1 3 2.</_></rects>
      <tilted>0</tilted></_>
    <_>
      <rects>
        <_>
          23 24 2 4 -1.</_>
        <_>
          23 24 1 2 2.</_>
        <_>
          24 26 1 2 2.</_></rects>
      <tilted>0</tilted></_>
    <_>
      <rects>
        <_>
          25 2 3 27 -1.</_>
        <_>
          26 2 1 27 3.</_></rects>
      <tilted>0</tilted></_></features></cascade>
</opencv_storage>
