<?xml version="1.0"?>
<opencv_storage>
<cascade>
  <stageType>BOOST</stageType>
  <featureType>HAAR</featureType>
  <height>30</height>
  <width>30</width>
  <stageParams>
    <boostType>GAB</boostType>
    <minHitRate>9.9900001287460327e-01</minHitRate>
    <maxFalseAlarm>2.5000000000000000e-01</maxFalseAlarm>
    <weightTrimRate>9.4999999999999996e-01</weightTrimRate>
    <maxDepth>1</maxDepth>
    <maxWeakCount>100</maxWeakCount></stageParams>
  <featureParams>
    <maxCatCount>0</maxCatCount>
    <featSize>1</featSize>
    <mode>BASIC</mode></featureParams>
  <stageNum>9</stageNum>
  <stages>
    <!-- stage 0 -->
    <_>
      <maxWeakCount>3</maxWeakCount>
      <stageThreshold>-9.6154260635375977e-01</stageThreshold>
      <weakClassifiers>
        <_>
          <internalNodes>
            0 -1 19 8.6834147572517395e-02</internalNodes>
          <leafValues>
            -9.3103450536727905e-01 9.6599149703979492e-01</leafValues></_>
        <_>
          <internalNodes>
            0 -1 6 9.3524176627397537e-03</internalNodes>
          <leafValues>
            -7.9173934459686279e-01 9.0173733234405518e-01</leafValues></_>
        <_>
          <internalNodes>
            0 -1 20 1.8523424863815308e-02</internalNodes>
          <leafValues>
            -8.8731551170349121e-01 7.6123118400573730e-01</leafValues></_></weakClassifiers></_>
    <!-- stage 1 -->
    <_>
      <maxWeakCount>5</maxWeakCount>
      <stageThreshold>-1.3307627439498901e+00</stageThreshold>
      <weakClassifiers>
        <_>
          <internalNodes>
            0 -1 16 1.5869742631912231e-01</internalNodes>
          <leafValues>
            -8.4306031465530396e-01 9.3890434503555298e-01</leafValues></_>
        <_>
          <internalNodes>
            0 -1 34 6.4156902953982353e-04</internalNodes>
          <leafValues>
            -8.4149295091629028e-01 7.6635509729385376e-01</leafValues></_>
        <_>
          <internalNodes>
            0 -1 22 1.0060312226414680e-02</internalNodes>
          <leafValues>
            -7.7821171283721924e-01 7.3516672849655151e-01</leafValues></_>
        <_>
          <internalNodes>
            0 -1 32 -5.6237814715132117e-04</internalNodes>
          <leafValues>
            5.3996032476425171e-01 -9.0777784585952759e-01</leafValues></_>
        <_>
          <internalNodes>
            0 -1 5 3.2513365149497986e-03</internalNodes>
          <leafValues>
            -7.7425670623779297e-01 5.9204185009002686e-01</leafValues></_></weakClassifiers></_>
    <!-- stage 2 -->
    <_>
      <maxWeakCount>7</maxWeakCount>
      <stageThreshold>-9.7138333320617676e-01</stageThreshold>
      <weakClassifiers>
        <_>
          <internalNodes>
            0 -1 15 1.9091096520423889e-01</internalNodes>
          <leafValues>
            -7.5813502073287964e-01 9.0357774496078491e-01</leafValues></_>
        <_>
          <internalNodes>
            0 -1 9 5.7177441194653511e-03</internalNodes>
          <leafValues>
            -7.6641839742660522e-01 7.1960824728012085e-01</leafValues></_>
        <_>
          <internalNodes>
            0 -1 57 -8.2221925258636475e-03</internalNodes>
          <leafValues>
            5.8037775754928589e-01 -7.4953538179397583e-01</leafValues></_>
        <_>
          <internalNodes>
            0 -1 48 4.4366961810737848e-04</internalNodes>
          <leafValues>
            3.8184943795204163e-01 -9.9166172742843628e-01</leafValues></_>
        <_>
          <internalNodes>
            0 -1 30 -6.6037150099873543e-04</internalNodes>
          <leafValues>
            -9.9967563152313232e-01 3.6908045411109924e-01</leafValues></_>
        <_>
          <internalNodes>
            0 -1 10 -5.2604236407205462e-04</internalNodes>
          <leafValues>
            2.5876232981681824e-01 -9.3698114156723022e-01</leafValues></_>
        <_>
          <internalNodes>
            0 -1 46 8.1467660493217409e-06</internalNodes>
          <leafValues>
            2.9301330447196960e-01 -9.5922672748565674e-01</leafValues></_></weakClassifiers></_>
    <!-- stage 3 -->
    <_>
      <maxWeakCount>7</maxWeakCount>
      <stageThreshold>-5.8722466230392456e-01</stageThreshold>
      <weakClassifiers>
        <_>
          <internalNodes>
            0 -1 4 8.0871008336544037e-02</internalNodes>
          <leafValues>
            -6.0287082195281982e-01 8.3375960588455200e-01</leafValues></_>
        <_>
          <internalNodes>
            0 -1 52 1.9603264518082142e-03</internalNodes>
          <leafValues>
            -8.0020129680633545e-01 5.9959703683853149e-01</leafValues></_>
        <_>
          <internalNodes>
            0 -1 21 3.3430777490139008e-02</internalNodes>
          <leafValues>
            -9.3484228849411011e-01 4.3138307332992554e-01</leafValues></_>
        <_>
          <internalNodes>
            0 -1 26 2.1785451099276543e-03</internalNodes>
          <leafValues>
            -7.1567130088806152e-01 5.8246046304702759e-01</leafValues></_>
        <_>
          <internalNodes>
            0 -1 11 2.2276294475886971e-04</internalNodes>
          <leafValues>
            -8.5239881277084351e-01 4.6187144517898560e-01</leafValues></_>
        <_>
          <internalNodes>
            0 -1 42 -2.1317353821359575e-04</internalNodes>
          <leafValues>
            -9.8253470659255981e-01 3.1500715017318726e-01</leafValues></_>
        <_>
          <internalNodes>
            0 -1 40 3.8004125235602260e-04</internalNodes>
          <leafValues>
            4.1806712746620178e-01 -9.7487467527389526e-01</leafValues></_></weakClassifiers></_>
    <!-- stage 4 -->
    <_>
      <maxWeakCount>5</maxWeakCount>
      <stageThreshold>-3.2048881053924561e-01</stageThreshold>
      <weakClassifiers>
        <_>
          <internalNodes>
            0 -1 24 1.3381416909396648e-02</internalNodes>
          <leafValues>
            -6.4322644472122192e-01 7.9783570766448975e-01</leafValues></_>
        <_>
          <internalNodes>
            0 -1 13 3.5099268425256014e-03</internalNodes>
          <leafValues>
            -6.6447842121124268e-01 6.9122809171676636e-01</leafValues></_>
        <_>
          <internalNodes>
            0 -1 36 -6.5367043134756386e-05</internalNodes>
          <leafValues>
            -9.9602156877517700e-01 4.0675094723701477e-01</leafValues></_>
        <_>
          <internalNodes>
            0 -1 39 5.9085647808387876e-04</internalNodes>
          <leafValues>
            3.5726630687713623e-01 -9.9104928970336914e-01</leafValues></_>
        <_>
          <internalNodes>
            0 -1 44 4.0857176645658910e-04</internalNodes>
          <leafValues>
            -9.9750399589538574e-01 2.2319883108139038e-01</leafValues></_></weakClassifiers></_>
    <!-- stage 5 -->
    <_>
      <maxWeakCount>8</maxWeakCount>
      <stageThreshold>-1.3005204200744629e+00</stageThreshold>
      <weakClassifiers>
        <_>
          <internalNodes>
            0 -1 41 3.5138074308633804e-03</internalNodes>
          <leafValues>
            6.7389929294586182e-01 -9.5690345764160156e-01</leafValues></_>
        <_>
          <internalNodes>
            0 -1 7 1.6853835433721542e-02</internalNodes>
          <leafValues>
            -7.4984925985336304e-01 6.6509127616882324e-01</leafValues></_>
        <_>
          <internalNodes>
            0 -1 33 -1.8390905112028122e-02</internalNodes>
          <leafValues>
            5.6889796257019043e-01 -7.6370012760162354e-01</leafValues></_>
        <_>
          <internalNodes>
            0 -1 53 -2.8835498960688710e-04</internalNodes>
          <leafValues>
            3.8522413372993469e-01 -9.7416448593139648e-01</leafValues></_>
        <_>
          <internalNodes>
            0 -1 56 1.7661572201177478e-04</internalNodes>
          <leafValues>
            -8.1260889768600464e-01 3.2457408308982849e-01</leafValues></_>
        <_>
          <internalNodes>
            0 -1 23 1.0132446885108948e-02</internalNodes>
          <leafValues>
            -6.9855815172195435e-01 4.2773130536079407e-01</leafValues></_>
        <_>
          <internalNodes>
            0 -1 47 -8.9654240582603961e-06</internalNodes>
          <leafValues>
            -9.6428894996643066e-01 2.6126974821090698e-01</leafValues></_>
        <_>
          <internalNodes>
            0 -1 43 9.7939802799373865e-04</internalNodes>
          <leafValues>
            2.9676336050033569e-01 -9.2121666669845581e-01</leafValues></_></weakClassifiers></_>
    <!-- stage 6 -->
    <_>
      <maxWeakCount>9</maxWeakCount>
      <stageThreshold>-1.5588873624801636e+00</stageThreshold>
      <weakClassifiers>
        <_>
          <internalNodes>
            0 -1 3 6.1787143349647522e-03</internalNodes>
          <leafValues>
            -5.5694878101348877e-01 7.5036710500717163e-01</leafValues></_>
        <_>
          <internalNodes>
            0 -1 18 -2.1394874784164131e-04</internalNodes>
          <leafValues>
            5.4659312963485718e-01 -7.4780273437500000e-01</leafValues></_>
        <_>
          <internalNodes>
            0 -1 54 -6.6771441197488457e-05</internalNodes>
          <leafValues>
            3.6588031053543091e-01 -9.2924380302429199e-01</leafValues></_>
        <_>
          <internalNodes>
            0 -1 45 3.1671017495682463e-05</internalNodes>
          <leafValues>
            -9.4131350517272949e-01 2.8924331068992615e-01</leafValues></_>
        <_>
          <internalNodes>
            0 -1 58 4.4800754403695464e-04</internalNodes>
          <leafValues>
            -5.5918157100677490e-01 6.5903472900390625e-01</leafValues></_>
        <_>
          <internalNodes>
            0 -1 0 -3.8792239502072334e-03</internalNodes>
          <leafValues>
            7.0409119129180908e-01 -4.4271865487098694e-01</leafValues></_>
        <_>
          <internalNodes>
            0 -1 29 2.6897000498138368e-04</internalNodes>
          <leafValues>
            3.4961310029029846e-01 -9.0595370531082153e-01</leafValues></_>
        <_>
          <internalNodes>
            0 -1 50 2.2669657482765615e-04</internalNodes>
          <leafValues>
            3.2907947897911072e-01 -8.7437719106674194e-01</leafValues></_>
        <_>
          <internalNodes>
            0 -1 1 1.1669338680803776e-02</internalNodes>
          <leafValues>
            -6.7699092626571655e-01 4.2303439974784851e-01</leafValues></_></weakClassifiers></_>
    <!-- stage 7 -->
    <_>
      <maxWeakCount>10</maxWeakCount>
      <stageThreshold>-9.0495067834854126e-01</stageThreshold>
      <weakClassifiers>
        <_>
          <internalNodes>
            0 -1 15 2.3609721660614014e-01</internalNodes>
          <leafValues>
            -4.6936851739883423e-01 7.7256315946578979e-01</leafValues></_>
        <_>
          <internalNodes>
            0 -1 35 4.6268259757198393e-04</internalNodes>
          <leafValues>
            -7.4237728118896484e-01 5.7083255052566528e-01</leafValues></_>
        <_>
          <internalNodes>
            0 -1 12 1.8355665088165551e-04</internalNodes>
          <leafValues>
            -8.3707684278488159e-01 3.9170628786087036e-01</leafValues></_>
        <_>
          <internalNodes>
            0 -1 17 1.2227171100676060e-04</internalNodes>
          <leafValues>
            -7.7131408452987671e-01 3.7286311388015747e-01</leafValues></_>
        <_>
          <internalNodes>
            0 -1 28 3.9379429072141647e-03</internalNodes>
          <leafValues>
            2.5051277875900269e-01 -9.4302374124526978e-01</leafValues></_>
        <_>
          <internalNodes>
            0 -1 27 3.6196911241859198e-04</internalNodes>
          <leafValues>
            -9.7341513633728027e-01 2.9758268594741821e-01</leafValues></_>
        <_>
          <internalNodes>
            0 -1 8 -1.6982454690150917e-04</internalNodes>
          <leafValues>
            4.2999124526977539e-01 -6.6569691896438599e-01</leafValues></_>
        <_>
          <internalNodes>
            0 -1 38 1.0600676760077477e-03</internalNodes>
          <leafValues>
            -9.8278254270553589e-01 2.5865668058395386e-01</leafValues></_>
        <_>
          <internalNodes>
            0 -1 14 -8.1758931628428400e-05</internalNodes>
          <leafValues>
            3.2893666625022888e-01 -8.2956808805465698e-01</leafValues></_>
        <_>
          <internalNodes>
            0 -1 2 2.7712434530258179e-02</internalNodes>
          <leafValues>
            -7.8201514482498169e-01 3.1759351491928101e-01</leafValues></_></weakClassifiers></_>
    <!-- stage 8 -->
    <_>
      <maxWeakCount>7</maxWeakCount>
      <stageThreshold>-8.8992887735366821e-01</stageThreshold>
      <weakClassifiers>
        <_>
          <internalNodes>
            0 -1 55 8.9810916688293219e-04</internalNodes>
          <leafValues>
            -8.1557065248489380e-01 6.5832799673080444e-01</leafValues></_>
        <_>
          <internalNodes>
            0 -1 49 -4.1781202889978886e-04</internalNodes>
          <leafValues>
            -9.9020397663116455e-01 4.2566013336181641e-01</leafValues></_>
        <_>
          <internalNodes>
            0 -1 25 1.1247301008552313e-03</internalNodes>
          <leafValues>
            -7.4410355091094971e-01 5.0923144817352295e-01</leafValues></_>
        <_>
          <internalNodes>
            0 -1 51 1.2465182226151228e-04</internalNodes>
          <leafValues>
            3.6837244033813477e-01 -9.2495572566986084e-01</leafValues></_>
        <_>
          <internalNodes>
            0 -1 37 1.7929065506905317e-03</internalNodes>
          <leafValues>
            3.7625980377197266e-01 -9.7681963443756104e-01</leafValues></_>
        <_>
          <internalNodes>
            0 -1 59 -7.5037271017208695e-04</internalNodes>
          <leafValues>
            4.5290690660476685e-01 -7.8546929359436035e-01</leafValues></_>
        <_>
          <internalNodes>
            0 -1 31 1.2125312059652060e-04</internalNodes>
          <leafValues>
            2.8492221236228943e-01 -9.4274950027465820e-01</leafValues></_></weakClassifiers></_></stages>
  <features>
    <_>
      <rects>
        <_>
          4 11 3 8 -1.</_>
        <_>
          5 11 1 8 3.</_></rects>
      <tilted>0</tilted></_>
    <_>
      <rects>
        <_>
          5 2 15 2 -1.</_>
        <_>
          10 2 5 2 3.</_></rects>
      <tilted>0</tilted></_>
    <_>
      <rects>
        <_>
          5 3 12 26 -1.</_>
        <_>
          9 3 4 26 3.</_></rects>
      <tilted>0</tilted></_>
    <_>
      <rects>
        <_>
          5 28 15 1 -1.</_>
        <_>
          10 28 5 1 3.</_></rects>
      <tilted>0</tilted></_>
    <_>
      <rects>
        <_>
          7 2 9 28 -1.</_>
        <_>
          10 2 3 28 3.</_></rects>
      <tilted>0</tilted></_>
    <_>
      <rects>
        <_>
          7 2 12 1 -1.</_>
        <_>
          11 2 4 1 3.</_></rects>
      <tilted>0</tilted></_>
    <_>
      <rects>
        <_>
          10 7 3 17 -1.</_>
        <_>
          11 7 1 17 3.</_></rects>
      <tilted>0</tilted></_>
    <_>
      <rects>
        <_>
          10 8 3 18 -1.</_>
        <_>
          11 8 1 18 3.</_></rects>
      <tilted>0</tilted></_>
    <_>
      <rects>
        <_>
          10 8 2 2 -1.</_>
        <_>
          10 9 2 1 2.</_></rects>
      <tilted>0</tilted></_>
    <_>
      <rects>
        <_>
          10 10 3 9 -1.</_>
        <_>
          11 10 1 9 3.</_></rects>
      <tilted>0</tilted></_>
    <_>
      <rects>
        <_>
          11 2 3 4 -1.</_>
        <_>
          11 4 3 2 2.</_></rects>
      <tilted>0</tilted></_>
    <_>
      <rects>
        <_>
          11 26 2 2 -1.</_>
        <_>
          11 27 2 1 2.</_></rects>
      <tilted>0</tilted></_>
    <_>
      <rects>
        <_>
          11 28 3 1 -1.</_>
        <_>
          12 28 1 1 3.</_></rects>
      <tilted>0</tilted></_>
    <_>
      <rects>
        <_>
          12 0 2 6 -1.</_>
        <_>
          12 2 2 2 3.</_></rects>
      <tilted>0</tilted></_>
    <_>
      <rects>
        <_>
          12 4 1 2 -1.</_>
        <_>
          12 5 1 1 2.</_></rects>
      <tilted>0</tilted></_>
    <_>
      <rects>
        <_>
          13 5 12 21 -1.</_>
        <_>
          17 5 4 21 3.</_></rects>
      <tilted>0</tilted></_>
    <_>
      <rects>
        <_>
          13 6 12 20 -1.</_>
        <_>
          17 6 4 20 3.</_></rects>
      <tilted>0</tilted></_>
    <_>
      <rects>
        <_>
          13 27 1 2 -1.</_>
        <_>
          13 28 1 1 2.</_></rects>
      <tilted>0</tilted></_>
    <_>
      <rects>
        <_>
          14 2 1 2 -1.</_>
        <_>
          14 3 1 1 2.</_></rects>
      <tilted>0</tilted></_>
    <_>
      <rects>
        <_>
          14 5 9 21 -1.</_>
        <_>
          17 5 3 21 3.</_></rects>
      <tilted>0</tilted></_>
    <_>
      <rects>
        <_>
          15 6 4 17 -1.</_>
        <_>
          17 6 2 17 2.</_></rects>
      <tilted>0</tilted></_>
    <_>
      <rects>
        <_>
          15 6 6 20 -1.</_>
        <_>
          17 6 2 20 3.</_></rects>
      <tilted>0</tilted></_>
    <_>
      <rects>
        <_>
          15 8 2 16 -1.</_>
        <_>
          16 8 1 16 2.</_></rects>
      <tilted>0</tilted></_>
    <_>
      <rects>
        <_>
          15 10 2 13 -1.</_>
        <_>
          16 10 1 13 2.</_></rects>
      <tilted>0</tilted></_>
    <_>
      <rects>
        <_>
          16 23 10 6 -1.</_>
        <_>
          16 23 5 3 2.</_>
        <_>
          21 26 5 3 2.</_></rects>
      <tilted>0</tilted></_>
    <_>
      <rects>
        <_>
          16 24 4 3 -1.</_>
        <_>
          16 25 4 1 3.</_></rects>
      <tilted>0</tilted></_>
    <_>
      <rects>
        <_>
          17 4 4 2 -1.</_>
        <_>
          17 5 4 1 2.</_></rects>
      <tilted>0</tilted></_>
    <_>
      <rects>
        <_>
          17 8 3 12 -1.</_>
        <_>
          17 12 3 4 3.</_></rects>
      <tilted>0</tilted></_>
    <_>
      <rects>
        <_>
          17 8 4 12 -1.</_>
        <_>
          17 12 4 4 3.</_></rects>
      <tilted>0</tilted></_>
    <_>
      <rects>
        <_>
          17 13 3 6 -1.</_>
        <_>
          17 15 3 2 3.</_></rects>
      <tilted>0</tilted></_>
    <_>
      <rects>
        <_>
          17 13 3 12 -1.</_>
        <_>
          17 17 3 4 3.</_></rects>
      <tilted>0</tilted></_>
    <_>
      <rects>
        <_>
          17 18 1 6 -1.</_>
        <_>
          17 21 1 3 2.</_></rects>
      <tilted>0</tilted></_>
    <_>
      <rects>
        <_>
          17 25 3 2 -1.</_>
        <_>
          17 26 3 1 2.</_></rects>
      <tilted>0</tilted></_>
    <_>
      <rects>
        <_>
          18 1 8 10 -1.</_>
        <_>
          18 1 4 5 2.</_>
        <_>
          22 6 4 5 2.</_></rects>
      <tilted>0</tilted></_>
    <_>
      <rects>
        <_>
          18 4 2 2 -1.</_>
        <_>
          18 5 2 1 2.</_></rects>
      <tilted>0</tilted></_>
    <_>
      <rects>
        <_>
          18 4 2 3 -1.</_>
        <_>
          18 5 2 1 3.</_></rects>
      <tilted>0</tilted></_>
    <_>
      <rects>
        <_>
          18 5 1 16 -1.</_>
        <_>
          18 13 1 8 2.</_></rects>
      <tilted>0</tilted></_>
    <_>
      <rects>
        <_>
          18 6 1 18 -1.</_>
        <_>
          18 12 1 6 3.</_></rects>
      <tilted>0</tilted></_>
    <_>
      <rects>
        <_>
          18 6 3 21 -1.</_>
        <_>
          19 6 1 21 3.</_></rects>
      <tilted>0</tilted></_>
    <_>
      <rects>
        <_>
          18 7 1 12 -1.</_>
        <_>
          18 13 1 6 2.</_></rects>
      <tilted>0</tilted></_>
    <_>
      <rects>
        <_>
          18 7 1 14 -1.</_>
        <_>
          18 14 1 7 2.</_></rects>
      <tilted>0</tilted></_>
    <_>
      <rects>
        <_>
          18 7 2 18 -1.</_>
        <_>
          18 13 2 6 3.</_></rects>
      <tilted>0</tilted></_>
    <_>
      <rects>
        <_>
          18 8 1 12 -1.</_>
        <_>
          18 14 1 6 2.</_></rects>
      <tilted>0</tilted></_>
    <_>
      <rects>
        <_>
          18 8 2 10 -1.</_>
        <_>
          18 13 2 5 2.</_></rects>
      <tilted>0</tilted></_>
    <_>
      <rects>
        <_>
          18 8 2 15 -1.</_>
        <_>
          18 13 2 5 3.</_></rects>
      <tilted>0</tilted></_>
    <_>
      <rects>
        <_>
          18 9 2 6 -1.</_>
        <_>
          18 12 2 3 2.</_></rects>
      <tilted>0</tilted></_>
    <_>
      <rects>
        <_>
          18 10 2 3 -1.</_>
        <_>
          19 10 1 3 2.</_></rects>
      <tilted>0</tilted></_>
    <_>
      <rects>
        <_>
          18 10 2 6 -1.</_>
        <_>
          18 13 2 3 2.</_></rects>
      <tilted>0</tilted></_>
    <_>
      <rects>
        <_>
          18 13 1 12 -1.</_>
        <_>
          18 17 1 4 3.</_></rects>
      <tilted>0</tilted></_>
    <_>
      <rects>
        <_>
          18 14 2 9 -1.</_>
        <_>
          18 17 2 3 3.</_></rects>
      <tilted>0</tilted></_>
    <_>
      <rects>
        <_>
          18 15 2 9 -1.</_>
        <_>
          18 18 2 3 3.</_></rects>
      <tilted>0</tilted></_>
    <_>
      <rects>
        <_>
          18 16 1 9 -1.</_>
        <_>
          18 19 1 3 3.</_></rects>
      <tilted>0</tilted></_>
    <_>
      <rects>
        <_>
          19 11 3 8 -1.</_>
        <_>
          20 11 1 8 3.</_></rects>
      <tilted>0</tilted></_>
    <_>
      <rects>
        <_>
          19 14 1 12 -1.</_>
        <_>
          19 20 1 6 2.</_></rects>
      <tilted>0</tilted></_>
    <_>
      <rects>
        <_>
          19 16 2 1 -1.</_>
        <_>
          20 16 1 1 2.</_></rects>
      <tilted>0</tilted></_>
    <_>
      <rects>
        <_>
          19 16 3 6 -1.</_>
        <_>
          20 16 1 6 3.</_></rects>
      <tilted>0</tilted></_>
    <_>
      <rects>
        <_>
          19 24 1 3 -1.</_>
        <_>
          19 25 1 1 3.</_></rects>
      <tilted>0</tilted></_>
    <_>
      <rects>
        <_>
          20 5 2 22 -1.</_>
        <_>
          21 5 1 22 2.</_></rects>
      <tilted>0</tilted></_>
    <_>
      <rects>
        <_>
          23 2 2 2 -1.</_>
        <_>
          23 2 1 1 2.</_>
        <_>
          24 3 1 1 2.</_></rects>
      <tilted>0</tilted></_>
    <_>
      <rects>
        <_>
          23 2 2 4 -1.</_>
        <_>
          23 4 2 2 2.</_></rects>
      <tilted>0</tilted></_></features></cascade>
</opencv_storage>
