<?xml version="1.0"?>
<opencv_storage>
<cascade>
  <stageType>BOOST</stageType>
  <featureType>HAAR</featureType>
  <height>30</height>
  <width>30</width>
  <stageParams>
    <boostType>GAB</boostType>
    <minHitRate>9.9992001056671143e-01</minHitRate>
    <maxFalseAlarm>2.0000000298023224e-01</maxFalseAlarm>
    <weightTrimRate>9.4999999999999996e-01</weightTrimRate>
    <maxDepth>1</maxDepth>
    <maxWeakCount>100</maxWeakCount></stageParams>
  <featureParams>
    <maxCatCount>0</maxCatCount>
    <featSize>1</featSize>
    <mode>BASIC</mode></featureParams>
  <stageNum>8</stageNum>
  <stages>
    <!-- stage 0 -->
    <_>
      <maxWeakCount>7</maxWeakCount>
      <stageThreshold>-1.8461327552795410e+00</stageThreshold>
      <weakClassifiers>
        <_>
          <internalNodes>
            0 -1 53 2.0058758556842804e-02</internalNodes>
          <leafValues>
            -8.9405685663223267e-01 8.9847314357757568e-01</leafValues></_>
        <_>
          <internalNodes>
            0 -1 45 6.0051702894270420e-04</internalNodes>
          <leafValues>
            -7.9602682590484619e-01 7.8128445148468018e-01</leafValues></_>
        <_>
          <internalNodes>
            0 -1 13 -1.4533730223774910e-02</internalNodes>
          <leafValues>
            8.1395429372787476e-01 -6.6909676790237427e-01</leafValues></_>
        <_>
          <internalNodes>
            0 -1 48 -9.5065654022619128e-05</internalNodes>
          <leafValues>
            5.5176728963851929e-01 -9.7577321529388428e-01</leafValues></_>
        <_>
          <internalNodes>
            0 -1 23 9.2753348872065544e-04</internalNodes>
          <leafValues>
            -9.1396719217300415e-01 4.4400975108146667e-01</leafValues></_>
        <_>
          <internalNodes>
            0 -1 28 -6.6023797262459993e-04</internalNodes>
          <leafValues>
            3.9925184845924377e-01 -9.2163836956024170e-01</leafValues></_>
        <_>
          <internalNodes>
            0 -1 54 3.9938860572874546e-03</internalNodes>
          <leafValues>
            -8.5962665081024170e-01 4.3890911340713501e-01</leafValues></_></weakClassifiers></_>
    <!-- stage 1 -->
    <_>
      <maxWeakCount>9</maxWeakCount>
      <stageThreshold>-1.1816748380661011e+00</stageThreshold>
      <weakClassifiers>
        <_>
          <internalNodes>
            0 -1 52 9.3069121241569519e-02</internalNodes>
          <leafValues>
            -6.4660787582397461e-01 8.7089991569519043e-01</leafValues></_>
        <_>
          <internalNodes>
            0 -1 3 -3.5050055012106895e-03</internalNodes>
          <leafValues>
            6.9156688451766968e-01 -8.1943929195404053e-01</leafValues></_>
        <_>
          <internalNodes>
            0 -1 0 -6.8798083811998367e-03</internalNodes>
          <leafValues>
            7.2990363836288452e-01 -6.1507469415664673e-01</leafValues></_>
        <_>
          <internalNodes>
            0 -1 49 1.2580873444676399e-03</internalNodes>
          <leafValues>
            -7.7070343494415283e-01 5.7786476612091064e-01</leafValues></_>
        <_>
          <internalNodes>
            0 -1 47 -1.4363681839313358e-04</internalNodes>
          <leafValues>
            4.1621565818786621e-01 -9.1960442066192627e-01</leafValues></_>
        <_>
          <internalNodes>
            0 -1 59 1.8982669280376285e-04</internalNodes>
          <leafValues>
            3.4895020723342896e-01 -9.5380491018295288e-01</leafValues></_>
        <_>
          <internalNodes>
            0 -1 14 1.8923677271232009e-04</internalNodes>
          <leafValues>
            2.8733935952186584e-01 -9.9749690294265747e-01</leafValues></_>
        <_>
          <internalNodes>
            0 -1 20 -4.3414282845333219e-04</internalNodes>
          <leafValues>
            -9.9764597415924072e-01 3.7533843517303467e-01</leafValues></_>
        <_>
          <internalNodes>
            0 -1 39 4.0417030686512589e-04</internalNodes>
          <leafValues>
            2.4230684340000153e-01 -9.9972862005233765e-01</leafValues></_></weakClassifiers></_>
    <!-- stage 2 -->
    <_>
      <maxWeakCount>7</maxWeakCount>
      <stageThreshold>-1.6932829618453979e+00</stageThreshold>
      <weakClassifiers>
        <_>
          <internalNodes>
            0 -1 39 -1.6005036886781454e-03</internalNodes>
          <leafValues>
            -9.7565430402755737e-01 7.0919257402420044e-01</leafValues></_>
        <_>
          <internalNodes>
            0 -1 50 -7.1193026378750801e-03</internalNodes>
          <leafValues>
            7.1736085414886475e-01 -7.4364715814590454e-01</leafValues></_>
        <_>
          <internalNodes>
            0 -1 26 3.2232117373496294e-03</internalNodes>
          <leafValues>
            -6.4630353450775146e-01 7.0027518272399902e-01</leafValues></_>
        <_>
          <internalNodes>
            0 -1 38 9.7995478427037597e-05</internalNodes>
          <leafValues>
            5.1690024137496948e-01 -9.9019736051559448e-01</leafValues></_>
        <_>
          <internalNodes>
            0 -1 42 -2.1448353072628379e-04</internalNodes>
          <leafValues>
            2.8845745325088501e-01 -9.9328511953353882e-01</leafValues></_>
        <_>
          <internalNodes>
            0 -1 29 -3.9017726667225361e-03</internalNodes>
          <leafValues>
            3.9030531048774719e-01 -8.5488873720169067e-01</leafValues></_>
        <_>
          <internalNodes>
            0 -1 34 2.6522084954194725e-04</internalNodes>
          <leafValues>
            -9.9005579948425293e-01 3.1874871253967285e-01</leafValues></_></weakClassifiers></_>
    <!-- stage 3 -->
    <_>
      <maxWeakCount>9</maxWeakCount>
      <stageThreshold>-1.3190325498580933e+00</stageThreshold>
      <weakClassifiers>
        <_>
          <internalNodes>
            0 -1 56 3.3326640725135803e-02</internalNodes>
          <leafValues>
            -7.2449952363967896e-01 7.5469905138015747e-01</leafValues></_>
        <_>
          <internalNodes>
            0 -1 33 -4.5021966798231006e-04</internalNodes>
          <leafValues>
            6.0736250877380371e-01 -8.0091863870620728e-01</leafValues></_>
        <_>
          <internalNodes>
            0 -1 44 -5.5494828848168254e-04</internalNodes>
          <leafValues>
            5.2885478734970093e-01 -7.7462285757064819e-01</leafValues></_>
        <_>
          <internalNodes>
            0 -1 59 -8.6596893379464746e-04</internalNodes>
          <leafValues>
            -9.7814232110977173e-01 4.0194517374038696e-01</leafValues></_>
        <_>
          <internalNodes>
            0 -1 1 2.1514154970645905e-02</internalNodes>
          <leafValues>
            -6.4052337408065796e-01 6.0099315643310547e-01</leafValues></_>
        <_>
          <internalNodes>
            0 -1 19 -4.8450956819579005e-04</internalNodes>
          <leafValues>
            -9.8044925928115845e-01 3.7835881114006042e-01</leafValues></_>
        <_>
          <internalNodes>
            0 -1 15 2.6922996039502323e-04</internalNodes>
          <leafValues>
            3.2003906369209290e-01 -9.9768650531768799e-01</leafValues></_>
        <_>
          <internalNodes>
            0 -1 7 -3.2319473102688789e-03</internalNodes>
          <leafValues>
            -9.9758505821228027e-01 2.6472699642181396e-01</leafValues></_>
        <_>
          <internalNodes>
            0 -1 41 -3.9946552715264261e-04</internalNodes>
          <leafValues>
            2.5646170973777771e-01 -9.9286502599716187e-01</leafValues></_></weakClassifiers></_>
    <!-- stage 4 -->
    <_>
      <maxWeakCount>10</maxWeakCount>
      <stageThreshold>-1.1228946447372437e+00</stageThreshold>
      <weakClassifiers>
        <_>
          <internalNodes>
            0 -1 55 6.0433242470026016e-03</internalNodes>
          <leafValues>
            -8.5198342800140381e-01 6.8604654073715210e-01</leafValues></_>
        <_>
          <internalNodes>
            0 -1 13 -1.9746299833059311e-02</internalNodes>
          <leafValues>
            6.9747918844223022e-01 -6.4363747835159302e-01</leafValues></_>
        <_>
          <internalNodes>
            0 -1 12 -2.5112309958785772e-04</internalNodes>
          <leafValues>
            4.4005203247070312e-01 -9.9039626121520996e-01</leafValues></_>
        <_>
          <internalNodes>
            0 -1 8 -1.9396080169826746e-03</internalNodes>
          <leafValues>
            -9.8498159646987915e-01 4.0166136622428894e-01</leafValues></_>
        <_>
          <internalNodes>
            0 -1 5 9.5766643062233925e-03</internalNodes>
          <leafValues>
            -6.1728966236114502e-01 6.6238105297088623e-01</leafValues></_>
        <_>
          <internalNodes>
            0 -1 9 -2.8109119739383459e-04</internalNodes>
          <leafValues>
            3.7780994176864624e-01 -9.6430909633636475e-01</leafValues></_>
        <_>
          <internalNodes>
            0 -1 11 -1.5822909772396088e-03</internalNodes>
          <leafValues>
            -9.8535102605819702e-01 3.9225465059280396e-01</leafValues></_>
        <_>
          <internalNodes>
            0 -1 58 -1.2606522068381310e-04</internalNodes>
          <leafValues>
            -9.4504690170288086e-01 2.4002684652805328e-01</leafValues></_>
        <_>
          <internalNodes>
            0 -1 18 -3.1986710382625461e-05</internalNodes>
          <leafValues>
            2.6812037825584412e-01 -9.7315055131912231e-01</leafValues></_>
        <_>
          <internalNodes>
            0 -1 43 3.9057977846823633e-04</internalNodes>
          <leafValues>
            -8.9345431327819824e-01 3.0154132843017578e-01</leafValues></_></weakClassifiers></_>
    <!-- stage 5 -->
    <_>
      <maxWeakCount>8</maxWeakCount>
      <stageThreshold>-8.6324524879455566e-01</stageThreshold>
      <weakClassifiers>
        <_>
          <internalNodes>
            0 -1 57 1.4903158880770206e-03</internalNodes>
          <leafValues>
            -8.5592186450958252e-01 6.7347651720046997e-01</leafValues></_>
        <_>
          <internalNodes>
            0 -1 51 1.7894527409225702e-03</internalNodes>
          <leafValues>
            -7.8911167383193970e-01 5.1627439260482788e-01</leafValues></_>
        <_>
          <internalNodes>
            0 -1 16 1.6934424638748169e-04</internalNodes>
          <leafValues>
            4.4471454620361328e-01 -9.4982552528381348e-01</leafValues></_>
        <_>
          <internalNodes>
            0 -1 22 -2.4309387663379312e-04</internalNodes>
          <leafValues>
            3.3867484331130981e-01 -9.9575036764144897e-01</leafValues></_>
        <_>
          <internalNodes>
            0 -1 12 -1.7498999368399382e-03</internalNodes>
          <leafValues>
            -9.6703881025314331e-01 3.1701868772506714e-01</leafValues></_>
        <_>
          <internalNodes>
            0 -1 4 2.4144030176103115e-03</internalNodes>
          <leafValues>
            -7.1103692054748535e-01 4.3588420748710632e-01</leafValues></_>
        <_>
          <internalNodes>
            0 -1 10 7.4109772685915232e-04</internalNodes>
          <leafValues>
            3.0580937862396240e-01 -9.9901503324508667e-01</leafValues></_>
        <_>
          <internalNodes>
            0 -1 17 -4.9406546168029308e-04</internalNodes>
          <leafValues>
            -9.7115939855575562e-01 4.0043175220489502e-01</leafValues></_></weakClassifiers></_>
    <!-- stage 6 -->
    <_>
      <maxWeakCount>7</maxWeakCount>
      <stageThreshold>-9.0557688474655151e-01</stageThreshold>
      <weakClassifiers>
        <_>
          <internalNodes>
            0 -1 32 -2.0942790433764458e-04</internalNodes>
          <leafValues>
            6.4773303270339966e-01 -9.6927374601364136e-01</leafValues></_>
        <_>
          <internalNodes>
            0 -1 21 -5.6543288519605994e-04</internalNodes>
          <leafValues>
            -9.4581288099288940e-01 4.3616634607315063e-01</leafValues></_>
        <_>
          <internalNodes>
            0 -1 30 -8.8597851572558284e-05</internalNodes>
          <leafValues>
            -9.7041761875152588e-01 3.8535243272781372e-01</leafValues></_>
        <_>
          <internalNodes>
            0 -1 60 -5.5163134820759296e-03</internalNodes>
          <leafValues>
            4.9623572826385498e-01 -7.0628648996353149e-01</leafValues></_>
        <_>
          <internalNodes>
            0 -1 36 3.0253254226408899e-04</internalNodes>
          <leafValues>
            4.1850987076759338e-01 -8.9872801303863525e-01</leafValues></_>
        <_>
          <internalNodes>
            0 -1 31 -1.2591388076543808e-04</internalNodes>
          <leafValues>
            2.7287742495536804e-01 -9.9370366334915161e-01</leafValues></_>
        <_>
          <internalNodes>
            0 -1 27 2.7053072117269039e-03</internalNodes>
          <leafValues>
            3.7781974673271179e-01 -9.8480117321014404e-01</leafValues></_></weakClassifiers></_>
    <!-- stage 7 -->
    <_>
      <maxWeakCount>8</maxWeakCount>
      <stageThreshold>-1.3378267288208008e+00</stageThreshold>
      <weakClassifiers>
        <_>
          <internalNodes>
            0 -1 24 4.5162113383412361e-04</internalNodes>
          <leafValues>
            -9.7612732648849487e-01 6.7047977447509766e-01</leafValues></_>
        <_>
          <internalNodes>
            0 -1 2 1.4982456341385841e-02</internalNodes>
          <leafValues>
            -7.3631960153579712e-01 6.1736410856246948e-01</leafValues></_>
        <_>
          <internalNodes>
            0 -1 35 -3.9577373536303639e-04</internalNodes>
          <leafValues>
            4.8441299796104431e-01 -9.7476339340209961e-01</leafValues></_>
        <_>
          <internalNodes>
            0 -1 25 1.1699582682922482e-03</internalNodes>
          <leafValues>
            3.9604225754737854e-01 -9.8664921522140503e-01</leafValues></_>
        <_>
          <internalNodes>
            0 -1 37 3.4129000268876553e-03</internalNodes>
          <leafValues>
            -7.5357228517532349e-01 6.1317461729049683e-01</leafValues></_>
        <_>
          <internalNodes>
            0 -1 6 2.8986873803660274e-04</internalNodes>
          <leafValues>
            4.7158199548721313e-01 -8.3796066045761108e-01</leafValues></_>
        <_>
          <internalNodes>
            0 -1 46 -5.3092197049409151e-04</internalNodes>
          <leafValues>
            4.1086009144783020e-01 -8.9940786361694336e-01</leafValues></_>
        <_>
          <internalNodes>
            0 -1 40 -1.4972366625443101e-04</internalNodes>
          <leafValues>
            3.3849862217903137e-01 -9.8187571763992310e-01</leafValues></_></weakClassifiers></_></stages>
  <features>
    <_>
      <rects>
        <_>
          3 6 3 20 -1.</_>
        <_>
          4 6 1 20 3.</_></rects>
      <tilted>0</tilted></_>
    <_>
      <rects>
        <_>
          4 3 4 17 -1.</_>
        <_>
          6 3 2 17 2.</_></rects>
      <tilted>0</tilted></_>
    <_>
      <rects>
        <_>
          4 3 6 18 -1.</_>
        <_>
          6 3 2 18 3.</_></rects>
      <tilted>0</tilted></_>
    <_>
      <rects>
        <_>
          6 18 5 4 -1.</_>
        <_>
          6 20 5 2 2.</_></rects>
      <tilted>0</tilted></_>
    <_>
      <rects>
        <_>
          6 20 2 10 -1.</_>
        <_>
          6 20 1 5 2.</_>
        <_>
          7 25 1 5 2.</_></rects>
      <tilted>0</tilted></_>
    <_>
      <rects>
        <_>
          7 0 7 4 -1.</_>
        <_>
          7 2 7 2 2.</_></rects>
      <tilted>0</tilted></_>
    <_>
      <rects>
        <_>
          7 3 5 9 -1.</_>
        <_>
          7 6 5 3 3.</_></rects>
      <tilted>0</tilted></_>
    <_>
      <rects>
        <_>
          7 6 8 12 -1.</_>
        <_>
          7 6 4 6 2.</_>
        <_>
          11 12 4 6 2.</_></rects>
      <tilted>0</tilted></_>
    <_>
      <rects>
        <_>
          7 7 8 14 -1.</_>
        <_>
          11 7 4 14 2.</_></rects>
      <tilted>0</tilted></_>
    <_>
      <rects>
        <_>
          7 9 6 9 -1.</_>
        <_>
          10 9 3 9 2.</_></rects>
      <tilted>0</tilted></_>
    <_>
      <rects>
        <_>
          7 9 10 3 -1.</_>
        <_>
          12 9 5 3 2.</_></rects>
      <tilted>0</tilted></_>
    <_>
      <rects>
        <_>
          7 10 6 7 -1.</_>
        <_>
          10 10 3 7 2.</_></rects>
      <tilted>0</tilted></_>
    <_>
      <rects>
        <_>
          7 11 8 5 -1.</_>
        <_>
          11 11 4 5 2.</_></rects>
      <tilted>0</tilted></_>
    <_>
      <rects>
        <_>
          7 21 8 8 -1.</_>
        <_>
          7 21 4 4 2.</_>
        <_>
          11 25 4 4 2.</_></rects>
      <tilted>0</tilted></_>
    <_>
      <rects>
        <_>
          8 4 2 14 -1.</_>
        <_>
          8 11 2 7 2.</_></rects>
      <tilted>0</tilted></_>
    <_>
      <rects>
        <_>
          8 6 6 12 -1.</_>
        <_>
          8 6 3 6 2.</_>
        <_>
          11 12 3 6 2.</_></rects>
      <tilted>0</tilted></_>
    <_>
      <rects>
        <_>
          8 8 6 9 -1.</_>
        <_>
          10 8 2 9 3.</_></rects>
      <tilted>0</tilted></_>
    <_>
      <rects>
        <_>
          8 8 8 5 -1.</_>
        <_>
          12 8 4 5 2.</_></rects>
      <tilted>0</tilted></_>
    <_>
      <rects>
        <_>
          8 9 6 6 -1.</_>
        <_>
          8 9 3 3 2.</_>
        <_>
          11 12 3 3 2.</_></rects>
      <tilted>0</tilted></_>
    <_>
      <rects>
        <_>
          9 3 4 18 -1.</_>
        <_>
          9 3 2 9 2.</_>
        <_>
          11 12 2 9 2.</_></rects>
      <tilted>0</tilted></_>
    <_>
      <rects>
        <_>
          9 4 1 14 -1.</_>
        <_>
          9 11 1 7 2.</_></rects>
      <tilted>0</tilted></_>
    <_>
      <rects>
        <_>
          9 5 8 16 -1.</_>
        <_>
          9 5 4 8 2.</_>
        <_>
          13 13 4 8 2.</_></rects>
      <tilted>0</tilted></_>
    <_>
      <rects>
        <_>
          9 6 6 13 -1.</_>
        <_>
          12 6 3 13 2.</_></rects>
      <tilted>0</tilted></_>
    <_>
      <rects>
        <_>
          9 16 4 6 -1.</_>
        <_>
          9 16 2 3 2.</_>
        <_>
          11 19 2 3 2.</_></rects>
      <tilted>0</tilted></_>
    <_>
      <rects>
        <_>
          10 4 3 18 -1.</_>
        <_>
          10 10 3 6 3.</_></rects>
      <tilted>0</tilted></_>
    <_>
      <rects>
        <_>
          10 9 6 9 -1.</_>
        <_>
          10 12 6 3 3.</_></rects>
      <tilted>0</tilted></_>
    <_>
      <rects>
        <_>
          10 27 9 2 -1.</_>
        <_>
          10 28 9 1 2.</_></rects>
      <tilted>0</tilted></_>
    <_>
      <rects>
        <_>
          11 3 2 18 -1.</_>
        <_>
          11 9 2 6 3.</_></rects>
      <tilted>0</tilted></_>
    <_>
      <rects>
        <_>
          11 3 6 1 -1.</_>
        <_>
          14 3 3 1 2.</_></rects>
      <tilted>0</tilted></_>
    <_>
      <rects>
        <_>
          11 3 6 3 -1.</_>
        <_>
          14 3 3 3 2.</_></rects>
      <tilted>0</tilted></_>
    <_>
      <rects>
        <_>
          11 7 4 5 -1.</_>
        <_>
          13 7 2 5 2.</_></rects>
      <tilted>0</tilted></_>
    <_>
      <rects>
        <_>
          11 11 2 10 -1.</_>
        <_>
          11 16 2 5 2.</_></rects>
      <tilted>0</tilted></_>
    <_>
      <rects>
        <_>
          11 16 4 4 -1.</_>
        <_>
          13 16 2 4 2.</_></rects>
      <tilted>0</tilted></_>
    <_>
      <rects>
        <_>
          11 23 2 2 -1.</_>
        <_>
          11 24 2 1 2.</_></rects>
      <tilted>0</tilted></_>
    <_>
      <rects>
        <_>
          11 23 6 1 -1.</_>
        <_>
          13 23 2 1 3.</_></rects>
      <tilted>0</tilted></_>
    <_>
      <rects>
        <_>
          12 15 4 7 -1.</_>
        <_>
          14 15 2 7 2.</_></rects>
      <tilted>0</tilted></_>
    <_>
      <rects>
        <_>
          12 17 4 6 -1.</_>
        <_>
          12 19 4 2 3.</_></rects>
      <tilted>0</tilted></_>
    <_>
      <rects>
        <_>
          13 3 4 8 -1.</_>
        <_>
          13 3 2 4 2.</_>
        <_>
          15 7 2 4 2.</_></rects>
      <tilted>0</tilted></_>
    <_>
      <rects>
        <_>
          13 8 3 15 -1.</_>
        <_>
          13 13 3 5 3.</_></rects>
      <tilted>0</tilted></_>
    <_>
      <rects>
        <_>
          13 9 3 12 -1.</_>
        <_>
          13 13 3 4 3.</_></rects>
      <tilted>0</tilted></_>
    <_>
      <rects>
        <_>
          13 12 3 9 -1.</_>
        <_>
          13 15 3 3 3.</_></rects>
      <tilted>0</tilted></_>
    <_>
      <rects>
        <_>
          14 9 1 12 -1.</_>
        <_>
          14 15 1 6 2.</_></rects>
      <tilted>0</tilted></_>
    <_>
      <rects>
        <_>
          14 13 2 10 -1.</_>
        <_>
          14 18 2 5 2.</_></rects>
      <tilted>0</tilted></_>
    <_>
      <rects>
        <_>
          14 15 4 9 -1.</_>
        <_>
          14 18 4 3 3.</_></rects>
      <tilted>0</tilted></_>
    <_>
      <rects>
        <_>
          15 2 2 2 -1.</_>
        <_>
          15 3 2 1 2.</_></rects>
      <tilted>0</tilted></_>
    <_>
      <rects>
        <_>
          15 5 2 2 -1.</_>
        <_>
          15 6 2 1 2.</_></rects>
      <tilted>0</tilted></_>
    <_>
      <rects>
        <_>
          16 6 2 5 -1.</_>
        <_>
          17 6 1 5 2.</_></rects>
      <tilted>0</tilted></_>
    <_>
      <rects>
        <_>
          16 11 2 1 -1.</_>
        <_>
          17 11 1 1 2.</_></rects>
      <tilted>0</tilted></_>
    <_>
      <rects>
        <_>
          16 15 2 1 -1.</_>
        <_>
          17 15 1 1 2.</_></rects>
      <tilted>0</tilted></_>
    <_>
      <rects>
        <_>
          16 27 9 1 -1.</_>
        <_>
          19 27 3 1 3.</_></rects>
      <tilted>0</tilted></_>
    <_>
      <rects>
        <_>
          17 7 2 16 -1.</_>
        <_>
          18 7 1 16 2.</_></rects>
      <tilted>0</tilted></_>
    <_>
      <rects>
        <_>
          18 25 2 4 -1.</_>
        <_>
          18 27 2 2 2.</_></rects>
      <tilted>0</tilted></_>
    <_>
      <rects>
        <_>
          19 7 9 20 -1.</_>
        <_>
          22 7 3 20 3.</_></rects>
      <tilted>0</tilted></_>
    <_>
      <rects>
        <_>
          20 8 4 18 -1.</_>
        <_>
          22 8 2 18 2.</_></rects>
      <tilted>0</tilted></_>
    <_>
      <rects>
        <_>
          21 7 2 13 -1.</_>
        <_>
          22 7 1 13 2.</_></rects>
      <tilted>0</tilted></_>
    <_>
      <rects>
        <_>
          21 7 3 21 -1.</_>
        <_>
          22 7 1 21 3.</_></rects>
      <tilted>0</tilted></_>
    <_>
      <rects>
        <_>
          21 7 6 21 -1.</_>
        <_>
          23 7 2 21 3.</_></rects>
      <tilted>0</tilted></_>
    <_>
      <rects>
        <_>
          22 4 3 6 -1.</_>
        <_>
          22 7 3 3 2.</_></rects>
      <tilted>0</tilted></_>
    <_>
      <rects>
        <_>
          22 16 1 12 -1.</_>
        <_>
          22 22 1 6 2.</_></rects>
      <tilted>0</tilted></_>
    <_>
      <rects>
        <_>
          23 9 1 15 -1.</_>
        <_>
          23 14 1 5 3.</_></rects>
      <tilted>0</tilted></_>
    <_>
      <rects>
        <_>
          25 7 2 12 -1.</_>
        <_>
          26 7 1 12 2.</_></rects>
      <tilted>0</tilted></_></features></cascade>
</opencv_storage>
