<?xml version="1.0"?>
<opencv_storage>
<cascade>
  <stageType>BOOST</stageType>
  <featureType>HAAR</featureType>
  <height>30</height>
  <width>30</width>
  <stageParams>
    <boostType>GAB</boostType>
    <minHitRate>9.9989998340606689e-01</minHitRate>
    <maxFalseAlarm>2.5000000000000000e-01</maxFalseAlarm>
    <weightTrimRate>9.4999999999999996e-01</weightTrimRate>
    <maxDepth>1</maxDepth>
    <maxWeakCount>100</maxWeakCount></stageParams>
  <featureParams>
    <maxCatCount>0</maxCatCount>
    <featSize>1</featSize>
    <mode>BASIC</mode></featureParams>
  <stageNum>9</stageNum>
  <stages>
    <!-- stage 0 -->
    <_>
      <maxWeakCount>5</maxWeakCount>
      <stageThreshold>-1.3868479728698730e+00</stageThreshold>
      <weakClassifiers>
        <_>
          <internalNodes>
            0 -1 38 1.5374220907688141e-02</internalNodes>
          <leafValues>
            -8.7962961196899414e-01 9.1469430923461914e-01</leafValues></_>
        <_>
          <internalNodes>
            0 -1 44 -1.5034718671813607e-03</internalNodes>
          <leafValues>
            8.1723046302795410e-01 -8.8415688276290894e-01</leafValues></_>
        <_>
          <internalNodes>
            0 -1 39 4.9138593021780252e-04</internalNodes>
          <leafValues>
            -9.6518546342849731e-01 7.0090609788894653e-01</leafValues></_>
        <_>
          <internalNodes>
            0 -1 12 -2.5916476733982563e-03</internalNodes>
          <leafValues>
            6.2072378396987915e-01 -9.2708498239517212e-01</leafValues></_>
        <_>
          <internalNodes>
            0 -1 63 1.2315458152443171e-03</internalNodes>
          <leafValues>
            -9.3660509586334229e-01 6.0311740636825562e-01</leafValues></_></weakClassifiers></_>
    <!-- stage 1 -->
    <_>
      <maxWeakCount>5</maxWeakCount>
      <stageThreshold>-1.3677690029144287e+00</stageThreshold>
      <weakClassifiers>
        <_>
          <internalNodes>
            0 -1 49 3.3109362702816725e-03</internalNodes>
          <leafValues>
            -8.5421168804168701e-01 8.6354869604110718e-01</leafValues></_>
        <_>
          <internalNodes>
            0 -1 30 1.9712978973984718e-03</internalNodes>
          <leafValues>
            -9.3937826156616211e-01 7.5966572761535645e-01</leafValues></_>
        <_>
          <internalNodes>
            0 -1 53 -4.6787478029727936e-02</internalNodes>
          <leafValues>
            8.4216415882110596e-01 -7.2550535202026367e-01</leafValues></_>
        <_>
          <internalNodes>
            0 -1 37 -9.5079001039266586e-04</internalNodes>
          <leafValues>
            5.1471078395843506e-01 -9.8049467802047729e-01</leafValues></_>
        <_>
          <internalNodes>
            0 -1 0 -6.0165231116116047e-03</internalNodes>
          <leafValues>
            6.3661539554595947e-01 -7.6863026618957520e-01</leafValues></_></weakClassifiers></_>
    <!-- stage 2 -->
    <_>
      <maxWeakCount>7</maxWeakCount>
      <stageThreshold>-1.6172919273376465e+00</stageThreshold>
      <weakClassifiers>
        <_>
          <internalNodes>
            0 -1 45 2.6316419243812561e-03</internalNodes>
          <leafValues>
            -7.2676485776901245e-01 8.5115355253219604e-01</leafValues></_>
        <_>
          <internalNodes>
            0 -1 66 2.7639721520245075e-03</internalNodes>
          <leafValues>
            -7.1892350912094116e-01 7.6980680227279663e-01</leafValues></_>
        <_>
          <internalNodes>
            0 -1 26 1.0791685199365020e-03</internalNodes>
          <leafValues>
            -8.1763160228729248e-01 6.3048481941223145e-01</leafValues></_>
        <_>
          <internalNodes>
            0 -1 58 3.0751926824450493e-03</internalNodes>
          <leafValues>
            -9.1196835041046143e-01 5.1089620590209961e-01</leafValues></_>
        <_>
          <internalNodes>
            0 -1 56 -2.9245758196339011e-04</internalNodes>
          <leafValues>
            4.5199841260910034e-01 -9.7418963909149170e-01</leafValues></_>
        <_>
          <internalNodes>
            0 -1 4 4.4192061759531498e-03</internalNodes>
          <leafValues>
            -7.4311465024948120e-01 5.3172636032104492e-01</leafValues></_>
        <_>
          <internalNodes>
            0 -1 64 5.3998280782252550e-04</internalNodes>
          <leafValues>
            -8.4859299659729004e-01 5.0369948148727417e-01</leafValues></_></weakClassifiers></_>
    <!-- stage 3 -->
    <_>
      <maxWeakCount>8</maxWeakCount>
      <stageThreshold>-1.4745751619338989e+00</stageThreshold>
      <weakClassifiers>
        <_>
          <internalNodes>
            0 -1 60 1.7315621953457594e-03</internalNodes>
          <leafValues>
            -8.8772845268249512e-01 7.5201433897018433e-01</leafValues></_>
        <_>
          <internalNodes>
            0 -1 32 -3.8348592352122068e-04</internalNodes>
          <leafValues>
            6.1782711744308472e-01 -8.4997886419296265e-01</leafValues></_>
        <_>
          <internalNodes>
            0 -1 38 2.5888195261359215e-02</internalNodes>
          <leafValues>
            -7.2247678041458130e-01 6.3123136758804321e-01</leafValues></_>
        <_>
          <internalNodes>
            0 -1 65 -1.3622962869703770e-03</internalNodes>
          <leafValues>
            5.2717900276184082e-01 -8.2808065414428711e-01</leafValues></_>
        <_>
          <internalNodes>
            0 -1 52 8.7798456661403179e-04</internalNodes>
          <leafValues>
            -9.6973007917404175e-01 3.3153870701789856e-01</leafValues></_>
        <_>
          <internalNodes>
            0 -1 29 -4.2820330709218979e-03</internalNodes>
          <leafValues>
            5.5169409513473511e-01 -6.9080352783203125e-01</leafValues></_>
        <_>
          <internalNodes>
            0 -1 14 -6.5617298241704702e-04</internalNodes>
          <leafValues>
            4.8529672622680664e-01 -7.4154287576675415e-01</leafValues></_>
        <_>
          <internalNodes>
            0 -1 35 1.5223569062072784e-04</internalNodes>
          <leafValues>
            -9.7618508338928223e-01 3.3239802718162537e-01</leafValues></_></weakClassifiers></_>
    <!-- stage 4 -->
    <_>
      <maxWeakCount>9</maxWeakCount>
      <stageThreshold>-1.5787563323974609e+00</stageThreshold>
      <weakClassifiers>
        <_>
          <internalNodes>
            0 -1 54 1.6208239831030369e-03</internalNodes>
          <leafValues>
            -8.0336350202560425e-01 7.2788506746292114e-01</leafValues></_>
        <_>
          <internalNodes>
            0 -1 15 1.5364462137222290e-01</internalNodes>
          <leafValues>
            -7.8523468971252441e-01 6.8688231706619263e-01</leafValues></_>
        <_>
          <internalNodes>
            0 -1 8 -1.4233097317628562e-04</internalNodes>
          <leafValues>
            4.4963565468788147e-01 -9.7502702474594116e-01</leafValues></_>
        <_>
          <internalNodes>
            0 -1 67 8.9133214205503464e-03</internalNodes>
          <leafValues>
            -6.6985994577407837e-01 6.0192734003067017e-01</leafValues></_>
        <_>
          <internalNodes>
            0 -1 48 1.7359785852022469e-04</internalNodes>
          <leafValues>
            4.1912135481834412e-01 -9.3567037582397461e-01</leafValues></_>
        <_>
          <internalNodes>
            0 -1 31 2.6769994292408228e-04</internalNodes>
          <leafValues>
            -9.4503736495971680e-01 3.3249634504318237e-01</leafValues></_>
        <_>
          <internalNodes>
            0 -1 42 -7.7924880315549672e-05</internalNodes>
          <leafValues>
            -9.7790938615798950e-01 2.8295177221298218e-01</leafValues></_>
        <_>
          <internalNodes>
            0 -1 41 2.9174219816923141e-03</internalNodes>
          <leafValues>
            3.5241162776947021e-01 -9.8234421014785767e-01</leafValues></_>
        <_>
          <internalNodes>
            0 -1 9 1.1460857058409601e-04</internalNodes>
          <leafValues>
            -9.6430134773254395e-01 2.6774770021438599e-01</leafValues></_></weakClassifiers></_>
    <!-- stage 5 -->
    <_>
      <maxWeakCount>9</maxWeakCount>
      <stageThreshold>-1.2324995994567871e+00</stageThreshold>
      <weakClassifiers>
        <_>
          <internalNodes>
            0 -1 3 6.8600261583924294e-03</internalNodes>
          <leafValues>
            -4.9866902828216553e-01 8.3395624160766602e-01</leafValues></_>
        <_>
          <internalNodes>
            0 -1 7 2.2501134662888944e-04</internalNodes>
          <leafValues>
            -9.1242432594299316e-01 5.3227311372756958e-01</leafValues></_>
        <_>
          <internalNodes>
            0 -1 47 2.0068556070327759e-02</internalNodes>
          <leafValues>
            -6.3976788520812988e-01 6.3155627250671387e-01</leafValues></_>
        <_>
          <internalNodes>
            0 -1 27 1.0111949814017862e-04</internalNodes>
          <leafValues>
            -9.7411179542541504e-01 3.9919638633728027e-01</leafValues></_>
        <_>
          <internalNodes>
            0 -1 2 5.5702868849039078e-03</internalNodes>
          <leafValues>
            -7.3300439119338989e-01 4.4171997904777527e-01</leafValues></_>
        <_>
          <internalNodes>
            0 -1 50 6.5296492539346218e-04</internalNodes>
          <leafValues>
            3.1172135472297668e-01 -9.7094899415969849e-01</leafValues></_>
        <_>
          <internalNodes>
            0 -1 10 1.6228720778599381e-03</internalNodes>
          <leafValues>
            2.5647482275962830e-01 -9.9467372894287109e-01</leafValues></_>
        <_>
          <internalNodes>
            0 -1 22 7.8250603110063821e-05</internalNodes>
          <leafValues>
            -9.4702249765396118e-01 3.2225826382637024e-01</leafValues></_>
        <_>
          <internalNodes>
            0 -1 46 -1.8764741253107786e-04</internalNodes>
          <leafValues>
            2.7306139469146729e-01 -9.8948991298675537e-01</leafValues></_></weakClassifiers></_>
    <!-- stage 6 -->
    <_>
      <maxWeakCount>9</maxWeakCount>
      <stageThreshold>-1.3054107427597046e+00</stageThreshold>
      <weakClassifiers>
        <_>
          <internalNodes>
            0 -1 57 2.5901943445205688e-04</internalNodes>
          <leafValues>
            -8.9931350946426392e-01 6.7796969413757324e-01</leafValues></_>
        <_>
          <internalNodes>
            0 -1 1 3.2684374600648880e-02</internalNodes>
          <leafValues>
            -6.6984522342681885e-01 6.5516841411590576e-01</leafValues></_>
        <_>
          <internalNodes>
            0 -1 28 2.5440878234803677e-03</internalNodes>
          <leafValues>
            4.2607665061950684e-01 -9.5210003852844238e-01</leafValues></_>
        <_>
          <internalNodes>
            0 -1 33 -3.2737324945628643e-03</internalNodes>
          <leafValues>
            4.6746689081192017e-01 -7.7195340394973755e-01</leafValues></_>
        <_>
          <internalNodes>
            0 -1 19 2.8140668291598558e-04</internalNodes>
          <leafValues>
            -9.9051618576049805e-01 3.5045644640922546e-01</leafValues></_>
        <_>
          <internalNodes>
            0 -1 21 3.8998702075332403e-04</internalNodes>
          <leafValues>
            3.2027354836463928e-01 -9.7152912616729736e-01</leafValues></_>
        <_>
          <internalNodes>
            0 -1 34 -5.6548113934695721e-04</internalNodes>
          <leafValues>
            3.5306885838508606e-01 -8.2722276449203491e-01</leafValues></_>
        <_>
          <internalNodes>
            0 -1 51 -5.7429797016084194e-04</internalNodes>
          <leafValues>
            -8.9272630214691162e-01 3.5825791954994202e-01</leafValues></_>
        <_>
          <internalNodes>
            0 -1 61 2.3818816989660263e-03</internalNodes>
          <leafValues>
            -7.7705341577529907e-01 4.0785962343215942e-01</leafValues></_></weakClassifiers></_>
    <!-- stage 7 -->
    <_>
      <maxWeakCount>8</maxWeakCount>
      <stageThreshold>-1.0030549764633179e+00</stageThreshold>
      <weakClassifiers>
        <_>
          <internalNodes>
            0 -1 25 2.5212033651769161e-03</internalNodes>
          <leafValues>
            -8.4146338701248169e-01 6.6211605072021484e-01</leafValues></_>
        <_>
          <internalNodes>
            0 -1 17 -1.0198683012276888e-03</internalNodes>
          <leafValues>
            4.3529507517814636e-01 -9.2487490177154541e-01</leafValues></_>
        <_>
          <internalNodes>
            0 -1 5 -2.7054487145505846e-04</internalNodes>
          <leafValues>
            -9.4399392604827881e-01 3.8471776247024536e-01</leafValues></_>
        <_>
          <internalNodes>
            0 -1 43 -3.0570667149731889e-05</internalNodes>
          <leafValues>
            3.5264343023300171e-01 -8.1509375572204590e-01</leafValues></_>
        <_>
          <internalNodes>
            0 -1 62 1.0896490421146154e-03</internalNodes>
          <leafValues>
            -8.1697320938110352e-01 4.6386948227882385e-01</leafValues></_>
        <_>
          <internalNodes>
            0 -1 11 4.7498014755547047e-03</internalNodes>
          <leafValues>
            2.6539334654808044e-01 -9.7204267978668213e-01</leafValues></_>
        <_>
          <internalNodes>
            0 -1 18 3.8874079473316669e-04</internalNodes>
          <leafValues>
            -9.9432957172393799e-01 3.3650234341621399e-01</leafValues></_>
        <_>
          <internalNodes>
            0 -1 24 1.2179622426629066e-03</internalNodes>
          <leafValues>
            2.4099965393543243e-01 -9.9755275249481201e-01</leafValues></_></weakClassifiers></_>
    <!-- stage 8 -->
    <_>
      <maxWeakCount>9</maxWeakCount>
      <stageThreshold>-1.1364045143127441e+00</stageThreshold>
      <weakClassifiers>
        <_>
          <internalNodes>
            0 -1 23 -3.3539832656970248e-05</internalNodes>
          <leafValues>
            -9.5436662435531616e-01 6.7942482233047485e-01</leafValues></_>
        <_>
          <internalNodes>
            0 -1 40 4.1109826415777206e-03</internalNodes>
          <leafValues>
            5.0605696439743042e-01 -9.4760602712631226e-01</leafValues></_>
        <_>
          <internalNodes>
            0 -1 59 -3.0237954342737794e-04</internalNodes>
          <leafValues>
            5.3295570611953735e-01 -8.1674784421920776e-01</leafValues></_>
        <_>
          <internalNodes>
            0 -1 13 9.6400600159540772e-04</internalNodes>
          <leafValues>
            -7.7990347146987915e-01 5.4914337396621704e-01</leafValues></_>
        <_>
          <internalNodes>
            0 -1 55 -1.8179593607783318e-03</internalNodes>
          <leafValues>
            5.2217811346054077e-01 -8.0682867765426636e-01</leafValues></_>
        <_>
          <internalNodes>
            0 -1 36 1.4105963055044413e-04</internalNodes>
          <leafValues>
            -8.1593948602676392e-01 4.5241814851760864e-01</leafValues></_>
        <_>
          <internalNodes>
            0 -1 6 2.3679096557316370e-05</internalNodes>
          <leafValues>
            -9.7620105743408203e-01 3.5594597458839417e-01</leafValues></_>
        <_>
          <internalNodes>
            0 -1 16 -9.4828713918104768e-04</internalNodes>
          <leafValues>
            5.0800484418869019e-01 -7.0565825700759888e-01</leafValues></_>
        <_>
          <internalNodes>
            0 -1 20 -2.3014607722871006e-04</internalNodes>
          <leafValues>
            -9.9035090208053589e-01 3.9901617169380188e-01</leafValues></_></weakClassifiers></_></stages>
  <features>
    <_>
      <rects>
        <_>
          3 10 3 16 -1.</_>
        <_>
          4 10 1 16 3.</_></rects>
      <tilted>0</tilted></_>
    <_>
      <rects>
        <_>
          4 2 6 27 -1.</_>
        <_>
          6 2 2 27 3.</_></rects>
      <tilted>0</tilted></_>
    <_>
      <rects>
        <_>
          4 4 18 2 -1.</_>
        <_>
          4 4 9 1 2.</_>
        <_>
          13 5 9 1 2.</_></rects>
      <tilted>0</tilted></_>
    <_>
      <rects>
        <_>
          4 8 2 14 -1.</_>
        <_>
          5 8 1 14 2.</_></rects>
      <tilted>0</tilted></_>
    <_>
      <rects>
        <_>
          5 4 3 11 -1.</_>
        <_>
          6 4 1 11 3.</_></rects>
      <tilted>0</tilted></_>
    <_>
      <rects>
        <_>
          5 15 6 6 -1.</_>
        <_>
          8 15 3 6 2.</_></rects>
      <tilted>0</tilted></_>
    <_>
      <rects>
        <_>
          6 4 2 21 -1.</_>
        <_>
          6 11 2 7 3.</_></rects>
      <tilted>0</tilted></_>
    <_>
      <rects>
        <_>
          6 11 2 6 -1.</_>
        <_>
          6 14 2 3 2.</_></rects>
      <tilted>0</tilted></_>
    <_>
      <rects>
        <_>
          6 13 9 7 -1.</_>
        <_>
          9 13 3 7 3.</_></rects>
      <tilted>0</tilted></_>
    <_>
      <rects>
        <_>
          6 16 6 1 -1.</_>
        <_>
          9 16 3 1 2.</_></rects>
      <tilted>0</tilted></_>
    <_>
      <rects>
        <_>
          6 16 12 1 -1.</_>
        <_>
          10 16 4 1 3.</_></rects>
      <tilted>0</tilted></_>
    <_>
      <rects>
        <_>
          6 16 12 4 -1.</_>
        <_>
          10 16 4 4 3.</_></rects>
      <tilted>0</tilted></_>
    <_>
      <rects>
        <_>
          6 20 4 4 -1.</_>
        <_>
          6 22 4 2 2.</_></rects>
      <tilted>0</tilted></_>
    <_>
      <rects>
        <_>
          6 24 2 6 -1.</_>
        <_>
          6 24 1 3 2.</_>
        <_>
          7 27 1 3 2.</_></rects>
      <tilted>0</tilted></_>
    <_>
      <rects>
        <_>
          7 2 2 4 -1.</_>
        <_>
          8 2 1 4 2.</_></rects>
      <tilted>0</tilted></_>
    <_>
      <rects>
        <_>
          7 6 13 24 -1.</_>
        <_>
          7 14 13 8 3.</_></rects>
      <tilted>0</tilted></_>
    <_>
      <rects>
        <_>
          7 12 3 3 -1.</_>
        <_>
          7 13 3 1 3.</_></rects>
      <tilted>0</tilted></_>
    <_>
      <rects>
        <_>
          7 13 6 8 -1.</_>
        <_>
          9 13 2 8 3.</_></rects>
      <tilted>0</tilted></_>
    <_>
      <rects>
        <_>
          7 16 6 4 -1.</_>
        <_>
          10 16 3 4 2.</_></rects>
      <tilted>0</tilted></_>
    <_>
      <rects>
        <_>
          7 16 8 3 -1.</_>
        <_>
          11 16 4 3 2.</_></rects>
      <tilted>0</tilted></_>
    <_>
      <rects>
        <_>
          7 16 10 4 -1.</_>
        <_>
          12 16 5 4 2.</_></rects>
      <tilted>0</tilted></_>
    <_>
      <rects>
        <_>
          7 16 12 1 -1.</_>
        <_>
          13 16 6 1 2.</_></rects>
      <tilted>0</tilted></_>
    <_>
      <rects>
        <_>
          7 17 4 1 -1.</_>
        <_>
          9 17 2 1 2.</_></rects>
      <tilted>0</tilted></_>
    <_>
      <rects>
        <_>
          7 17 10 3 -1.</_>
        <_>
          12 17 5 3 2.</_></rects>
      <tilted>0</tilted></_>
    <_>
      <rects>
        <_>
          7 17 12 4 -1.</_>
        <_>
          13 17 6 4 2.</_></rects>
      <tilted>0</tilted></_>
    <_>
      <rects>
        <_>
          7 18 3 6 -1.</_>
        <_>
          7 20 3 2 3.</_></rects>
      <tilted>0</tilted></_>
    <_>
      <rects>
        <_>
          7 23 1 6 -1.</_>
        <_>
          7 26 1 3 2.</_></rects>
      <tilted>0</tilted></_>
    <_>
      <rects>
        <_>
          8 14 1 6 -1.</_>
        <_>
          8 17 1 3 2.</_></rects>
      <tilted>0</tilted></_>
    <_>
      <rects>
        <_>
          8 16 12 3 -1.</_>
        <_>
          12 16 4 3 3.</_></rects>
      <tilted>0</tilted></_>
    <_>
      <rects>
        <_>
          9 10 2 6 -1.</_>
        <_>
          9 12 2 2 3.</_></rects>
      <tilted>0</tilted></_>
    <_>
      <rects>
        <_>
          9 13 2 4 -1.</_>
        <_>
          9 15 2 2 2.</_></rects>
      <tilted>0</tilted></_>
    <_>
      <rects>
        <_>
          9 21 2 3 -1.</_>
        <_>
          10 21 1 3 2.</_></rects>
      <tilted>0</tilted></_>
    <_>
      <rects>
        <_>
          9 22 1 2 -1.</_>
        <_>
          9 23 1 1 2.</_></rects>
      <tilted>0</tilted></_>
    <_>
      <rects>
        <_>
          10 6 4 6 -1.</_>
        <_>
          10 6 2 3 2.</_>
        <_>
          12 9 2 3 2.</_></rects>
      <tilted>0</tilted></_>
    <_>
      <rects>
        <_>
          10 13 2 4 -1.</_>
        <_>
          10 13 1 2 2.</_>
        <_>
          11 15 1 2 2.</_></rects>
      <tilted>0</tilted></_>
    <_>
      <rects>
        <_>
          10 16 8 8 -1.</_>
        <_>
          10 16 4 4 2.</_>
        <_>
          14 20 4 4 2.</_></rects>
      <tilted>0</tilted></_>
    <_>
      <rects>
        <_>
          11 6 2 1 -1.</_>
        <_>
          12 6 1 1 2.</_></rects>
      <tilted>0</tilted></_>
    <_>
      <rects>
        <_>
          11 24 8 2 -1.</_>
        <_>
          11 25 8 1 2.</_></rects>
      <tilted>0</tilted></_>
    <_>
      <rects>
        <_>
          12 4 9 6 -1.</_>
        <_>
          12 6 9 2 3.</_></rects>
      <tilted>0</tilted></_>
    <_>
      <rects>
        <_>
          12 12 2 2 -1.</_>
        <_>
          12 13 2 1 2.</_></rects>
      <tilted>0</tilted></_>
    <_>
      <rects>
        <_>
          12 13 3 12 -1.</_>
        <_>
          12 17 3 4 3.</_></rects>
      <tilted>0</tilted></_>
    <_>
      <rects>
        <_>
          12 14 7 9 -1.</_>
        <_>
          12 17 7 3 3.</_></rects>
      <tilted>0</tilted></_>
    <_>
      <rects>
        <_>
          12 15 6 4 -1.</_>
        <_>
          12 17 6 2 2.</_></rects>
      <tilted>0</tilted></_>
    <_>
      <rects>
        <_>
          12 19 3 6 -1.</_>
        <_>
          12 21 3 2 3.</_></rects>
      <tilted>0</tilted></_>
    <_>
      <rects>
        <_>
          12 25 5 2 -1.</_>
        <_>
          12 26 5 1 2.</_></rects>
      <tilted>0</tilted></_>
    <_>
      <rects>
        <_>
          13 11 5 2 -1.</_>
        <_>
          13 12 5 1 2.</_></rects>
      <tilted>0</tilted></_>
    <_>
      <rects>
        <_>
          13 15 6 3 -1.</_>
        <_>
          16 15 3 3 2.</_></rects>
      <tilted>0</tilted></_>
    <_>
      <rects>
        <_>
          13 24 10 6 -1.</_>
        <_>
          13 24 5 3 2.</_>
        <_>
          18 27 5 3 2.</_></rects>
      <tilted>0</tilted></_>
    <_>
      <rects>
        <_>
          14 18 4 6 -1.</_>
        <_>
          14 20 4 2 3.</_></rects>
      <tilted>0</tilted></_>
    <_>
      <rects>
        <_>
          15 4 7 2 -1.</_>
        <_>
          15 5 7 1 2.</_></rects>
      <tilted>0</tilted></_>
    <_>
      <rects>
        <_>
          15 13 3 12 -1.</_>
        <_>
          15 19 3 6 2.</_></rects>
      <tilted>0</tilted></_>
    <_>
      <rects>
        <_>
          15 14 2 10 -1.</_>
        <_>
          15 19 2 5 2.</_></rects>
      <tilted>0</tilted></_>
    <_>
      <rects>
        <_>
          16 6 6 3 -1.</_>
        <_>
          19 6 3 3 2.</_></rects>
      <tilted>0</tilted></_>
    <_>
      <rects>
        <_>
          17 2 8 22 -1.</_>
        <_>
          17 2 4 11 2.</_>
        <_>
          21 13 4 11 2.</_></rects>
      <tilted>0</tilted></_>
    <_>
      <rects>
        <_>
          17 4 3 2 -1.</_>
        <_>
          17 5 3 1 2.</_></rects>
      <tilted>0</tilted></_>
    <_>
      <rects>
        <_>
          18 4 8 2 -1.</_>
        <_>
          18 4 4 1 2.</_>
        <_>
          22 5 4 1 2.</_></rects>
      <tilted>0</tilted></_>
    <_>
      <rects>
        <_>
          18 7 2 2 -1.</_>
        <_>
          18 8 2 1 2.</_></rects>
      <tilted>0</tilted></_>
    <_>
      <rects>
        <_>
          18 12 1 2 -1.</_>
        <_>
          18 13 1 1 2.</_></rects>
      <tilted>0</tilted></_>
    <_>
      <rects>
        <_>
          19 3 6 3 -1.</_>
        <_>
          22 3 3 3 2.</_></rects>
      <tilted>0</tilted></_>
    <_>
      <rects>
        <_>
          20 16 2 1 -1.</_>
        <_>
          21 16 1 1 2.</_></rects>
      <tilted>0</tilted></_>
    <_>
      <rects>
        <_>
          20 26 4 2 -1.</_>
        <_>
          22 26 2 2 2.</_></rects>
      <tilted>0</tilted></_>
    <_>
      <rects>
        <_>
          21 3 6 2 -1.</_>
        <_>
          23 3 2 2 3.</_></rects>
      <tilted>0</tilted></_>
    <_>
      <rects>
        <_>
          22 24 1 4 -1.</_>
        <_>
          22 26 1 2 2.</_></rects>
      <tilted>0</tilted></_>
    <_>
      <rects>
        <_>
          22 24 2 4 -1.</_>
        <_>
          22 26 2 2 2.</_></rects>
      <tilted>0</tilted></_>
    <_>
      <rects>
        <_>
          23 23 2 2 -1.</_>
        <_>
          24 23 1 2 2.</_></rects>
      <tilted>0</tilted></_>
    <_>
      <rects>
        <_>
          24 10 1 8 -1.</_>
        <_>
          24 14 1 4 2.</_></rects>
      <tilted>0</tilted></_>
    <_>
      <rects>
        <_>
          24 12 3 5 -1.</_>
        <_>
          25 12 1 5 3.</_></rects>
      <tilted>0</tilted></_>
    <_>
      <rects>
        <_>
          24 12 3 13 -1.</_>
        <_>
          25 12 1 13 3.</_></rects>
      <tilted>0</tilted></_></features></cascade>
</opencv_storage>
