<?xml version="1.0"?>
<opencv_storage>
<cascade>
  <stageType>BOOST</stageType>
  <featureType>HAAR</featureType>
  <height>30</height>
  <width>30</width>
  <stageParams>
    <boostType>GAB</boostType>
    <minHitRate>9.9900001287460327e-01</minHitRate>
    <maxFalseAlarm>1.5000000596046448e-01</maxFalseAlarm>
    <weightTrimRate>9.4999999999999996e-01</weightTrimRate>
    <maxDepth>1</maxDepth>
    <maxWeakCount>100</maxWeakCount></stageParams>
  <featureParams>
    <maxCatCount>0</maxCatCount>
    <featSize>1</featSize>
    <mode>BASIC</mode></featureParams>
  <stageNum>7</stageNum>
  <stages>
    <!-- stage 0 -->
    <_>
      <maxWeakCount>5</maxWeakCount>
      <stageThreshold>-1.1630997657775879e+00</stageThreshold>
      <weakClassifiers>
        <_>
          <internalNodes>
            0 -1 24 2.8205765411257744e-03</internalNodes>
          <leafValues>
            -9.2880564928054810e-01 8.8158696889877319e-01</leafValues></_>
        <_>
          <internalNodes>
            0 -1 36 6.2763993628323078e-04</internalNodes>
          <leafValues>
            -9.3830209970474243e-01 7.9908275604248047e-01</leafValues></_>
        <_>
          <internalNodes>
            0 -1 45 1.7915233969688416e-02</internalNodes>
          <leafValues>
            -8.3035171031951904e-01 8.5941064357757568e-01</leafValues></_>
        <_>
          <internalNodes>
            0 -1 50 6.0205638874322176e-04</internalNodes>
          <leafValues>
            -8.5773938894271851e-01 6.9378751516342163e-01</leafValues></_>
        <_>
          <internalNodes>
            0 -1 8 -1.8316373461857438e-04</internalNodes>
          <leafValues>
            6.5471416711807251e-01 -8.5116630792617798e-01</leafValues></_></weakClassifiers></_>
    <!-- stage 1 -->
    <_>
      <maxWeakCount>6</maxWeakCount>
      <stageThreshold>-7.9312801361083984e-01</stageThreshold>
      <weakClassifiers>
        <_>
          <internalNodes>
            0 -1 5 -2.8467260301113129e-02</internalNodes>
          <leafValues>
            8.6461406946182251e-01 -7.5823223590850830e-01</leafValues></_>
        <_>
          <internalNodes>
            0 -1 51 2.1217293106019497e-03</internalNodes>
          <leafValues>
            -8.5559272766113281e-01 7.4850481748580933e-01</leafValues></_>
        <_>
          <internalNodes>
            0 -1 15 1.7892036121338606e-03</internalNodes>
          <leafValues>
            -9.6723449230194092e-01 5.7572215795516968e-01</leafValues></_>
        <_>
          <internalNodes>
            0 -1 18 7.9907255712896585e-04</internalNodes>
          <leafValues>
            -9.1701000928878784e-01 5.4459512233734131e-01</leafValues></_>
        <_>
          <internalNodes>
            0 -1 12 3.7801000289618969e-03</internalNodes>
          <leafValues>
            -7.6763015985488892e-01 6.1464887857437134e-01</leafValues></_>
        <_>
          <internalNodes>
            0 -1 44 -2.3276829160749912e-03</internalNodes>
          <leafValues>
            4.6800979971885681e-01 -9.5990562438964844e-01</leafValues></_></weakClassifiers></_>
    <!-- stage 2 -->
    <_>
      <maxWeakCount>8</maxWeakCount>
      <stageThreshold>-1.3285825252532959e+00</stageThreshold>
      <weakClassifiers>
        <_>
          <internalNodes>
            0 -1 54 1.6986168920993805e-03</internalNodes>
          <leafValues>
            -8.5388600826263428e-01 7.8085935115814209e-01</leafValues></_>
        <_>
          <internalNodes>
            0 -1 0 2.6251293718814850e-02</internalNodes>
          <leafValues>
            -6.9900786876678467e-01 8.1225615739822388e-01</leafValues></_>
        <_>
          <internalNodes>
            0 -1 3 -7.1638356894254684e-04</internalNodes>
          <leafValues>
            5.4426151514053345e-01 -9.3931281566619873e-01</leafValues></_>
        <_>
          <internalNodes>
            0 -1 7 1.2140547856688499e-02</internalNodes>
          <leafValues>
            -6.6621696949005127e-01 6.5357214212417603e-01</leafValues></_>
        <_>
          <internalNodes>
            0 -1 40 -2.5189091684296727e-04</internalNodes>
          <leafValues>
            4.6035218238830566e-01 -9.3431979417800903e-01</leafValues></_>
        <_>
          <internalNodes>
            0 -1 49 -5.0015386659651995e-04</internalNodes>
          <leafValues>
            3.5734426975250244e-01 -9.5147103071212769e-01</leafValues></_>
        <_>
          <internalNodes>
            0 -1 30 5.5951927788555622e-04</internalNodes>
          <leafValues>
            -8.0001956224441528e-01 4.7677457332611084e-01</leafValues></_>
        <_>
          <internalNodes>
            0 -1 37 -2.9721911414526403e-04</internalNodes>
          <leafValues>
            3.2858988642692566e-01 -9.7378492355346680e-01</leafValues></_></weakClassifiers></_>
    <!-- stage 3 -->
    <_>
      <maxWeakCount>9</maxWeakCount>
      <stageThreshold>-1.3425133228302002e+00</stageThreshold>
      <weakClassifiers>
        <_>
          <internalNodes>
            0 -1 9 1.4199011493474245e-03</internalNodes>
          <leafValues>
            -8.7058824300765991e-01 7.1588784456253052e-01</leafValues></_>
        <_>
          <internalNodes>
            0 -1 29 -3.4177338238805532e-03</internalNodes>
          <leafValues>
            6.3368272781372070e-01 -7.6115196943283081e-01</leafValues></_>
        <_>
          <internalNodes>
            0 -1 52 1.4473481569439173e-03</internalNodes>
          <leafValues>
            -8.2317060232162476e-01 5.1379698514938354e-01</leafValues></_>
        <_>
          <internalNodes>
            0 -1 31 3.4340401180088520e-03</internalNodes>
          <leafValues>
            -7.7414244413375854e-01 5.2064645290374756e-01</leafValues></_>
        <_>
          <internalNodes>
            0 -1 17 1.1624563485383987e-03</internalNodes>
          <leafValues>
            -9.1399610042572021e-01 4.0960714221000671e-01</leafValues></_>
        <_>
          <internalNodes>
            0 -1 20 -1.5601927589159459e-04</internalNodes>
          <leafValues>
            3.2534104585647583e-01 -9.6362078189849854e-01</leafValues></_>
        <_>
          <internalNodes>
            0 -1 23 6.4498488791286945e-04</internalNodes>
          <leafValues>
            -9.8838555812835693e-01 2.5218787789344788e-01</leafValues></_>
        <_>
          <internalNodes>
            0 -1 41 1.9488908583298326e-04</internalNodes>
          <leafValues>
            -9.5132553577423096e-01 2.9024332761764526e-01</leafValues></_>
        <_>
          <internalNodes>
            0 -1 27 6.9929577875882387e-05</internalNodes>
          <leafValues>
            2.9306760430335999e-01 -9.8378294706344604e-01</leafValues></_></weakClassifiers></_>
    <!-- stage 4 -->
    <_>
      <maxWeakCount>10</maxWeakCount>
      <stageThreshold>-9.1470575332641602e-01</stageThreshold>
      <weakClassifiers>
        <_>
          <internalNodes>
            0 -1 25 2.4582173209637403e-03</internalNodes>
          <leafValues>
            -7.6457762718200684e-01 7.1965485811233521e-01</leafValues></_>
        <_>
          <internalNodes>
            0 -1 13 2.3876545019447803e-03</internalNodes>
          <leafValues>
            -7.3780798912048340e-01 6.2869203090667725e-01</leafValues></_>
        <_>
          <internalNodes>
            0 -1 6 5.5934599367901683e-04</internalNodes>
          <leafValues>
            -7.5096392631530762e-01 5.6197023391723633e-01</leafValues></_>
        <_>
          <internalNodes>
            0 -1 55 7.7911405824124813e-03</internalNodes>
          <leafValues>
            -5.3285753726959229e-01 7.6473438739776611e-01</leafValues></_>
        <_>
          <internalNodes>
            0 -1 47 1.4585123863071203e-03</internalNodes>
          <leafValues>
            -8.2298284769058228e-01 4.5450937747955322e-01</leafValues></_>
        <_>
          <internalNodes>
            0 -1 43 -1.2382800923660398e-04</internalNodes>
          <leafValues>
            -9.8024713993072510e-01 2.9136255383491516e-01</leafValues></_>
        <_>
          <internalNodes>
            0 -1 14 4.3586874380707741e-03</internalNodes>
          <leafValues>
            -9.6295571327209473e-01 2.7298769354820251e-01</leafValues></_>
        <_>
          <internalNodes>
            0 -1 11 -2.9190682107582688e-04</internalNodes>
          <leafValues>
            2.5151017308235168e-01 -9.6397066116333008e-01</leafValues></_>
        <_>
          <internalNodes>
            0 -1 38 4.6781005221419036e-04</internalNodes>
          <leafValues>
            -9.4820278882980347e-01 2.6931628584861755e-01</leafValues></_>
        <_>
          <internalNodes>
            0 -1 46 -3.1721021514385939e-04</internalNodes>
          <leafValues>
            3.3181527256965637e-01 -8.3034050464630127e-01</leafValues></_></weakClassifiers></_>
    <!-- stage 5 -->
    <_>
      <maxWeakCount>9</maxWeakCount>
      <stageThreshold>-8.7378007173538208e-01</stageThreshold>
      <weakClassifiers>
        <_>
          <internalNodes>
            0 -1 34 8.6380459833890200e-04</internalNodes>
          <leafValues>
            6.6072702407836914e-01 -9.4436717033386230e-01</leafValues></_>
        <_>
          <internalNodes>
            0 -1 1 8.8319769129157066e-03</internalNodes>
          <leafValues>
            -6.2227350473403931e-01 7.1165055036544800e-01</leafValues></_>
        <_>
          <internalNodes>
            0 -1 32 4.0139147313311696e-04</internalNodes>
          <leafValues>
            -8.6285775899887085e-01 4.8835176229476929e-01</leafValues></_>
        <_>
          <internalNodes>
            0 -1 48 1.4691317919641733e-03</internalNodes>
          <leafValues>
            -8.7474834918975830e-01 4.2935919761657715e-01</leafValues></_>
        <_>
          <internalNodes>
            0 -1 21 9.1008812189102173e-02</internalNodes>
          <leafValues>
            -5.5360335111618042e-01 6.4514350891113281e-01</leafValues></_>
        <_>
          <internalNodes>
            0 -1 53 1.1557420657481998e-04</internalNodes>
          <leafValues>
            -8.2578617334365845e-01 4.0343314409255981e-01</leafValues></_>
        <_>
          <internalNodes>
            0 -1 10 -1.3804549234919250e-04</internalNodes>
          <leafValues>
            3.6849644780158997e-01 -8.1865090131759644e-01</leafValues></_>
        <_>
          <internalNodes>
            0 -1 19 1.3381672033574432e-04</internalNodes>
          <leafValues>
            -9.5478087663650513e-01 3.1609818339347839e-01</leafValues></_>
        <_>
          <internalNodes>
            0 -1 42 1.3465515803545713e-03</internalNodes>
          <leafValues>
            -9.6955519914627075e-01 2.5771963596343994e-01</leafValues></_></weakClassifiers></_>
    <!-- stage 6 -->
    <_>
      <maxWeakCount>9</maxWeakCount>
      <stageThreshold>-5.3212362527847290e-01</stageThreshold>
      <weakClassifiers>
        <_>
          <internalNodes>
            0 -1 4 -3.4355424577370286e-04</internalNodes>
          <leafValues>
            6.8892174959182739e-01 -8.3688372373580933e-01</leafValues></_>
        <_>
          <internalNodes>
            0 -1 2 4.7330115921795368e-03</internalNodes>
          <leafValues>
            -7.2565263509750366e-01 5.8140432834625244e-01</leafValues></_>
        <_>
          <internalNodes>
            0 -1 22 5.0066886469721794e-03</internalNodes>
          <leafValues>
            -9.5672833919525146e-01 4.1759249567985535e-01</leafValues></_>
        <_>
          <internalNodes>
            0 -1 33 1.0926835238933563e-03</internalNodes>
          <leafValues>
            -9.5864945650100708e-01 3.8438439369201660e-01</leafValues></_>
        <_>
          <internalNodes>
            0 -1 16 -3.5551958717405796e-04</internalNodes>
          <leafValues>
            4.2954751849174500e-01 -9.2734354734420776e-01</leafValues></_>
        <_>
          <internalNodes>
            0 -1 26 3.8142777048051357e-03</internalNodes>
          <leafValues>
            2.8504401445388794e-01 -9.2230403423309326e-01</leafValues></_>
        <_>
          <internalNodes>
            0 -1 39 -1.4677323633804917e-04</internalNodes>
          <leafValues>
            3.3468475937843323e-01 -9.6226793527603149e-01</leafValues></_>
        <_>
          <internalNodes>
            0 -1 35 2.1394717623479664e-04</internalNodes>
          <leafValues>
            -9.1562753915786743e-01 2.9636707901954651e-01</leafValues></_>
        <_>
          <internalNodes>
            0 -1 28 9.6080068033188581e-04</internalNodes>
          <leafValues>
            2.3968356847763062e-01 -9.8251706361770630e-01</leafValues></_></weakClassifiers></_></stages>
  <features>
    <_>
      <rects>
        <_>
          4 3 6 14 -1.</_>
        <_>
          6 3 2 14 3.</_></rects>
      <tilted>0</tilted></_>
    <_>
      <rects>
        <_>
          4 5 2 24 -1.</_>
        <_>
          5 5 1 24 2.</_></rects>
      <tilted>0</tilted></_>
    <_>
      <rects>
        <_>
          5 6 3 12 -1.</_>
        <_>
          6 6 1 12 3.</_></rects>
      <tilted>0</tilted></_>
    <_>
      <rects>
        <_>
          6 14 2 4 -1.</_>
        <_>
          6 16 2 2 2.</_></rects>
      <tilted>0</tilted></_>
    <_>
      <rects>
        <_>
          6 16 1 4 -1.</_>
        <_>
          6 18 1 2 2.</_></rects>
      <tilted>0</tilted></_>
    <_>
      <rects>
        <_>
          6 18 10 12 -1.</_>
        <_>
          6 18 5 6 2.</_>
        <_>
          11 24 5 6 2.</_></rects>
      <tilted>0</tilted></_>
    <_>
      <rects>
        <_>
          6 23 2 4 -1.</_>
        <_>
          6 23 1 2 2.</_>
        <_>
          7 25 1 2 2.</_></rects>
      <tilted>0</tilted></_>
    <_>
      <rects>
        <_>
          7 3 12 4 -1.</_>
        <_>
          7 3 6 2 2.</_>
        <_>
          13 5 6 2 2.</_></rects>
      <tilted>0</tilted></_>
    <_>
      <rects>
        <_>
          7 5 2 1 -1.</_>
        <_>
          8 5 1 1 2.</_></rects>
      <tilted>0</tilted></_>
    <_>
      <rects>
        <_>
          7 10 2 6 -1.</_>
        <_>
          7 12 2 2 3.</_></rects>
      <tilted>0</tilted></_>
    <_>
      <rects>
        <_>
          8 3 2 1 -1.</_>
        <_>
          9 3 1 1 2.</_></rects>
      <tilted>0</tilted></_>
    <_>
      <rects>
        <_>
          8 12 2 2 -1.</_>
        <_>
          9 12 1 2 2.</_></rects>
      <tilted>0</tilted></_>
    <_>
      <rects>
        <_>
          10 27 10 2 -1.</_>
        <_>
          10 28 10 1 2.</_></rects>
      <tilted>0</tilted></_>
    <_>
      <rects>
        <_>
          11 5 2 6 -1.</_>
        <_>
          12 5 1 6 2.</_></rects>
      <tilted>0</tilted></_>
    <_>
      <rects>
        <_>
          11 5 9 3 -1.</_>
        <_>
          14 5 3 3 3.</_></rects>
      <tilted>0</tilted></_>
    <_>
      <rects>
        <_>
          11 5 4 4 -1.</_>
        <_>
          11 7 4 2 2.</_></rects>
      <tilted>0</tilted></_>
    <_>
      <rects>
        <_>
          11 16 2 6 -1.</_>
        <_>
          11 16 1 3 2.</_>
        <_>
          12 19 1 3 2.</_></rects>
      <tilted>0</tilted></_>
    <_>
      <rects>
        <_>
          11 16 6 1 -1.</_>
        <_>
          14 16 3 1 2.</_></rects>
      <tilted>0</tilted></_>
    <_>
      <rects>
        <_>
          11 16 3 2 -1.</_>
        <_>
          11 17 3 1 2.</_></rects>
      <tilted>0</tilted></_>
    <_>
      <rects>
        <_>
          11 20 4 4 -1.</_>
        <_>
          11 20 2 2 2.</_>
        <_>
          13 22 2 2 2.</_></rects>
      <tilted>0</tilted></_>
    <_>
      <rects>
        <_>
          11 22 2 2 -1.</_>
        <_>
          11 23 2 1 2.</_></rects>
      <tilted>0</tilted></_>
    <_>
      <rects>
        <_>
          12 1 8 15 -1.</_>
        <_>
          12 6 8 5 3.</_></rects>
      <tilted>0</tilted></_>
    <_>
      <rects>
        <_>
          12 4 8 6 -1.</_>
        <_>
          12 6 8 2 3.</_></rects>
      <tilted>0</tilted></_>
    <_>
      <rects>
        <_>
          12 5 2 6 -1.</_>
        <_>
          13 5 1 6 2.</_></rects>
      <tilted>0</tilted></_>
    <_>
      <rects>
        <_>
          12 15 8 2 -1.</_>
        <_>
          12 16 8 1 2.</_></rects>
      <tilted>0</tilted></_>
    <_>
      <rects>
        <_>
          12 15 8 3 -1.</_>
        <_>
          12 16 8 1 3.</_></rects>
      <tilted>0</tilted></_>
    <_>
      <rects>
        <_>
          12 18 9 4 -1.</_>
        <_>
          15 18 3 4 3.</_></rects>
      <tilted>0</tilted></_>
    <_>
      <rects>
        <_>
          12 20 6 3 -1.</_>
        <_>
          15 20 3 3 2.</_></rects>
      <tilted>0</tilted></_>
    <_>
      <rects>
        <_>
          12 20 7 3 -1.</_>
        <_>
          12 21 7 1 3.</_></rects>
      <tilted>0</tilted></_>
    <_>
      <rects>
        <_>
          12 23 8 2 -1.</_>
        <_>
          12 24 8 1 2.</_></rects>
      <tilted>0</tilted></_>
    <_>
      <rects>
        <_>
          12 27 2 2 -1.</_>
        <_>
          12 28 2 1 2.</_></rects>
      <tilted>0</tilted></_>
    <_>
      <rects>
        <_>
          13 4 7 2 -1.</_>
        <_>
          13 5 7 1 2.</_></rects>
      <tilted>0</tilted></_>
    <_>
      <rects>
        <_>
          13 9 3 3 -1.</_>
        <_>
          13 10 3 1 3.</_></rects>
      <tilted>0</tilted></_>
    <_>
      <rects>
        <_>
          13 16 3 9 -1.</_>
        <_>
          13 19 3 3 3.</_></rects>
      <tilted>0</tilted></_>
    <_>
      <rects>
        <_>
          13 17 4 6 -1.</_>
        <_>
          13 19 4 2 3.</_></rects>
      <tilted>0</tilted></_>
    <_>
      <rects>
        <_>
          13 18 4 6 -1.</_>
        <_>
          13 20 4 2 3.</_></rects>
      <tilted>0</tilted></_>
    <_>
      <rects>
        <_>
          14 4 2 2 -1.</_>
        <_>
          14 5 2 1 2.</_></rects>
      <tilted>0</tilted></_>
    <_>
      <rects>
        <_>
          14 7 6 4 -1.</_>
        <_>
          14 7 3 2 2.</_>
        <_>
          17 9 3 2 2.</_></rects>
      <tilted>0</tilted></_>
    <_>
      <rects>
        <_>
          15 16 2 9 -1.</_>
        <_>
          15 19 2 3 3.</_></rects>
      <tilted>0</tilted></_>
    <_>
      <rects>
        <_>
          16 7 4 4 -1.</_>
        <_>
          16 7 2 2 2.</_>
        <_>
          18 9 2 2 2.</_></rects>
      <tilted>0</tilted></_>
    <_>
      <rects>
        <_>
          16 10 2 2 -1.</_>
        <_>
          16 11 2 1 2.</_></rects>
      <tilted>0</tilted></_>
    <_>
      <rects>
        <_>
          16 14 1 10 -1.</_>
        <_>
          16 19 1 5 2.</_></rects>
      <tilted>0</tilted></_>
    <_>
      <rects>
        <_>
          16 14 2 8 -1.</_>
        <_>
          16 18 2 4 2.</_></rects>
      <tilted>0</tilted></_>
    <_>
      <rects>
        <_>
          16 16 4 6 -1.</_>
        <_>
          16 16 2 3 2.</_>
        <_>
          18 19 2 3 2.</_></rects>
      <tilted>0</tilted></_>
    <_>
      <rects>
        <_>
          17 5 4 5 -1.</_>
        <_>
          19 5 2 5 2.</_></rects>
      <tilted>0</tilted></_>
    <_>
      <rects>
        <_>
          17 20 8 8 -1.</_>
        <_>
          17 20 4 4 2.</_>
        <_>
          21 24 4 4 2.</_></rects>
      <tilted>0</tilted></_>
    <_>
      <rects>
        <_>
          19 8 2 2 -1.</_>
        <_>
          20 8 1 2 2.</_></rects>
      <tilted>0</tilted></_>
    <_>
      <rects>
        <_>
          19 26 4 2 -1.</_>
        <_>
          21 26 2 2 2.</_></rects>
      <tilted>0</tilted></_>
    <_>
      <rects>
        <_>
          19 26 3 2 -1.</_>
        <_>
          19 27 3 1 2.</_></rects>
      <tilted>0</tilted></_>
    <_>
      <rects>
        <_>
          20 18 2 3 -1.</_>
        <_>
          21 18 1 3 2.</_></rects>
      <tilted>0</tilted></_>
    <_>
      <rects>
        <_>
          20 26 2 2 -1.</_>
        <_>
          20 27 2 1 2.</_></rects>
      <tilted>0</tilted></_>
    <_>
      <rects>
        <_>
          21 12 4 2 -1.</_>
        <_>
          23 12 2 2 2.</_></rects>
      <tilted>0</tilted></_>
    <_>
      <rects>
        <_>
          23 10 1 6 -1.</_>
        <_>
          23 12 1 2 3.</_></rects>
      <tilted>0</tilted></_>
    <_>
      <rects>
        <_>
          23 10 2 2 -1.</_>
        <_>
          23 11 2 1 2.</_></rects>
      <tilted>0</tilted></_>
    <_>
      <rects>
        <_>
          23 22 1 6 -1.</_>
        <_>
          23 25 1 3 2.</_></rects>
      <tilted>0</tilted></_>
    <_>
      <rects>
        <_>
          24 5 3 12 -1.</_>
        <_>
          25 5 1 12 3.</_></rects>
      <tilted>0</tilted></_></features></cascade>
</opencv_storage>
