<?xml version="1.0"?>
<opencv_storage>
<cascade>
  <stageType>BOOST</stageType>
  <featureType>HAAR</featureType>
  <height>30</height>
  <width>30</width>
  <stageParams>
    <boostType>GAB</boostType>
    <minHitRate>9.9900001287460327e-01</minHitRate>
    <maxFalseAlarm>2.0000000298023224e-01</maxFalseAlarm>
    <weightTrimRate>9.4999999999999996e-01</weightTrimRate>
    <maxDepth>1</maxDepth>
    <maxWeakCount>100</maxWeakCount></stageParams>
  <featureParams>
    <maxCatCount>0</maxCatCount>
    <featSize>1</featSize>
    <mode>BASIC</mode></featureParams>
  <stageNum>8</stageNum>
  <stages>
    <!-- stage 0 -->
    <_>
      <maxWeakCount>7</maxWeakCount>
      <stageThreshold>-1.1626111268997192e+00</stageThreshold>
      <weakClassifiers>
        <_>
          <internalNodes>
            0 -1 7 6.7483037710189819e-03</internalNodes>
          <leafValues>
            -7.8056156635284424e-01 8.6120778322219849e-01</leafValues></_>
        <_>
          <internalNodes>
            0 -1 20 1.3562079519033432e-02</internalNodes>
          <leafValues>
            -7.6218336820602417e-01 8.1170362234115601e-01</leafValues></_>
        <_>
          <internalNodes>
            0 -1 84 -3.9068325422704220e-03</internalNodes>
          <leafValues>
            7.4403649568557739e-01 -6.7892926931381226e-01</leafValues></_>
        <_>
          <internalNodes>
            0 -1 48 -3.4623150713741779e-04</internalNodes>
          <leafValues>
            5.2357029914855957e-01 -8.8079923391342163e-01</leafValues></_>
        <_>
          <internalNodes>
            0 -1 55 -4.0223039686679840e-03</internalNodes>
          <leafValues>
            6.2101572751998901e-01 -7.2788727283477783e-01</leafValues></_>
        <_>
          <internalNodes>
            0 -1 39 -3.5304259508848190e-02</internalNodes>
          <leafValues>
            7.7177762985229492e-01 -5.7308131456375122e-01</leafValues></_>
        <_>
          <internalNodes>
            0 -1 91 4.3810583883896470e-04</internalNodes>
          <leafValues>
            -7.8620290756225586e-01 4.8755839467048645e-01</leafValues></_></weakClassifiers></_>
    <!-- stage 1 -->
    <_>
      <maxWeakCount>9</maxWeakCount>
      <stageThreshold>-8.6396247148513794e-01</stageThreshold>
      <weakClassifiers>
        <_>
          <internalNodes>
            0 -1 10 5.7262824848294258e-03</internalNodes>
          <leafValues>
            -5.4229217767715454e-01 8.6842691898345947e-01</leafValues></_>
        <_>
          <internalNodes>
            0 -1 56 1.2082818895578384e-02</internalNodes>
          <leafValues>
            -6.4238208532333374e-01 7.1175891160964966e-01</leafValues></_>
        <_>
          <internalNodes>
            0 -1 42 -1.7364236991852522e-03</internalNodes>
          <leafValues>
            5.1926302909851074e-01 -7.9144096374511719e-01</leafValues></_>
        <_>
          <internalNodes>
            0 -1 73 -2.2843901533633471e-03</internalNodes>
          <leafValues>
            5.4906535148620605e-01 -6.3060832023620605e-01</leafValues></_>
        <_>
          <internalNodes>
            0 -1 17 1.1367163388058543e-03</internalNodes>
          <leafValues>
            -5.9765470027923584e-01 5.9511715173721313e-01</leafValues></_>
        <_>
          <internalNodes>
            0 -1 101 -2.9148275643819943e-05</internalNodes>
          <leafValues>
            3.1408983469009399e-01 -9.4698768854141235e-01</leafValues></_>
        <_>
          <internalNodes>
            0 -1 103 -1.2146439403295517e-03</internalNodes>
          <leafValues>
            -9.2725932598114014e-01 2.8881186246871948e-01</leafValues></_>
        <_>
          <internalNodes>
            0 -1 22 2.2497675381600857e-03</internalNodes>
          <leafValues>
            -7.8284752368927002e-01 3.2597455382347107e-01</leafValues></_>
        <_>
          <internalNodes>
            0 -1 47 -2.0395629690028727e-04</internalNodes>
          <leafValues>
            2.3186585307121277e-01 -9.6292138099670410e-01</leafValues></_></weakClassifiers></_>
    <!-- stage 2 -->
    <_>
      <maxWeakCount>12</maxWeakCount>
      <stageThreshold>-1.2385171651840210e+00</stageThreshold>
      <weakClassifiers>
        <_>
          <internalNodes>
            0 -1 4 1.8314879387617111e-02</internalNodes>
          <leafValues>
            -5.5746424198150635e-01 7.9137748479843140e-01</leafValues></_>
        <_>
          <internalNodes>
            0 -1 26 7.2892080061137676e-04</internalNodes>
          <leafValues>
            -7.6409703493118286e-01 5.7231914997100830e-01</leafValues></_>
        <_>
          <internalNodes>
            0 -1 105 6.3711946131661534e-04</internalNodes>
          <leafValues>
            -7.2636157274246216e-01 4.8877426981925964e-01</leafValues></_>
        <_>
          <internalNodes>
            0 -1 37 7.6129902154207230e-03</internalNodes>
          <leafValues>
            -5.8315980434417725e-01 5.9506082534790039e-01</leafValues></_>
        <_>
          <internalNodes>
            0 -1 33 -5.7564495364204049e-05</internalNodes>
          <leafValues>
            2.9956313967704773e-01 -8.7292760610580444e-01</leafValues></_>
        <_>
          <internalNodes>
            0 -1 64 -1.5689642168581486e-04</internalNodes>
          <leafValues>
            2.2467078268527985e-01 -9.4317346811294556e-01</leafValues></_>
        <_>
          <internalNodes>
            0 -1 81 -1.1394023022148758e-04</internalNodes>
          <leafValues>
            -9.3676322698593140e-01 2.1519479155540466e-01</leafValues></_>
        <_>
          <internalNodes>
            0 -1 3 -6.6701034083962440e-03</internalNodes>
          <leafValues>
            5.3961527347564697e-01 -4.9001148343086243e-01</leafValues></_>
        <_>
          <internalNodes>
            0 -1 74 -6.6933780908584595e-03</internalNodes>
          <leafValues>
            4.6744322776794434e-01 -5.2204668521881104e-01</leafValues></_>
        <_>
          <internalNodes>
            0 -1 95 1.0297146945958957e-04</internalNodes>
          <leafValues>
            2.9123324155807495e-01 -9.2258751392364502e-01</leafValues></_>
        <_>
          <internalNodes>
            0 -1 71 7.0972135290503502e-05</internalNodes>
          <leafValues>
            1.8476702272891998e-01 -9.9091726541519165e-01</leafValues></_>
        <_>
          <internalNodes>
            0 -1 50 -2.7293112361803651e-04</internalNodes>
          <leafValues>
            1.9397486746311188e-01 -8.2579135894775391e-01</leafValues></_></weakClassifiers></_>
    <!-- stage 3 -->
    <_>
      <maxWeakCount>14</maxWeakCount>
      <stageThreshold>-1.5702435970306396e+00</stageThreshold>
      <weakClassifiers>
        <_>
          <internalNodes>
            0 -1 88 7.9575963318347931e-03</internalNodes>
          <leafValues>
            -6.7060029506683350e-01 7.0596075057983398e-01</leafValues></_>
        <_>
          <internalNodes>
            0 -1 43 -2.7054018573835492e-04</internalNodes>
          <leafValues>
            4.6430942416191101e-01 -7.7768796682357788e-01</leafValues></_>
        <_>
          <internalNodes>
            0 -1 110 9.7127823391929269e-04</internalNodes>
          <leafValues>
            -6.1667287349700928e-01 4.7422841191291809e-01</leafValues></_>
        <_>
          <internalNodes>
            0 -1 1 4.5501571148633957e-03</internalNodes>
          <leafValues>
            -5.1720565557479858e-01 5.2420091629028320e-01</leafValues></_>
        <_>
          <internalNodes>
            0 -1 100 1.3254115765448660e-04</internalNodes>
          <leafValues>
            2.8150567412376404e-01 -8.5197108983993530e-01</leafValues></_>
        <_>
          <internalNodes>
            0 -1 38 9.2287518782541156e-05</internalNodes>
          <leafValues>
            -8.3574491739273071e-01 2.4337707459926605e-01</leafValues></_>
        <_>
          <internalNodes>
            0 -1 89 -2.0471555762924254e-04</internalNodes>
          <leafValues>
            -9.4925099611282349e-01 2.0788855850696564e-01</leafValues></_>
        <_>
          <internalNodes>
            0 -1 0 -1.3506054878234863e-02</internalNodes>
          <leafValues>
            4.1380634903907776e-01 -5.5398100614547729e-01</leafValues></_>
        <_>
          <internalNodes>
            0 -1 61 5.5697069910820574e-05</internalNodes>
          <leafValues>
            -7.7962821722030640e-01 3.0444273352622986e-01</leafValues></_>
        <_>
          <internalNodes>
            0 -1 86 3.3481442369520664e-04</internalNodes>
          <leafValues>
            1.6395896673202515e-01 -8.5450124740600586e-01</leafValues></_>
        <_>
          <internalNodes>
            0 -1 59 -2.0491809118539095e-03</internalNodes>
          <leafValues>
            3.5240721702575684e-01 -5.6321173906326294e-01</leafValues></_>
        <_>
          <internalNodes>
            0 -1 23 7.4645364657044411e-04</internalNodes>
          <leafValues>
            -5.1868748664855957e-01 3.9769747853279114e-01</leafValues></_>
        <_>
          <internalNodes>
            0 -1 41 9.7951033239951357e-06</internalNodes>
          <leafValues>
            -9.3798607587814331e-01 1.8556720018386841e-01</leafValues></_>
        <_>
          <internalNodes>
            0 -1 14 7.5688009383156896e-04</internalNodes>
          <leafValues>
            1.8256889283657074e-01 -9.2222201824188232e-01</leafValues></_></weakClassifiers></_>
    <!-- stage 4 -->
    <_>
      <maxWeakCount>17</maxWeakCount>
      <stageThreshold>-1.3318985700607300e+00</stageThreshold>
      <weakClassifiers>
        <_>
          <internalNodes>
            0 -1 106 7.3141360189765692e-04</internalNodes>
          <leafValues>
            -6.2285715341567993e-01 6.4036697149276733e-01</leafValues></_>
        <_>
          <internalNodes>
            0 -1 109 1.3480213237926364e-03</internalNodes>
          <leafValues>
            -5.0720262527465820e-01 6.2941753864288330e-01</leafValues></_>
        <_>
          <internalNodes>
            0 -1 6 8.7154482025653124e-04</internalNodes>
          <leafValues>
            -8.4739303588867188e-01 3.6638528108596802e-01</leafValues></_>
        <_>
          <internalNodes>
            0 -1 21 1.2528945226222277e-03</internalNodes>
          <leafValues>
            -7.4486148357391357e-01 3.0046954751014709e-01</leafValues></_>
        <_>
          <internalNodes>
            0 -1 16 -9.0317695867270231e-04</internalNodes>
          <leafValues>
            3.5680603981018066e-01 -6.0218036174774170e-01</leafValues></_>
        <_>
          <internalNodes>
            0 -1 27 1.7181050498038530e-04</internalNodes>
          <leafValues>
            2.2156436741352081e-01 -9.0662425756454468e-01</leafValues></_>
        <_>
          <internalNodes>
            0 -1 72 -9.0151187032461166e-04</internalNodes>
          <leafValues>
            3.1630754470825195e-01 -5.7231539487838745e-01</leafValues></_>
        <_>
          <internalNodes>
            0 -1 60 1.3567232526838779e-03</internalNodes>
          <leafValues>
            -5.1735758781433105e-01 3.8305589556694031e-01</leafValues></_>
        <_>
          <internalNodes>
            0 -1 28 -2.0922324620187283e-04</internalNodes>
          <leafValues>
            -8.7282431125640869e-01 1.7233754694461823e-01</leafValues></_>
        <_>
          <internalNodes>
            0 -1 11 -6.0235121054574847e-04</internalNodes>
          <leafValues>
            2.9291582107543945e-01 -5.9933626651763916e-01</leafValues></_>
        <_>
          <internalNodes>
            0 -1 24 -2.9156435630284250e-04</internalNodes>
          <leafValues>
            -8.7735354900360107e-01 1.9081912934780121e-01</leafValues></_>
        <_>
          <internalNodes>
            0 -1 82 2.3528779274784029e-04</internalNodes>
          <leafValues>
            1.2297300249338150e-01 -9.4382756948471069e-01</leafValues></_>
        <_>
          <internalNodes>
            0 -1 87 -7.6369731687009335e-05</internalNodes>
          <leafValues>
            -7.8040242195129395e-01 1.9069638848304749e-01</leafValues></_>
        <_>
          <internalNodes>
            0 -1 92 1.9449525279924273e-04</internalNodes>
          <leafValues>
            -6.7450863122940063e-01 1.7866930365562439e-01</leafValues></_>
        <_>
          <internalNodes>
            0 -1 78 -1.9104423699900508e-04</internalNodes>
          <leafValues>
            -7.2476404905319214e-01 1.9870468974113464e-01</leafValues></_>
        <_>
          <internalNodes>
            0 -1 94 -1.4139970880933106e-04</internalNodes>
          <leafValues>
            -7.7388340234756470e-01 1.7896009981632233e-01</leafValues></_>
        <_>
          <internalNodes>
            0 -1 83 6.3715456053614616e-04</internalNodes>
          <leafValues>
            1.2085036188364029e-01 -9.4335383176803589e-01</leafValues></_></weakClassifiers></_>
    <!-- stage 5 -->
    <_>
      <maxWeakCount>18</maxWeakCount>
      <stageThreshold>-1.2636297941207886e+00</stageThreshold>
      <weakClassifiers>
        <_>
          <internalNodes>
            0 -1 19 4.8042868729680777e-04</internalNodes>
          <leafValues>
            -5.8480471372604370e-01 6.5522414445877075e-01</leafValues></_>
        <_>
          <internalNodes>
            0 -1 112 -1.5880679711699486e-03</internalNodes>
          <leafValues>
            5.6817114353179932e-01 -5.4625356197357178e-01</leafValues></_>
        <_>
          <internalNodes>
            0 -1 9 4.0467074722982943e-04</internalNodes>
          <leafValues>
            -6.3448858261108398e-01 3.8120913505554199e-01</leafValues></_>
        <_>
          <internalNodes>
            0 -1 77 7.6709594577550888e-04</internalNodes>
          <leafValues>
            -6.5179330110549927e-01 3.0935534834861755e-01</leafValues></_>
        <_>
          <internalNodes>
            0 -1 58 1.9843666814267635e-03</internalNodes>
          <leafValues>
            -5.6865477561950684e-01 3.5118764638900757e-01</leafValues></_>
        <_>
          <internalNodes>
            0 -1 69 5.9459900512592867e-05</internalNodes>
          <leafValues>
            -7.3933959007263184e-01 2.0845198631286621e-01</leafValues></_>
        <_>
          <internalNodes>
            0 -1 18 -1.8285744590684772e-04</internalNodes>
          <leafValues>
            3.2832780480384827e-01 -4.9698868393898010e-01</leafValues></_>
        <_>
          <internalNodes>
            0 -1 53 -4.8644946218701079e-05</internalNodes>
          <leafValues>
            1.7715072631835938e-01 -9.1303652524948120e-01</leafValues></_>
        <_>
          <internalNodes>
            0 -1 13 -8.5879692051094025e-06</internalNodes>
          <leafValues>
            -6.6741853952407837e-01 1.9973738491535187e-01</leafValues></_>
        <_>
          <internalNodes>
            0 -1 97 -5.7185126934200525e-04</internalNodes>
          <leafValues>
            2.7557864785194397e-01 -6.1538082361221313e-01</leafValues></_>
        <_>
          <internalNodes>
            0 -1 93 -2.2710939811076969e-04</internalNodes>
          <leafValues>
            -6.3297146558761597e-01 2.5520995259284973e-01</leafValues></_>
        <_>
          <internalNodes>
            0 -1 93 3.1821426819078624e-04</internalNodes>
          <leafValues>
            1.8646579980850220e-01 -9.1262358427047729e-01</leafValues></_>
        <_>
          <internalNodes>
            0 -1 54 -6.7153172567486763e-03</internalNodes>
          <leafValues>
            -8.5030055046081543e-01 1.5296147763729095e-01</leafValues></_>
        <_>
          <internalNodes>
            0 -1 29 -1.7800255591282621e-05</internalNodes>
          <leafValues>
            -6.7527079582214355e-01 1.8432635068893433e-01</leafValues></_>
        <_>
          <internalNodes>
            0 -1 35 -2.0171017968095839e-04</internalNodes>
          <leafValues>
            3.3978939056396484e-01 -4.3049907684326172e-01</leafValues></_>
        <_>
          <internalNodes>
            0 -1 76 2.3482012329623103e-04</internalNodes>
          <leafValues>
            -4.6272629499435425e-01 3.3554103970527649e-01</leafValues></_>
        <_>
          <internalNodes>
            0 -1 40 2.6988296303898096e-04</internalNodes>
          <leafValues>
            1.6065871715545654e-01 -9.4859725236892700e-01</leafValues></_>
        <_>
          <internalNodes>
            0 -1 113 5.0086928531527519e-03</internalNodes>
          <leafValues>
            -3.1202656030654907e-01 4.7384351491928101e-01</leafValues></_></weakClassifiers></_>
    <!-- stage 6 -->
    <_>
      <maxWeakCount>20</maxWeakCount>
      <stageThreshold>-1.3425192832946777e+00</stageThreshold>
      <weakClassifiers>
        <_>
          <internalNodes>
            0 -1 25 1.1637757997959852e-03</internalNodes>
          <leafValues>
            -5.9854012727737427e-01 6.0907125473022461e-01</leafValues></_>
        <_>
          <internalNodes>
            0 -1 111 2.0391678845044225e-04</internalNodes>
          <leafValues>
            -5.7811009883880615e-01 4.4547516107559204e-01</leafValues></_>
        <_>
          <internalNodes>
            0 -1 8 6.1920089647173882e-03</internalNodes>
          <leafValues>
            -5.9152978658676147e-01 3.9486095309257507e-01</leafValues></_>
        <_>
          <internalNodes>
            0 -1 104 -2.1484177559614182e-03</internalNodes>
          <leafValues>
            4.3477982282638550e-01 -4.5345017313957214e-01</leafValues></_>
        <_>
          <internalNodes>
            0 -1 32 1.8565068603493273e-04</internalNodes>
          <leafValues>
            -7.3894792795181274e-01 2.4640412628650665e-01</leafValues></_>
        <_>
          <internalNodes>
            0 -1 98 5.1671107939910144e-05</internalNodes>
          <leafValues>
            2.0429815351963043e-01 -7.7750152349472046e-01</leafValues></_>
        <_>
          <internalNodes>
            0 -1 66 6.4769388700369745e-05</internalNodes>
          <leafValues>
            -5.7024997472763062e-01 2.5591272115707397e-01</leafValues></_>
        <_>
          <internalNodes>
            0 -1 80 -3.0103932658676058e-05</internalNodes>
          <leafValues>
            -8.9696890115737915e-01 1.6157327592372894e-01</leafValues></_>
        <_>
          <internalNodes>
            0 -1 70 5.6119042710633948e-05</internalNodes>
          <leafValues>
            2.1027728915214539e-01 -6.9227248430252075e-01</leafValues></_>
        <_>
          <internalNodes>
            0 -1 90 2.6229431387037039e-04</internalNodes>
          <leafValues>
            6.7384324967861176e-02 -9.4448411464691162e-01</leafValues></_>
        <_>
          <internalNodes>
            0 -1 36 1.3747706543654203e-04</internalNodes>
          <leafValues>
            -7.4827224016189575e-01 1.5440109372138977e-01</leafValues></_>
        <_>
          <internalNodes>
            0 -1 2 -2.9921885579824448e-03</internalNodes>
          <leafValues>
            3.3519673347473145e-01 -4.8891252279281616e-01</leafValues></_>
        <_>
          <internalNodes>
            0 -1 30 7.2579667903482914e-04</internalNodes>
          <leafValues>
            1.6003683209419250e-01 -9.8718744516372681e-01</leafValues></_>
        <_>
          <internalNodes>
            0 -1 15 8.9725162833929062e-03</internalNodes>
          <leafValues>
            -3.3357179164886475e-01 4.2078688740730286e-01</leafValues></_>
        <_>
          <internalNodes>
            0 -1 44 6.7134667187929153e-04</internalNodes>
          <leafValues>
            -5.7505601644515991e-01 2.3111514747142792e-01</leafValues></_>
        <_>
          <internalNodes>
            0 -1 75 -5.2463624160736799e-04</internalNodes>
          <leafValues>
            3.6602190136909485e-01 -3.6996403336524963e-01</leafValues></_>
        <_>
          <internalNodes>
            0 -1 96 -5.9138095821253955e-05</internalNodes>
          <leafValues>
            1.7844136059284210e-01 -8.8254797458648682e-01</leafValues></_>
        <_>
          <internalNodes>
            0 -1 68 3.7098239408805966e-04</internalNodes>
          <leafValues>
            -5.6344944238662720e-01 2.5346001982688904e-01</leafValues></_>
        <_>
          <internalNodes>
            0 -1 45 4.1129800956696272e-04</internalNodes>
          <leafValues>
            1.6761998832225800e-01 -7.8563755750656128e-01</leafValues></_>
        <_>
          <internalNodes>
            0 -1 102 2.3591559147462249e-04</internalNodes>
          <leafValues>
            -5.2442675828933716e-01 2.2065384685993195e-01</leafValues></_></weakClassifiers></_>
    <!-- stage 7 -->
    <_>
      <maxWeakCount>19</maxWeakCount>
      <stageThreshold>-1.1148457527160645e+00</stageThreshold>
      <weakClassifiers>
        <_>
          <internalNodes>
            0 -1 50 -1.2258340138942003e-03</internalNodes>
          <leafValues>
            6.0420894622802734e-01 -4.8962423205375671e-01</leafValues></_>
        <_>
          <internalNodes>
            0 -1 51 -4.7567271394655108e-04</internalNodes>
          <leafValues>
            3.7228587269783020e-01 -6.7871266603469849e-01</leafValues></_>
        <_>
          <internalNodes>
            0 -1 107 1.5893558156676590e-04</internalNodes>
          <leafValues>
            -7.7899277210235596e-01 3.3742120862007141e-01</leafValues></_>
        <_>
          <internalNodes>
            0 -1 5 9.5851969672366977e-04</internalNodes>
          <leafValues>
            -7.4534696340560913e-01 2.9977968335151672e-01</leafValues></_>
        <_>
          <internalNodes>
            0 -1 108 1.2532614637166262e-03</internalNodes>
          <leafValues>
            2.2214500606060028e-01 -7.6395922899246216e-01</leafValues></_>
        <_>
          <internalNodes>
            0 -1 62 3.5403636866249144e-04</internalNodes>
          <leafValues>
            -6.5535855293273926e-01 2.3447756469249725e-01</leafValues></_>
        <_>
          <internalNodes>
            0 -1 65 -1.8058140994980931e-04</internalNodes>
          <leafValues>
            1.5022172033786774e-01 -9.7527205944061279e-01</leafValues></_>
        <_>
          <internalNodes>
            0 -1 85 8.9251727331429720e-04</internalNodes>
          <leafValues>
            -4.4802400469779968e-01 4.1430801153182983e-01</leafValues></_>
        <_>
          <internalNodes>
            0 -1 31 -1.4719678438268602e-04</internalNodes>
          <leafValues>
            -6.0877442359924316e-01 2.8869584202766418e-01</leafValues></_>
        <_>
          <internalNodes>
            0 -1 67 5.2440678700804710e-05</internalNodes>
          <leafValues>
            -7.1419501304626465e-01 2.2104856371879578e-01</leafValues></_>
        <_>
          <internalNodes>
            0 -1 34 -1.3406778452917933e-04</internalNodes>
          <leafValues>
            1.6937395930290222e-01 -8.7581884860992432e-01</leafValues></_>
        <_>
          <internalNodes>
            0 -1 99 -2.3806227836757898e-03</internalNodes>
          <leafValues>
            2.9031291604042053e-01 -5.7221090793609619e-01</leafValues></_>
        <_>
          <internalNodes>
            0 -1 49 1.3693030923604965e-03</internalNodes>
          <leafValues>
            -6.2467026710510254e-01 2.8243926167488098e-01</leafValues></_>
        <_>
          <internalNodes>
            0 -1 12 -1.0297911940142512e-03</internalNodes>
          <leafValues>
            4.4026845693588257e-01 -3.8788890838623047e-01</leafValues></_>
        <_>
          <internalNodes>
            0 -1 46 6.8673078203573823e-05</internalNodes>
          <leafValues>
            -6.2290030717849731e-01 2.7863204479217529e-01</leafValues></_>
        <_>
          <internalNodes>
            0 -1 52 1.1365566751919687e-04</internalNodes>
          <leafValues>
            1.8984203040599823e-01 -7.5247240066528320e-01</leafValues></_>
        <_>
          <internalNodes>
            0 -1 79 1.1249550152570009e-03</internalNodes>
          <leafValues>
            1.9630917906761169e-01 -6.7081362009048462e-01</leafValues></_>
        <_>
          <internalNodes>
            0 -1 57 -2.5605610571801662e-03</internalNodes>
          <leafValues>
            3.0937454104423523e-01 -4.9290731549263000e-01</leafValues></_>
        <_>
          <internalNodes>
            0 -1 63 6.7985718487761915e-05</internalNodes>
          <leafValues>
            -5.6506478786468506e-01 2.7446216344833374e-01</leafValues></_></weakClassifiers></_></stages>
  <features>
    <_>
      <rects>
        <_>
          1 5 6 9 -1.</_>
        <_>
          3 5 2 9 3.</_></rects>
      <tilted>0</tilted></_>
    <_>
      <rects>
        <_>
          2 0 8 4 -1.</_>
        <_>
          2 0 4 2 2.</_>
        <_>
          6 2 4 2 2.</_></rects>
      <tilted>0</tilted></_>
    <_>
      <rects>
        <_>
          3 5 3 10 -1.</_>
        <_>
          4 5 1 10 3.</_></rects>
      <tilted>0</tilted></_>
    <_>
      <rects>
        <_>
          3 10 3 20 -1.</_>
        <_>
          4 10 1 20 3.</_></rects>
      <tilted>0</tilted></_>
    <_>
      <rects>
        <_>
          4 3 6 11 -1.</_>
        <_>
          6 3 2 11 3.</_></rects>
      <tilted>0</tilted></_>
    <_>
      <rects>
        <_>
          4 4 6 3 -1.</_>
        <_>
          6 4 2 3 3.</_></rects>
      <tilted>0</tilted></_>
    <_>
      <rects>
        <_>
          4 8 4 2 -1.</_>
        <_>
          6 8 2 2 2.</_></rects>
      <tilted>0</tilted></_>
    <_>
      <rects>
        <_>
          4 9 6 4 -1.</_>
        <_>
          6 9 2 4 3.</_></rects>
      <tilted>0</tilted></_>
    <_>
      <rects>
        <_>
          4 11 6 2 -1.</_>
        <_>
          6 11 2 2 3.</_></rects>
      <tilted>0</tilted></_>
    <_>
      <rects>
        <_>
          4 28 4 1 -1.</_>
        <_>
          6 28 2 1 2.</_></rects>
      <tilted>0</tilted></_>
    <_>
      <rects>
        <_>
          5 1 21 2 -1.</_>
        <_>
          5 2 21 1 2.</_></rects>
      <tilted>0</tilted></_>
    <_>
      <rects>
        <_>
          5 20 2 6 -1.</_>
        <_>
          5 22 2 2 3.</_></rects>
      <tilted>0</tilted></_>
    <_>
      <rects>
        <_>
          5 21 19 2 -1.</_>
        <_>
          5 22 19 1 2.</_></rects>
      <tilted>0</tilted></_>
    <_>
      <rects>
        <_>
          6 5 2 5 -1.</_>
        <_>
          7 5 1 5 2.</_></rects>
      <tilted>0</tilted></_>
    <_>
      <rects>
        <_>
          6 5 2 6 -1.</_>
        <_>
          6 7 2 2 3.</_></rects>
      <tilted>0</tilted></_>
    <_>
      <rects>
        <_>
          6 9 4 10 -1.</_>
        <_>
          6 9 2 5 2.</_>
        <_>
          8 14 2 5 2.</_></rects>
      <tilted>0</tilted></_>
    <_>
      <rects>
        <_>
          6 13 1 4 -1.</_>
        <_>
          6 15 1 2 2.</_></rects>
      <tilted>0</tilted></_>
    <_>
      <rects>
        <_>
          6 23 1 4 -1.</_>
        <_>
          6 25 1 2 2.</_></rects>
      <tilted>0</tilted></_>
    <_>
      <rects>
        <_>
          6 24 2 3 -1.</_>
        <_>
          7 24 1 3 2.</_></rects>
      <tilted>0</tilted></_>
    <_>
      <rects>
        <_>
          6 24 2 2 -1.</_>
        <_>
          6 25 2 1 2.</_></rects>
      <tilted>0</tilted></_>
    <_>
      <rects>
        <_>
          6 24 21 4 -1.</_>
        <_>
          6 26 21 2 2.</_></rects>
      <tilted>0</tilted></_>
    <_>
      <rects>
        <_>
          6 26 7 3 -1.</_>
        <_>
          6 27 7 1 3.</_></rects>
      <tilted>0</tilted></_>
    <_>
      <rects>
        <_>
          6 26 22 3 -1.</_>
        <_>
          6 27 22 1 3.</_></rects>
      <tilted>0</tilted></_>
    <_>
      <rects>
        <_>
          6 27 8 3 -1.</_>
        <_>
          6 28 8 1 3.</_></rects>
      <tilted>0</tilted></_>
    <_>
      <rects>
        <_>
          6 28 4 1 -1.</_>
        <_>
          8 28 2 1 2.</_></rects>
      <tilted>0</tilted></_>
    <_>
      <rects>
        <_>
          6 28 9 1 -1.</_>
        <_>
          9 28 3 1 3.</_></rects>
      <tilted>0</tilted></_>
    <_>
      <rects>
        <_>
          7 3 9 1 -1.</_>
        <_>
          10 3 3 1 3.</_></rects>
      <tilted>0</tilted></_>
    <_>
      <rects>
        <_>
          7 4 1 10 -1.</_>
        <_>
          7 9 1 5 2.</_></rects>
      <tilted>0</tilted></_>
    <_>
      <rects>
        <_>
          7 4 4 1 -1.</_>
        <_>
          9 4 2 1 2.</_></rects>
      <tilted>0</tilted></_>
    <_>
      <rects>
        <_>
          7 4 2 4 -1.</_>
        <_>
          7 6 2 2 2.</_></rects>
      <tilted>0</tilted></_>
    <_>
      <rects>
        <_>
          7 5 1 6 -1.</_>
        <_>
          7 7 1 2 3.</_></rects>
      <tilted>0</tilted></_>
    <_>
      <rects>
        <_>
          7 5 1 6 -1.</_>
        <_>
          7 8 1 3 2.</_></rects>
      <tilted>0</tilted></_>
    <_>
      <rects>
        <_>
          7 6 3 4 -1.</_>
        <_>
          8 6 1 4 3.</_></rects>
      <tilted>0</tilted></_>
    <_>
      <rects>
        <_>
          7 9 2 4 -1.</_>
        <_>
          7 9 1 2 2.</_>
        <_>
          8 11 1 2 2.</_></rects>
      <tilted>0</tilted></_>
    <_>
      <rects>
        <_>
          7 10 3 2 -1.</_>
        <_>
          7 11 3 1 2.</_></rects>
      <tilted>0</tilted></_>
    <_>
      <rects>
        <_>
          7 23 2 4 -1.</_>
        <_>
          7 23 1 2 2.</_>
        <_>
          8 25 1 2 2.</_></rects>
      <tilted>0</tilted></_>
    <_>
      <rects>
        <_>
          7 24 1 4 -1.</_>
        <_>
          7 26 1 2 2.</_></rects>
      <tilted>0</tilted></_>
    <_>
      <rects>
        <_>
          7 24 5 4 -1.</_>
        <_>
          7 26 5 2 2.</_></rects>
      <tilted>0</tilted></_>
    <_>
      <rects>
        <_>
          7 25 1 2 -1.</_>
        <_>
          7 26 1 1 2.</_></rects>
      <tilted>0</tilted></_>
    <_>
      <rects>
        <_>
          7 27 18 3 -1.</_>
        <_>
          13 27 6 3 3.</_></rects>
      <tilted>0</tilted></_>
    <_>
      <rects>
        <_>
          8 4 1 4 -1.</_>
        <_>
          8 6 1 2 2.</_></rects>
      <tilted>0</tilted></_>
    <_>
      <rects>
        <_>
          8 5 2 6 -1.</_>
        <_>
          8 7 2 2 3.</_></rects>
      <tilted>0</tilted></_>
    <_>
      <rects>
        <_>
          8 6 4 4 -1.</_>
        <_>
          10 6 2 4 2.</_></rects>
      <tilted>0</tilted></_>
    <_>
      <rects>
        <_>
          8 11 2 1 -1.</_>
        <_>
          9 11 1 1 2.</_></rects>
      <tilted>0</tilted></_>
    <_>
      <rects>
        <_>
          8 26 4 3 -1.</_>
        <_>
          8 27 4 1 3.</_></rects>
      <tilted>0</tilted></_>
    <_>
      <rects>
        <_>
          8 27 3 2 -1.</_>
        <_>
          9 27 1 2 3.</_></rects>
      <tilted>0</tilted></_>
    <_>
      <rects>
        <_>
          9 2 2 3 -1.</_>
        <_>
          9 3 2 1 3.</_></rects>
      <tilted>0</tilted></_>
    <_>
      <rects>
        <_>
          9 4 4 3 -1.</_>
        <_>
          11 4 2 3 2.</_></rects>
      <tilted>0</tilted></_>
    <_>
      <rects>
        <_>
          9 8 1 4 -1.</_>
        <_>
          9 10 1 2 2.</_></rects>
      <tilted>0</tilted></_>
    <_>
      <rects>
        <_>
          9 26 13 3 -1.</_>
        <_>
          9 27 13 1 3.</_></rects>
      <tilted>0</tilted></_>
    <_>
      <rects>
        <_>
          9 28 6 1 -1.</_>
        <_>
          12 28 3 1 2.</_></rects>
      <tilted>0</tilted></_>
    <_>
      <rects>
        <_>
          10 6 1 4 -1.</_>
        <_>
          10 8 1 2 2.</_></rects>
      <tilted>0</tilted></_>
    <_>
      <rects>
        <_>
          10 27 2 2 -1.</_>
        <_>
          10 27 1 1 2.</_>
        <_>
          11 28 1 1 2.</_></rects>
      <tilted>0</tilted></_>
    <_>
      <rects>
        <_>
          11 4 1 4 -1.</_>
        <_>
          11 6 1 2 2.</_></rects>
      <tilted>0</tilted></_>
    <_>
      <rects>
        <_>
          14 25 12 2 -1.</_>
        <_>
          18 25 4 2 3.</_></rects>
      <tilted>0</tilted></_>
    <_>
      <rects>
        <_>
          15 3 6 6 -1.</_>
        <_>
          15 3 3 3 2.</_>
        <_>
          18 6 3 3 2.</_></rects>
      <tilted>0</tilted></_>
    <_>
      <rects>
        <_>
          15 27 15 2 -1.</_>
        <_>
          20 27 5 2 3.</_></rects>
      <tilted>0</tilted></_>
    <_>
      <rects>
        <_>
          16 6 6 2 -1.</_>
        <_>
          18 6 2 2 3.</_></rects>
      <tilted>0</tilted></_>
    <_>
      <rects>
        <_>
          18 1 7 2 -1.</_>
        <_>
          18 2 7 1 2.</_></rects>
      <tilted>0</tilted></_>
    <_>
      <rects>
        <_>
          18 7 4 4 -1.</_>
        <_>
          18 7 2 2 2.</_>
        <_>
          20 9 2 2 2.</_></rects>
      <tilted>0</tilted></_>
    <_>
      <rects>
        <_>
          18 25 4 4 -1.</_>
        <_>
          18 25 2 2 2.</_>
        <_>
          20 27 2 2 2.</_></rects>
      <tilted>0</tilted></_>
    <_>
      <rects>
        <_>
          18 26 6 2 -1.</_>
        <_>
          18 26 3 1 2.</_>
        <_>
          21 27 3 1 2.</_></rects>
      <tilted>0</tilted></_>
    <_>
      <rects>
        <_>
          18 28 6 1 -1.</_>
        <_>
          20 28 2 1 3.</_></rects>
      <tilted>0</tilted></_>
    <_>
      <rects>
        <_>
          19 2 2 2 -1.</_>
        <_>
          19 3 2 1 2.</_></rects>
      <tilted>0</tilted></_>
    <_>
      <rects>
        <_>
          19 4 2 4 -1.</_>
        <_>
          19 6 2 2 2.</_></rects>
      <tilted>0</tilted></_>
    <_>
      <rects>
        <_>
          19 4 5 4 -1.</_>
        <_>
          19 6 5 2 2.</_></rects>
      <tilted>0</tilted></_>
    <_>
      <rects>
        <_>
          19 26 2 2 -1.</_>
        <_>
          19 26 1 1 2.</_>
        <_>
          20 27 1 1 2.</_></rects>
      <tilted>0</tilted></_>
    <_>
      <rects>
        <_>
          19 26 4 2 -1.</_>
        <_>
          19 26 2 1 2.</_>
        <_>
          21 27 2 1 2.</_></rects>
      <tilted>0</tilted></_>
    <_>
      <rects>
        <_>
          19 27 9 3 -1.</_>
        <_>
          19 28 9 1 3.</_></rects>
      <tilted>0</tilted></_>
    <_>
      <rects>
        <_>
          19 28 6 1 -1.</_>
        <_>
          21 28 2 1 3.</_></rects>
      <tilted>0</tilted></_>
    <_>
      <rects>
        <_>
          20 4 6 1 -1.</_>
        <_>
          23 4 3 1 2.</_></rects>
      <tilted>0</tilted></_>
    <_>
      <rects>
        <_>
          20 5 4 2 -1.</_>
        <_>
          20 6 4 1 2.</_></rects>
      <tilted>0</tilted></_>
    <_>
      <rects>
        <_>
          20 8 2 4 -1.</_>
        <_>
          20 8 1 2 2.</_>
        <_>
          21 10 1 2 2.</_></rects>
      <tilted>0</tilted></_>
    <_>
      <rects>
        <_>
          20 9 4 4 -1.</_>
        <_>
          20 9 2 2 2.</_>
        <_>
          22 11 2 2 2.</_></rects>
      <tilted>0</tilted></_>
    <_>
      <rects>
        <_>
          20 22 6 6 -1.</_>
        <_>
          20 24 6 2 3.</_></rects>
      <tilted>0</tilted></_>
    <_>
      <rects>
        <_>
          20 24 2 3 -1.</_>
        <_>
          20 25 2 1 3.</_></rects>
      <tilted>0</tilted></_>
    <_>
      <rects>
        <_>
          20 25 1 3 -1.</_>
        <_>
          20 26 1 1 3.</_></rects>
      <tilted>0</tilted></_>
    <_>
      <rects>
        <_>
          20 26 4 3 -1.</_>
        <_>
          20 27 4 1 3.</_></rects>
      <tilted>0</tilted></_>
    <_>
      <rects>
        <_>
          20 27 4 2 -1.</_>
        <_>
          20 27 2 1 2.</_>
        <_>
          22 28 2 1 2.</_></rects>
      <tilted>0</tilted></_>
    <_>
      <rects>
        <_>
          21 1 1 3 -1.</_>
        <_>
          21 2 1 1 3.</_></rects>
      <tilted>0</tilted></_>
    <_>
      <rects>
        <_>
          21 3 4 7 -1.</_>
        <_>
          23 3 2 7 2.</_></rects>
      <tilted>0</tilted></_>
    <_>
      <rects>
        <_>
          21 4 1 6 -1.</_>
        <_>
          21 6 1 2 3.</_></rects>
      <tilted>0</tilted></_>
    <_>
      <rects>
        <_>
          21 4 4 2 -1.</_>
        <_>
          23 4 2 2 2.</_></rects>
      <tilted>0</tilted></_>
    <_>
      <rects>
        <_>
          21 4 4 6 -1.</_>
        <_>
          21 7 4 3 2.</_></rects>
      <tilted>0</tilted></_>
    <_>
      <rects>
        <_>
          21 10 4 6 -1.</_>
        <_>
          21 10 2 3 2.</_>
        <_>
          23 13 2 3 2.</_></rects>
      <tilted>0</tilted></_>
    <_>
      <rects>
        <_>
          21 25 5 3 -1.</_>
        <_>
          21 26 5 1 3.</_></rects>
      <tilted>0</tilted></_>
    <_>
      <rects>
        <_>
          21 27 4 1 -1.</_>
        <_>
          23 27 2 1 2.</_></rects>
      <tilted>0</tilted></_>
    <_>
      <rects>
        <_>
          22 4 2 5 -1.</_>
        <_>
          23 4 1 5 2.</_></rects>
      <tilted>0</tilted></_>
    <_>
      <rects>
        <_>
          22 5 6 8 -1.</_>
        <_>
          24 5 2 8 3.</_></rects>
      <tilted>0</tilted></_>
    <_>
      <rects>
        <_>
          22 5 3 2 -1.</_>
        <_>
          22 6 3 1 2.</_></rects>
      <tilted>0</tilted></_>
    <_>
      <rects>
        <_>
          22 5 3 3 -1.</_>
        <_>
          22 6 3 1 3.</_></rects>
      <tilted>0</tilted></_>
    <_>
      <rects>
        <_>
          22 8 4 4 -1.</_>
        <_>
          22 8 2 2 2.</_>
        <_>
          24 10 2 2 2.</_></rects>
      <tilted>0</tilted></_>
    <_>
      <rects>
        <_>
          22 26 3 3 -1.</_>
        <_>
          22 27 3 1 3.</_></rects>
      <tilted>0</tilted></_>
    <_>
      <rects>
        <_>
          23 4 2 6 -1.</_>
        <_>
          23 7 2 3 2.</_></rects>
      <tilted>0</tilted></_>
    <_>
      <rects>
        <_>
          23 5 2 4 -1.</_>
        <_>
          23 7 2 2 2.</_></rects>
      <tilted>0</tilted></_>
    <_>
      <rects>
        <_>
          23 7 4 1 -1.</_>
        <_>
          25 7 2 1 2.</_></rects>
      <tilted>0</tilted></_>
    <_>
      <rects>
        <_>
          23 11 3 2 -1.</_>
        <_>
          23 12 3 1 2.</_></rects>
      <tilted>0</tilted></_>
    <_>
      <rects>
        <_>
          23 12 2 4 -1.</_>
        <_>
          23 12 1 2 2.</_>
        <_>
          24 14 1 2 2.</_></rects>
      <tilted>0</tilted></_>
    <_>
      <rects>
        <_>
          23 28 4 1 -1.</_>
        <_>
          25 28 2 1 2.</_></rects>
      <tilted>0</tilted></_>
    <_>
      <rects>
        <_>
          24 0 6 6 -1.</_>
        <_>
          24 0 3 3 2.</_>
        <_>
          27 3 3 3 2.</_></rects>
      <tilted>0</tilted></_>
    <_>
      <rects>
        <_>
          24 4 1 6 -1.</_>
        <_>
          24 6 1 2 3.</_></rects>
      <tilted>0</tilted></_>
    <_>
      <rects>
        <_>
          24 4 1 10 -1.</_>
        <_>
          24 9 1 5 2.</_></rects>
      <tilted>0</tilted></_>
    <_>
      <rects>
        <_>
          24 4 3 6 -1.</_>
        <_>
          25 4 1 6 3.</_></rects>
      <tilted>0</tilted></_>
    <_>
      <rects>
        <_>
          24 4 2 8 -1.</_>
        <_>
          24 8 2 4 2.</_></rects>
      <tilted>0</tilted></_>
    <_>
      <rects>
        <_>
          24 12 2 8 -1.</_>
        <_>
          24 12 1 4 2.</_>
        <_>
          25 16 1 4 2.</_></rects>
      <tilted>0</tilted></_>
    <_>
      <rects>
        <_>
          24 13 2 2 -1.</_>
        <_>
          25 13 1 2 2.</_></rects>
      <tilted>0</tilted></_>
    <_>
      <rects>
        <_>
          24 24 1 4 -1.</_>
        <_>
          24 26 1 2 2.</_></rects>
      <tilted>0</tilted></_>
    <_>
      <rects>
        <_>
          24 25 3 2 -1.</_>
        <_>
          24 26 3 1 2.</_></rects>
      <tilted>0</tilted></_>
    <_>
      <rects>
        <_>
          25 4 2 9 -1.</_>
        <_>
          25 7 2 3 3.</_></rects>
      <tilted>0</tilted></_>
    <_>
      <rects>
        <_>
          25 14 3 2 -1.</_>
        <_>
          26 14 1 2 3.</_></rects>
      <tilted>0</tilted></_>
    <_>
      <rects>
        <_>
          25 23 1 4 -1.</_>
        <_>
          25 25 1 2 2.</_></rects>
      <tilted>0</tilted></_>
    <_>
      <rects>
        <_>
          25 24 1 2 -1.</_>
        <_>
          25 25 1 1 2.</_></rects>
      <tilted>0</tilted></_>
    <_>
      <rects>
        <_>
          26 11 2 4 -1.</_>
        <_>
          27 11 1 4 2.</_></rects>
      <tilted>0</tilted></_>
    <_>
      <rects>
        <_>
          28 2 2 17 -1.</_>
        <_>
          29 2 1 17 2.</_></rects>
      <tilted>0</tilted></_></features></cascade>
</opencv_storage>
