<?xml version="1.0"?>
<opencv_storage>
<cascade>
  <stageType>BOOST</stageType>
  <featureType>HAAR</featureType>
  <height>30</height>
  <width>30</width>
  <stageParams>
    <boostType>GAB</boostType>
    <minHitRate>9.9900001287460327e-01</minHitRate>
    <maxFalseAlarm>2.0000000298023224e-01</maxFalseAlarm>
    <weightTrimRate>9.4999999999999996e-01</weightTrimRate>
    <maxDepth>1</maxDepth>
    <maxWeakCount>100</maxWeakCount></stageParams>
  <featureParams>
    <maxCatCount>0</maxCatCount>
    <featSize>1</featSize>
    <mode>BASIC</mode></featureParams>
  <stageNum>8</stageNum>
  <stages>
    <!-- stage 0 -->
    <_>
      <maxWeakCount>5</maxWeakCount>
      <stageThreshold>-1.0974514484405518e+00</stageThreshold>
      <weakClassifiers>
        <_>
          <internalNodes>
            0 -1 32 -2.6303640333935618e-04</internalNodes>
          <leafValues>
            7.8234630823135376e-01 -9.2096942663192749e-01</leafValues></_>
        <_>
          <internalNodes>
            0 -1 7 1.3811578974127769e-02</internalNodes>
          <leafValues>
            -7.8224623203277588e-01 7.3505413532257080e-01</leafValues></_>
        <_>
          <internalNodes>
            0 -1 33 -1.3557798229157925e-03</internalNodes>
          <leafValues>
            6.1040776968002319e-01 -8.9987409114837646e-01</leafValues></_>
        <_>
          <internalNodes>
            0 -1 19 -3.0330877052620053e-04</internalNodes>
          <leafValues>
            4.7417968511581421e-01 -9.6222192049026489e-01</leafValues></_>
        <_>
          <internalNodes>
            0 -1 56 -6.6579114645719528e-03</internalNodes>
          <leafValues>
            7.6454448699951172e-01 -6.5872830152511597e-01</leafValues></_></weakClassifiers></_>
    <!-- stage 1 -->
    <_>
      <maxWeakCount>8</maxWeakCount>
      <stageThreshold>-1.3758534193038940e+00</stageThreshold>
      <weakClassifiers>
        <_>
          <internalNodes>
            0 -1 45 1.8316409550607204e-03</internalNodes>
          <leafValues>
            -9.3568336963653564e-01 7.0087766647338867e-01</leafValues></_>
        <_>
          <internalNodes>
            0 -1 6 6.2996381893754005e-03</internalNodes>
          <leafValues>
            -8.1284582614898682e-01 6.0913717746734619e-01</leafValues></_>
        <_>
          <internalNodes>
            0 -1 3 2.8070206753909588e-03</internalNodes>
          <leafValues>
            -8.2652878761291504e-01 4.5255577564239502e-01</leafValues></_>
        <_>
          <internalNodes>
            0 -1 23 -2.2889205138199031e-04</internalNodes>
          <leafValues>
            3.2514029741287231e-01 -9.6639239788055420e-01</leafValues></_>
        <_>
          <internalNodes>
            0 -1 41 -2.7851616032421589e-03</internalNodes>
          <leafValues>
            5.8135616779327393e-01 -6.2985146045684814e-01</leafValues></_>
        <_>
          <internalNodes>
            0 -1 46 3.4783856244757771e-04</internalNodes>
          <leafValues>
            3.3615094423294067e-01 -9.5765501260757446e-01</leafValues></_>
        <_>
          <internalNodes>
            0 -1 18 -3.1845716875977814e-04</internalNodes>
          <leafValues>
            2.4404084682464600e-01 -9.9816697835922241e-01</leafValues></_>
        <_>
          <internalNodes>
            0 -1 34 -1.2725269421935081e-02</internalNodes>
          <leafValues>
            4.3601876497268677e-01 -7.1283704042434692e-01</leafValues></_></weakClassifiers></_>
    <!-- stage 2 -->
    <_>
      <maxWeakCount>8</maxWeakCount>
      <stageThreshold>-6.3594919443130493e-01</stageThreshold>
      <weakClassifiers>
        <_>
          <internalNodes>
            0 -1 65 1.3285132590681314e-03</internalNodes>
          <leafValues>
            -7.1352499723434448e-01 7.0274335145950317e-01</leafValues></_>
        <_>
          <internalNodes>
            0 -1 5 -2.7880407287739217e-04</internalNodes>
          <leafValues>
            4.6044752001762390e-01 -8.9163756370544434e-01</leafValues></_>
        <_>
          <internalNodes>
            0 -1 31 -1.5152036212384701e-04</internalNodes>
          <leafValues>
            3.8585591316223145e-01 -8.9449405670166016e-01</leafValues></_>
        <_>
          <internalNodes>
            0 -1 53 3.9998125284910202e-03</internalNodes>
          <leafValues>
            -5.7218456268310547e-01 6.0207974910736084e-01</leafValues></_>
        <_>
          <internalNodes>
            0 -1 58 5.5377986427629367e-05</internalNodes>
          <leafValues>
            3.1382656097412109e-01 -9.7026032209396362e-01</leafValues></_>
        <_>
          <internalNodes>
            0 -1 61 -3.6031164927408099e-04</internalNodes>
          <leafValues>
            -9.7655266523361206e-01 3.0220052599906921e-01</leafValues></_>
        <_>
          <internalNodes>
            0 -1 61 3.2439618371427059e-04</internalNodes>
          <leafValues>
            2.5669348239898682e-01 -9.4645398855209351e-01</leafValues></_>
        <_>
          <internalNodes>
            0 -1 13 -1.5556393191218376e-04</internalNodes>
          <leafValues>
            -9.3604236841201782e-01 2.8282150626182556e-01</leafValues></_></weakClassifiers></_>
    <!-- stage 3 -->
    <_>
      <maxWeakCount>10</maxWeakCount>
      <stageThreshold>-9.7504174709320068e-01</stageThreshold>
      <weakClassifiers>
        <_>
          <internalNodes>
            0 -1 11 -4.3719493987737224e-05</internalNodes>
          <leafValues>
            6.4349931478500366e-01 -9.3361580371856689e-01</leafValues></_>
        <_>
          <internalNodes>
            0 -1 55 4.5818155631422997e-03</internalNodes>
          <leafValues>
            -7.0922547578811646e-01 5.2178585529327393e-01</leafValues></_>
        <_>
          <internalNodes>
            0 -1 10 -1.2493501417338848e-03</internalNodes>
          <leafValues>
            -9.6569722890853882e-01 3.6805933713912964e-01</leafValues></_>
        <_>
          <internalNodes>
            0 -1 17 3.1129100534599274e-05</internalNodes>
          <leafValues>
            2.2853000462055206e-01 -9.6193069219589233e-01</leafValues></_>
        <_>
          <internalNodes>
            0 -1 42 -1.0339155793190002e-02</internalNodes>
          <leafValues>
            5.2893841266632080e-01 -6.0570865869522095e-01</leafValues></_>
        <_>
          <internalNodes>
            0 -1 37 3.2451952574774623e-04</internalNodes>
          <leafValues>
            -7.5282913446426392e-01 4.1125562787055969e-01</leafValues></_>
        <_>
          <internalNodes>
            0 -1 27 -1.4836559421382844e-04</internalNodes>
          <leafValues>
            2.8778484463691711e-01 -9.6011304855346680e-01</leafValues></_>
        <_>
          <internalNodes>
            0 -1 20 2.6020524092018604e-04</internalNodes>
          <leafValues>
            -8.6041504144668579e-01 2.7418360114097595e-01</leafValues></_>
        <_>
          <internalNodes>
            0 -1 39 -9.1681890189647675e-03</internalNodes>
          <leafValues>
            4.9767762422561646e-01 -5.7837182283401489e-01</leafValues></_>
        <_>
          <internalNodes>
            0 -1 38 -1.5408906619995832e-04</internalNodes>
          <leafValues>
            -9.1736662387847900e-01 3.1150436401367188e-01</leafValues></_></weakClassifiers></_>
    <!-- stage 4 -->
    <_>
      <maxWeakCount>9</maxWeakCount>
      <stageThreshold>-9.1446840763092041e-01</stageThreshold>
      <weakClassifiers>
        <_>
          <internalNodes>
            0 -1 17 -5.4740661289542913e-04</internalNodes>
          <leafValues>
            -9.3708610534667969e-01 5.8945262432098389e-01</leafValues></_>
        <_>
          <internalNodes>
            0 -1 1 8.5482634603977203e-03</internalNodes>
          <leafValues>
            -4.7092896699905396e-01 7.2581911087036133e-01</leafValues></_>
        <_>
          <internalNodes>
            0 -1 28 -2.8816950361942872e-05</internalNodes>
          <leafValues>
            4.2550373077392578e-01 -8.6866909265518188e-01</leafValues></_>
        <_>
          <internalNodes>
            0 -1 49 -8.6431344971060753e-04</internalNodes>
          <leafValues>
            4.7642707824707031e-01 -6.1731791496276855e-01</leafValues></_>
        <_>
          <internalNodes>
            0 -1 35 -9.4531642389483750e-05</internalNodes>
          <leafValues>
            3.3248478174209595e-01 -8.6992388963699341e-01</leafValues></_>
        <_>
          <internalNodes>
            0 -1 15 -2.9724958585575223e-04</internalNodes>
          <leafValues>
            2.9579919576644897e-01 -8.2004821300506592e-01</leafValues></_>
        <_>
          <internalNodes>
            0 -1 57 -5.3468596888706088e-04</internalNodes>
          <leafValues>
            -9.3059301376342773e-01 2.6510727405548096e-01</leafValues></_>
        <_>
          <internalNodes>
            0 -1 57 3.2075040508061647e-04</internalNodes>
          <leafValues>
            2.3431371152400970e-01 -9.5377057790756226e-01</leafValues></_>
        <_>
          <internalNodes>
            0 -1 24 -8.5685627709608525e-05</internalNodes>
          <leafValues>
            2.3615343868732452e-01 -8.5303544998168945e-01</leafValues></_></weakClassifiers></_>
    <!-- stage 5 -->
    <_>
      <maxWeakCount>10</maxWeakCount>
      <stageThreshold>-6.6415780782699585e-01</stageThreshold>
      <weakClassifiers>
        <_>
          <internalNodes>
            0 -1 62 3.9438623934984207e-04</internalNodes>
          <leafValues>
            -7.1101206541061401e-01 6.2480014562606812e-01</leafValues></_>
        <_>
          <internalNodes>
            0 -1 25 1.2725961278192699e-04</internalNodes>
          <leafValues>
            -7.7680188417434692e-01 4.2329832911491394e-01</leafValues></_>
        <_>
          <internalNodes>
            0 -1 54 -1.2078653089702129e-03</internalNodes>
          <leafValues>
            -9.3428385257720947e-01 3.2450589537620544e-01</leafValues></_>
        <_>
          <internalNodes>
            0 -1 43 1.7507527081761509e-04</internalNodes>
          <leafValues>
            -8.0447351932525635e-01 3.1102532148361206e-01</leafValues></_>
        <_>
          <internalNodes>
            0 -1 63 2.0923631382174790e-04</internalNodes>
          <leafValues>
            2.7401360869407654e-01 -9.2995548248291016e-01</leafValues></_>
        <_>
          <internalNodes>
            0 -1 2 2.8202394023537636e-03</internalNodes>
          <leafValues>
            -4.7009691596031189e-01 6.8568301200866699e-01</leafValues></_>
        <_>
          <internalNodes>
            0 -1 36 3.5838663578033447e-02</internalNodes>
          <leafValues>
            -4.5979073643684387e-01 6.6539704799652100e-01</leafValues></_>
        <_>
          <internalNodes>
            0 -1 60 1.2731424067169428e-04</internalNodes>
          <leafValues>
            -8.3582884073257446e-01 3.7472698092460632e-01</leafValues></_>
        <_>
          <internalNodes>
            0 -1 52 3.8076220080256462e-03</internalNodes>
          <leafValues>
            2.6860204339027405e-01 -9.6309739351272583e-01</leafValues></_>
        <_>
          <internalNodes>
            0 -1 14 3.6676130548585206e-05</internalNodes>
          <leafValues>
            2.1112555265426636e-01 -9.6546661853790283e-01</leafValues></_></weakClassifiers></_>
    <!-- stage 6 -->
    <_>
      <maxWeakCount>9</maxWeakCount>
      <stageThreshold>-1.1522479057312012e+00</stageThreshold>
      <weakClassifiers>
        <_>
          <internalNodes>
            0 -1 26 -9.3540747184306383e-04</internalNodes>
          <leafValues>
            -8.6118596792221069e-01 6.4345693588256836e-01</leafValues></_>
        <_>
          <internalNodes>
            0 -1 16 -3.3098251151386648e-05</internalNodes>
          <leafValues>
            3.6882084608078003e-01 -9.0362614393234253e-01</leafValues></_>
        <_>
          <internalNodes>
            0 -1 48 1.7438165377825499e-03</internalNodes>
          <leafValues>
            -5.3514510393142700e-01 6.2684917449951172e-01</leafValues></_>
        <_>
          <internalNodes>
            0 -1 8 1.1631366796791553e-03</internalNodes>
          <leafValues>
            -7.7172058820724487e-01 3.7486848235130310e-01</leafValues></_>
        <_>
          <internalNodes>
            0 -1 30 1.3436737935990095e-04</internalNodes>
          <leafValues>
            -7.5946170091629028e-01 3.0696281790733337e-01</leafValues></_>
        <_>
          <internalNodes>
            0 -1 47 -8.9223938994109631e-04</internalNodes>
          <leafValues>
            -9.2844301462173462e-01 2.4265775084495544e-01</leafValues></_>
        <_>
          <internalNodes>
            0 -1 22 1.2894850806333125e-04</internalNodes>
          <leafValues>
            2.0377828180789948e-01 -9.2552858591079712e-01</leafValues></_>
        <_>
          <internalNodes>
            0 -1 59 -1.1048570740967989e-04</internalNodes>
          <leafValues>
            -9.2538642883300781e-01 2.2934919595718384e-01</leafValues></_>
        <_>
          <internalNodes>
            0 -1 44 2.2313458612188697e-04</internalNodes>
          <leafValues>
            -7.0122498273849487e-01 3.5532334446907043e-01</leafValues></_></weakClassifiers></_>
    <!-- stage 7 -->
    <_>
      <maxWeakCount>12</maxWeakCount>
      <stageThreshold>-9.3569511175155640e-01</stageThreshold>
      <weakClassifiers>
        <_>
          <internalNodes>
            0 -1 9 1.4157344121485949e-03</internalNodes>
          <leafValues>
            -7.3979592323303223e-01 6.3210225105285645e-01</leafValues></_>
        <_>
          <internalNodes>
            0 -1 67 2.2749759955331683e-04</internalNodes>
          <leafValues>
            -5.9226131439208984e-01 6.0055309534072876e-01</leafValues></_>
        <_>
          <internalNodes>
            0 -1 4 4.3044965423177928e-05</internalNodes>
          <leafValues>
            3.6213290691375732e-01 -8.6603558063507080e-01</leafValues></_>
        <_>
          <internalNodes>
            0 -1 64 3.6096324038226157e-05</internalNodes>
          <leafValues>
            3.2494357228279114e-01 -8.5977256298065186e-01</leafValues></_>
        <_>
          <internalNodes>
            0 -1 21 1.3136753113940358e-04</internalNodes>
          <leafValues>
            2.8409531712532043e-01 -9.4076728820800781e-01</leafValues></_>
        <_>
          <internalNodes>
            0 -1 40 -8.9202285744249821e-04</internalNodes>
          <leafValues>
            4.0530657768249512e-01 -6.9829189777374268e-01</leafValues></_>
        <_>
          <internalNodes>
            0 -1 0 4.2985230684280396e-03</internalNodes>
          <leafValues>
            -4.7644448280334473e-01 6.1423563957214355e-01</leafValues></_>
        <_>
          <internalNodes>
            0 -1 51 -1.4872438623569906e-04</internalNodes>
          <leafValues>
            -9.1524082422256470e-01 3.0209392309188843e-01</leafValues></_>
        <_>
          <internalNodes>
            0 -1 50 1.0798301082104445e-03</internalNodes>
          <leafValues>
            2.9939836263656616e-01 -8.7755322456359863e-01</leafValues></_>
        <_>
          <internalNodes>
            0 -1 29 4.2021004483103752e-03</internalNodes>
          <leafValues>
            -4.9077865481376648e-01 6.1986172199249268e-01</leafValues></_>
        <_>
          <internalNodes>
            0 -1 12 -3.6385295970831066e-05</internalNodes>
          <leafValues>
            3.1438365578651428e-01 -8.9388346672058105e-01</leafValues></_>
        <_>
          <internalNodes>
            0 -1 66 -2.2369800135493279e-03</internalNodes>
          <leafValues>
            -9.0858292579650879e-01 2.5911712646484375e-01</leafValues></_></weakClassifiers></_></stages>
  <features>
    <_>
      <rects>
        <_>
          1 0 6 6 -1.</_>
        <_>
          1 0 3 3 2.</_>
        <_>
          4 3 3 3 2.</_></rects>
      <tilted>0</tilted></_>
    <_>
      <rects>
        <_>
          2 3 2 25 -1.</_>
        <_>
          3 3 1 25 2.</_></rects>
      <tilted>0</tilted></_>
    <_>
      <rects>
        <_>
          4 1 7 2 -1.</_>
        <_>
          4 2 7 1 2.</_></rects>
      <tilted>0</tilted></_>
    <_>
      <rects>
        <_>
          4 7 6 6 -1.</_>
        <_>
          4 9 6 2 3.</_></rects>
      <tilted>0</tilted></_>
    <_>
      <rects>
        <_>
          4 10 4 2 -1.</_>
        <_>
          4 10 2 1 2.</_>
        <_>
          6 11 2 1 2.</_></rects>
      <tilted>0</tilted></_>
    <_>
      <rects>
        <_>
          4 11 2 2 -1.</_>
        <_>
          4 12 2 1 2.</_></rects>
      <tilted>0</tilted></_>
    <_>
      <rects>
        <_>
          4 22 8 6 -1.</_>
        <_>
          4 24 8 2 3.</_></rects>
      <tilted>0</tilted></_>
    <_>
      <rects>
        <_>
          4 22 23 4 -1.</_>
        <_>
          4 24 23 2 2.</_></rects>
      <tilted>0</tilted></_>
    <_>
      <rects>
        <_>
          4 28 9 1 -1.</_>
        <_>
          7 28 3 1 3.</_></rects>
      <tilted>0</tilted></_>
    <_>
      <rects>
        <_>
          5 4 6 4 -1.</_>
        <_>
          7 4 2 4 3.</_></rects>
      <tilted>0</tilted></_>
    <_>
      <rects>
        <_>
          5 4 3 6 -1.</_>
        <_>
          5 7 3 3 2.</_></rects>
      <tilted>0</tilted></_>
    <_>
      <rects>
        <_>
          5 5 2 6 -1.</_>
        <_>
          5 8 2 3 2.</_></rects>
      <tilted>0</tilted></_>
    <_>
      <rects>
        <_>
          5 6 2 6 -1.</_>
        <_>
          6 6 1 6 2.</_></rects>
      <tilted>0</tilted></_>
    <_>
      <rects>
        <_>
          5 7 5 2 -1.</_>
        <_>
          5 8 5 1 2.</_></rects>
      <tilted>0</tilted></_>
    <_>
      <rects>
        <_>
          5 9 4 2 -1.</_>
        <_>
          7 9 2 2 2.</_></rects>
      <tilted>0</tilted></_>
    <_>
      <rects>
        <_>
          5 23 4 3 -1.</_>
        <_>
          7 23 2 3 2.</_></rects>
      <tilted>0</tilted></_>
    <_>
      <rects>
        <_>
          6 4 1 6 -1.</_>
        <_>
          6 7 1 3 2.</_></rects>
      <tilted>0</tilted></_>
    <_>
      <rects>
        <_>
          6 4 2 4 -1.</_>
        <_>
          6 6 2 2 2.</_></rects>
      <tilted>0</tilted></_>
    <_>
      <rects>
        <_>
          6 6 4 2 -1.</_>
        <_>
          8 6 2 2 2.</_></rects>
      <tilted>0</tilted></_>
    <_>
      <rects>
        <_>
          6 9 1 4 -1.</_>
        <_>
          6 11 1 2 2.</_></rects>
      <tilted>0</tilted></_>
    <_>
      <rects>
        <_>
          6 9 3 3 -1.</_>
        <_>
          6 10 3 1 3.</_></rects>
      <tilted>0</tilted></_>
    <_>
      <rects>
        <_>
          6 26 6 2 -1.</_>
        <_>
          6 26 3 1 2.</_>
        <_>
          9 27 3 1 2.</_></rects>
      <tilted>0</tilted></_>
    <_>
      <rects>
        <_>
          6 26 5 2 -1.</_>
        <_>
          6 27 5 1 2.</_></rects>
      <tilted>0</tilted></_>
    <_>
      <rects>
        <_>
          6 27 6 1 -1.</_>
        <_>
          9 27 3 1 2.</_></rects>
      <tilted>0</tilted></_>
    <_>
      <rects>
        <_>
          7 3 3 6 -1.</_>
        <_>
          7 5 3 2 3.</_></rects>
      <tilted>0</tilted></_>
    <_>
      <rects>
        <_>
          7 9 4 2 -1.</_>
        <_>
          7 9 2 1 2.</_>
        <_>
          9 10 2 1 2.</_></rects>
      <tilted>0</tilted></_>
    <_>
      <rects>
        <_>
          8 2 1 8 -1.</_>
        <_>
          8 6 1 4 2.</_></rects>
      <tilted>0</tilted></_>
    <_>
      <rects>
        <_>
          8 4 2 2 -1.</_>
        <_>
          9 4 1 2 2.</_></rects>
      <tilted>0</tilted></_>
    <_>
      <rects>
        <_>
          8 4 1 6 -1.</_>
        <_>
          8 6 1 2 3.</_></rects>
      <tilted>0</tilted></_>
    <_>
      <rects>
        <_>
          8 19 6 4 -1.</_>
        <_>
          8 19 3 2 2.</_>
        <_>
          11 21 3 2 2.</_></rects>
      <tilted>0</tilted></_>
    <_>
      <rects>
        <_>
          8 23 2 3 -1.</_>
        <_>
          8 24 2 1 3.</_></rects>
      <tilted>0</tilted></_>
    <_>
      <rects>
        <_>
          8 24 4 2 -1.</_>
        <_>
          8 24 2 1 2.</_>
        <_>
          10 25 2 1 2.</_></rects>
      <tilted>0</tilted></_>
    <_>
      <rects>
        <_>
          9 3 2 2 -1.</_>
        <_>
          10 3 1 2 2.</_></rects>
      <tilted>0</tilted></_>
    <_>
      <rects>
        <_>
          9 25 4 3 -1.</_>
        <_>
          11 25 2 3 2.</_></rects>
      <tilted>0</tilted></_>
    <_>
      <rects>
        <_>
          10 19 12 7 -1.</_>
        <_>
          14 19 4 7 3.</_></rects>
      <tilted>0</tilted></_>
    <_>
      <rects>
        <_>
          11 25 2 1 -1.</_>
        <_>
          12 25 1 1 2.</_></rects>
      <tilted>0</tilted></_>
    <_>
      <rects>
        <_>
          15 0 6 30 -1.</_>
        <_>
          15 0 3 15 2.</_>
        <_>
          18 15 3 15 2.</_></rects>
      <tilted>0</tilted></_>
    <_>
      <rects>
        <_>
          15 22 4 1 -1.</_>
        <_>
          17 22 2 1 2.</_></rects>
      <tilted>0</tilted></_>
    <_>
      <rects>
        <_>
          17 24 10 2 -1.</_>
        <_>
          22 24 5 2 2.</_></rects>
      <tilted>0</tilted></_>
    <_>
      <rects>
        <_>
          18 3 6 7 -1.</_>
        <_>
          20 3 2 7 3.</_></rects>
      <tilted>0</tilted></_>
    <_>
      <rects>
        <_>
          18 18 1 6 -1.</_>
        <_>
          18 20 1 2 3.</_></rects>
      <tilted>0</tilted></_>
    <_>
      <rects>
        <_>
          19 11 7 3 -1.</_>
        <_>
          19 12 7 1 3.</_></rects>
      <tilted>0</tilted></_>
    <_>
      <rects>
        <_>
          19 19 6 6 -1.</_>
        <_>
          19 21 6 2 3.</_></rects>
      <tilted>0</tilted></_>
    <_>
      <rects>
        <_>
          19 22 1 2 -1.</_>
        <_>
          19 23 1 1 2.</_></rects>
      <tilted>0</tilted></_>
    <_>
      <rects>
        <_>
          20 2 6 2 -1.</_>
        <_>
          20 2 3 1 2.</_>
        <_>
          23 3 3 1 2.</_></rects>
      <tilted>0</tilted></_>
    <_>
      <rects>
        <_>
          20 8 6 3 -1.</_>
        <_>
          23 8 3 3 2.</_></rects>
      <tilted>0</tilted></_>
    <_>
      <rects>
        <_>
          20 24 6 3 -1.</_>
        <_>
          22 24 2 3 3.</_></rects>
      <tilted>0</tilted></_>
    <_>
      <rects>
        <_>
          20 24 7 4 -1.</_>
        <_>
          20 26 7 2 2.</_></rects>
      <tilted>0</tilted></_>
    <_>
      <rects>
        <_>
          21 1 5 3 -1.</_>
        <_>
          21 2 5 1 3.</_></rects>
      <tilted>0</tilted></_>
    <_>
      <rects>
        <_>
          21 8 2 4 -1.</_>
        <_>
          21 8 1 2 2.</_>
        <_>
          22 10 1 2 2.</_></rects>
      <tilted>0</tilted></_>
    <_>
      <rects>
        <_>
          21 24 6 1 -1.</_>
        <_>
          24 24 3 1 2.</_></rects>
      <tilted>0</tilted></_>
    <_>
      <rects>
        <_>
          21 24 6 2 -1.</_>
        <_>
          24 24 3 2 2.</_></rects>
      <tilted>0</tilted></_>
    <_>
      <rects>
        <_>
          21 24 6 5 -1.</_>
        <_>
          24 24 3 5 2.</_></rects>
      <tilted>0</tilted></_>
    <_>
      <rects>
        <_>
          22 0 4 4 -1.</_>
        <_>
          22 2 4 2 2.</_></rects>
      <tilted>0</tilted></_>
    <_>
      <rects>
        <_>
          22 4 5 6 -1.</_>
        <_>
          22 7 5 3 2.</_></rects>
      <tilted>0</tilted></_>
    <_>
      <rects>
        <_>
          22 7 5 6 -1.</_>
        <_>
          22 9 5 2 3.</_></rects>
      <tilted>0</tilted></_>
    <_>
      <rects>
        <_>
          22 9 3 6 -1.</_>
        <_>
          22 11 3 2 3.</_></rects>
      <tilted>0</tilted></_>
    <_>
      <rects>
        <_>
          23 4 2 6 -1.</_>
        <_>
          23 7 2 3 2.</_></rects>
      <tilted>0</tilted></_>
    <_>
      <rects>
        <_>
          23 4 2 8 -1.</_>
        <_>
          23 8 2 4 2.</_></rects>
      <tilted>0</tilted></_>
    <_>
      <rects>
        <_>
          23 7 3 2 -1.</_>
        <_>
          23 8 3 1 2.</_></rects>
      <tilted>0</tilted></_>
    <_>
      <rects>
        <_>
          23 25 4 2 -1.</_>
        <_>
          25 25 2 2 2.</_></rects>
      <tilted>0</tilted></_>
    <_>
      <rects>
        <_>
          24 4 2 6 -1.</_>
        <_>
          24 7 2 3 2.</_></rects>
      <tilted>0</tilted></_>
    <_>
      <rects>
        <_>
          24 11 6 1 -1.</_>
        <_>
          26 11 2 1 3.</_></rects>
      <tilted>0</tilted></_>
    <_>
      <rects>
        <_>
          25 5 2 6 -1.</_>
        <_>
          25 8 2 3 2.</_></rects>
      <tilted>0</tilted></_>
    <_>
      <rects>
        <_>
          25 7 2 3 -1.</_>
        <_>
          26 7 1 3 2.</_></rects>
      <tilted>0</tilted></_>
    <_>
      <rects>
        <_>
          25 21 3 4 -1.</_>
        <_>
          25 23 3 2 2.</_></rects>
      <tilted>0</tilted></_>
    <_>
      <rects>
        <_>
          26 4 2 8 -1.</_>
        <_>
          26 8 2 4 2.</_></rects>
      <tilted>0</tilted></_>
    <_>
      <rects>
        <_>
          27 12 3 1 -1.</_>
        <_>
          28 12 1 1 3.</_></rects>
      <tilted>0</tilted></_></features></cascade>
</opencv_storage>
