<?xml version="1.0"?>
<opencv_storage>
<cascade>
  <stageType>BOOST</stageType>
  <featureType>HAAR</featureType>
  <height>30</height>
  <width>30</width>
  <stageParams>
    <boostType>GAB</boostType>
    <minHitRate>9.9900001287460327e-01</minHitRate>
    <maxFalseAlarm>3.0000001192092896e-01</maxFalseAlarm>
    <weightTrimRate>9.4999999999999996e-01</weightTrimRate>
    <maxDepth>1</maxDepth>
    <maxWeakCount>100</maxWeakCount></stageParams>
  <featureParams>
    <maxCatCount>0</maxCatCount>
    <featSize>1</featSize>
    <mode>BASIC</mode></featureParams>
  <stageNum>10</stageNum>
  <stages>
    <!-- stage 0 -->
    <_>
      <maxWeakCount>6</maxWeakCount>
      <stageThreshold>-1.5694209337234497e+00</stageThreshold>
      <weakClassifiers>
        <_>
          <internalNodes>
            0 -1 8 6.7483037710189819e-03</internalNodes>
          <leafValues>
            -7.7570092678070068e-01 8.5763376951217651e-01</leafValues></_>
        <_>
          <internalNodes>
            0 -1 29 1.3547169044613838e-02</internalNodes>
          <leafValues>
            -7.5048857927322388e-01 8.0471450090408325e-01</leafValues></_>
        <_>
          <internalNodes>
            0 -1 71 -3.6056567914783955e-03</internalNodes>
          <leafValues>
            7.4788135290145874e-01 -6.7555707693099976e-01</leafValues></_>
        <_>
          <internalNodes>
            0 -1 55 -1.6037254827097058e-03</internalNodes>
          <leafValues>
            5.8784872293472290e-01 -7.5194478034973145e-01</leafValues></_>
        <_>
          <internalNodes>
            0 -1 111 -1.5869113849475980e-03</internalNodes>
          <leafValues>
            7.1139472723007202e-01 -5.8383214473724365e-01</leafValues></_>
        <_>
          <internalNodes>
            0 -1 59 -3.9998465217649937e-03</internalNodes>
          <leafValues>
            5.4466414451599121e-01 -6.9422435760498047e-01</leafValues></_></weakClassifiers></_>
    <!-- stage 1 -->
    <_>
      <maxWeakCount>7</maxWeakCount>
      <stageThreshold>-1.4191251993179321e+00</stageThreshold>
      <weakClassifiers>
        <_>
          <internalNodes>
            0 -1 93 2.4636427406221628e-03</internalNodes>
          <leafValues>
            -7.8128796815872192e-01 7.5470829010009766e-01</leafValues></_>
        <_>
          <internalNodes>
            0 -1 1 1.7111063003540039e-02</internalNodes>
          <leafValues>
            -6.8779957294464111e-01 7.2422313690185547e-01</leafValues></_>
        <_>
          <internalNodes>
            0 -1 49 -1.1585712200030684e-03</internalNodes>
          <leafValues>
            4.8831361532211304e-01 -9.6033108234405518e-01</leafValues></_>
        <_>
          <internalNodes>
            0 -1 18 5.0553986802697182e-03</internalNodes>
          <leafValues>
            -6.3202846050262451e-01 6.8620407581329346e-01</leafValues></_>
        <_>
          <internalNodes>
            0 -1 104 -7.5686708441935480e-05</internalNodes>
          <leafValues>
            3.6328703165054321e-01 -9.5569229125976562e-01</leafValues></_>
        <_>
          <internalNodes>
            0 -1 4 -5.8966875076293945e-03</internalNodes>
          <leafValues>
            6.1198955774307251e-01 -5.5323356389999390e-01</leafValues></_>
        <_>
          <internalNodes>
            0 -1 63 1.6786884516477585e-03</internalNodes>
          <leafValues>
            -7.4497735500335693e-01 4.6398499608039856e-01</leafValues></_></weakClassifiers></_>
    <!-- stage 2 -->
    <_>
      <maxWeakCount>8</maxWeakCount>
      <stageThreshold>-1.4565298557281494e+00</stageThreshold>
      <weakClassifiers>
        <_>
          <internalNodes>
            0 -1 38 1.9867257215082645e-03</internalNodes>
          <leafValues>
            -7.0436865091323853e-01 7.3388773202896118e-01</leafValues></_>
        <_>
          <internalNodes>
            0 -1 51 -5.5403250735253096e-04</internalNodes>
          <leafValues>
            5.7890838384628296e-01 -8.1769824028015137e-01</leafValues></_>
        <_>
          <internalNodes>
            0 -1 89 -4.7439690679311752e-03</internalNodes>
          <leafValues>
            6.0584324598312378e-01 -6.6791445016860962e-01</leafValues></_>
        <_>
          <internalNodes>
            0 -1 6 6.5535958856344223e-03</internalNodes>
          <leafValues>
            -6.3021665811538696e-01 5.1639324426651001e-01</leafValues></_>
        <_>
          <internalNodes>
            0 -1 112 1.2969500385224819e-03</internalNodes>
          <leafValues>
            -7.1980661153793335e-01 4.5597082376480103e-01</leafValues></_>
        <_>
          <internalNodes>
            0 -1 107 -1.3650773325935006e-04</internalNodes>
          <leafValues>
            -9.5103746652603149e-01 3.1119728088378906e-01</leafValues></_>
        <_>
          <internalNodes>
            0 -1 35 4.3805738096125424e-04</internalNodes>
          <leafValues>
            2.1956592798233032e-01 -9.4156718254089355e-01</leafValues></_>
        <_>
          <internalNodes>
            0 -1 60 -2.9362537898123264e-03</internalNodes>
          <leafValues>
            3.7693408131599426e-01 -6.5810137987136841e-01</leafValues></_></weakClassifiers></_>
    <!-- stage 3 -->
    <_>
      <maxWeakCount>10</maxWeakCount>
      <stageThreshold>-1.8554521799087524e+00</stageThreshold>
      <weakClassifiers>
        <_>
          <internalNodes>
            0 -1 43 9.5391515642404556e-03</internalNodes>
          <leafValues>
            -6.2513542175292969e-01 7.5926816463470459e-01</leafValues></_>
        <_>
          <internalNodes>
            0 -1 61 1.1414005421102047e-02</internalNodes>
          <leafValues>
            -6.8666851520538330e-01 6.0565519332885742e-01</leafValues></_>
        <_>
          <internalNodes>
            0 -1 88 -2.3978209355846047e-04</internalNodes>
          <leafValues>
            4.7104877233505249e-01 -6.9723564386367798e-01</leafValues></_>
        <_>
          <internalNodes>
            0 -1 34 8.5706415120512247e-04</internalNodes>
          <leafValues>
            -9.4514656066894531e-01 3.3775001764297485e-01</leafValues></_>
        <_>
          <internalNodes>
            0 -1 17 2.0163625013083220e-03</internalNodes>
          <leafValues>
            -7.9173612594604492e-01 2.7486819028854370e-01</leafValues></_>
        <_>
          <internalNodes>
            0 -1 100 -6.5290078055113554e-04</internalNodes>
          <leafValues>
            4.0994870662689209e-01 -6.9376856088638306e-01</leafValues></_>
        <_>
          <internalNodes>
            0 -1 56 1.5720529481768608e-03</internalNodes>
          <leafValues>
            -5.9902328252792358e-01 4.4003757834434509e-01</leafValues></_>
        <_>
          <internalNodes>
            0 -1 46 2.6355552108725533e-05</internalNodes>
          <leafValues>
            2.5908496975898743e-01 -9.4449704885482788e-01</leafValues></_>
        <_>
          <internalNodes>
            0 -1 27 1.1577605619095266e-04</internalNodes>
          <leafValues>
            -7.1627378463745117e-01 3.2241454720497131e-01</leafValues></_>
        <_>
          <internalNodes>
            0 -1 105 3.9769598515704274e-04</internalNodes>
          <leafValues>
            2.1477612853050232e-01 -9.6310150623321533e-01</leafValues></_></weakClassifiers></_>
    <!-- stage 4 -->
    <_>
      <maxWeakCount>12</maxWeakCount>
      <stageThreshold>-1.8469032049179077e+00</stageThreshold>
      <weakClassifiers>
        <_>
          <internalNodes>
            0 -1 11 5.8830250054597855e-03</internalNodes>
          <leafValues>
            -5.0953114032745361e-01 7.3638826608657837e-01</leafValues></_>
        <_>
          <internalNodes>
            0 -1 121 -1.5924331964924932e-03</internalNodes>
          <leafValues>
            6.8106544017791748e-01 -5.2006369829177856e-01</leafValues></_>
        <_>
          <internalNodes>
            0 -1 19 8.3175934851169586e-03</internalNodes>
          <leafValues>
            -4.4682678580284119e-01 6.4477634429931641e-01</leafValues></_>
        <_>
          <internalNodes>
            0 -1 58 -7.8181666322052479e-04</internalNodes>
          <leafValues>
            4.7708576917648315e-01 -5.7285469770431519e-01</leafValues></_>
        <_>
          <internalNodes>
            0 -1 108 1.2718149810098112e-04</internalNodes>
          <leafValues>
            -9.5903867483139038e-01 2.6941809058189392e-01</leafValues></_>
        <_>
          <internalNodes>
            0 -1 81 -7.5627146288752556e-03</internalNodes>
          <leafValues>
            4.6336653828620911e-01 -5.4630678892135620e-01</leafValues></_>
        <_>
          <internalNodes>
            0 -1 77 1.7601897707208991e-04</internalNodes>
          <leafValues>
            2.1937040984630585e-01 -9.4689249992370605e-01</leafValues></_>
        <_>
          <internalNodes>
            0 -1 76 -5.9042393695563078e-04</internalNodes>
          <leafValues>
            -9.7970271110534668e-01 2.0090605318546295e-01</leafValues></_>
        <_>
          <internalNodes>
            0 -1 33 3.2429321436211467e-04</internalNodes>
          <leafValues>
            1.7551890015602112e-01 -8.7418764829635620e-01</leafValues></_>
        <_>
          <internalNodes>
            0 -1 0 -3.5233730450272560e-03</internalNodes>
          <leafValues>
            3.1811162829399109e-01 -5.8691096305847168e-01</leafValues></_>
        <_>
          <internalNodes>
            0 -1 41 9.6213404322043061e-04</internalNodes>
          <leafValues>
            -6.2024003267288208e-01 3.1719458103179932e-01</leafValues></_>
        <_>
          <internalNodes>
            0 -1 54 9.0626839664764702e-05</internalNodes>
          <leafValues>
            1.8559491634368896e-01 -9.9438470602035522e-01</leafValues></_></weakClassifiers></_>
    <!-- stage 5 -->
    <_>
      <maxWeakCount>14</maxWeakCount>
      <stageThreshold>-1.7765862941741943e+00</stageThreshold>
      <weakClassifiers>
        <_>
          <internalNodes>
            0 -1 25 8.7794492719694972e-04</internalNodes>
          <leafValues>
            -5.8424240350723267e-01 6.8137931823730469e-01</leafValues></_>
        <_>
          <internalNodes>
            0 -1 117 1.1558777187019587e-03</internalNodes>
          <leafValues>
            -5.6205672025680542e-01 5.8087909221649170e-01</leafValues></_>
        <_>
          <internalNodes>
            0 -1 64 1.1587042827159166e-03</internalNodes>
          <leafValues>
            -5.9857672452926636e-01 4.3694332242012024e-01</leafValues></_>
        <_>
          <internalNodes>
            0 -1 83 7.8393763396888971e-04</internalNodes>
          <leafValues>
            -6.4858967065811157e-01 3.9676982164382935e-01</leafValues></_>
        <_>
          <internalNodes>
            0 -1 80 -3.5578606184571981e-04</internalNodes>
          <leafValues>
            3.0719539523124695e-01 -7.4735581874847412e-01</leafValues></_>
        <_>
          <internalNodes>
            0 -1 14 2.4163385387510061e-04</internalNodes>
          <leafValues>
            -8.1489622592926025e-01 2.3542933166027069e-01</leafValues></_>
        <_>
          <internalNodes>
            0 -1 48 2.0277389558032155e-04</internalNodes>
          <leafValues>
            -9.2575937509536743e-01 2.0229586958885193e-01</leafValues></_>
        <_>
          <internalNodes>
            0 -1 2 -2.3548413068056107e-02</internalNodes>
          <leafValues>
            3.6336159706115723e-01 -5.4754090309143066e-01</leafValues></_>
        <_>
          <internalNodes>
            0 -1 73 -3.3568197977729142e-05</internalNodes>
          <leafValues>
            -7.5299251079559326e-01 2.7203366160392761e-01</leafValues></_>
        <_>
          <internalNodes>
            0 -1 98 -1.4524858852382749e-04</internalNodes>
          <leafValues>
            -8.5748982429504395e-01 1.8161600828170776e-01</leafValues></_>
        <_>
          <internalNodes>
            0 -1 97 3.4525600494816899e-04</internalNodes>
          <leafValues>
            2.2480978071689606e-01 -9.1909104585647583e-01</leafValues></_>
        <_>
          <internalNodes>
            0 -1 69 -1.5254100435413420e-04</internalNodes>
          <leafValues>
            1.1270598322153091e-01 -9.6471148729324341e-01</leafValues></_>
        <_>
          <internalNodes>
            0 -1 32 -4.0683175029698759e-05</internalNodes>
          <leafValues>
            -6.2890505790710449e-01 2.3589980602264404e-01</leafValues></_>
        <_>
          <internalNodes>
            0 -1 28 3.4428475191816688e-04</internalNodes>
          <leafValues>
            -5.0559967756271362e-01 3.6186265945434570e-01</leafValues></_></weakClassifiers></_>
    <!-- stage 6 -->
    <_>
      <maxWeakCount>15</maxWeakCount>
      <stageThreshold>-1.7016798257827759e+00</stageThreshold>
      <weakClassifiers>
        <_>
          <internalNodes>
            0 -1 15 5.8102104812860489e-03</internalNodes>
          <leafValues>
            -4.6080091595649719e-01 6.6643011569976807e-01</leafValues></_>
        <_>
          <internalNodes>
            0 -1 110 8.9708802988752723e-04</internalNodes>
          <leafValues>
            -5.9575563669204712e-01 4.9690076708793640e-01</leafValues></_>
        <_>
          <internalNodes>
            0 -1 7 1.5380878001451492e-02</internalNodes>
          <leafValues>
            -6.5371078252792358e-01 4.1818910837173462e-01</leafValues></_>
        <_>
          <internalNodes>
            0 -1 47 -2.2545750834979117e-04</internalNodes>
          <leafValues>
            2.5951737165451050e-01 -8.4604233503341675e-01</leafValues></_>
        <_>
          <internalNodes>
            0 -1 62 3.7346309982240200e-03</internalNodes>
          <leafValues>
            -5.8655852079391479e-01 3.2796674966812134e-01</leafValues></_>
        <_>
          <internalNodes>
            0 -1 103 -1.6125034017022699e-04</internalNodes>
          <leafValues>
            -8.6316615343093872e-01 2.1786719560623169e-01</leafValues></_>
        <_>
          <internalNodes>
            0 -1 114 9.6488010603934526e-04</internalNodes>
          <leafValues>
            -6.9501048326492310e-01 2.5818422436714172e-01</leafValues></_>
        <_>
          <internalNodes>
            0 -1 57 3.1014643609523773e-03</internalNodes>
          <leafValues>
            -6.5899378061294556e-01 2.8159606456756592e-01</leafValues></_>
        <_>
          <internalNodes>
            0 -1 101 -9.2784001026302576e-04</internalNodes>
          <leafValues>
            2.7461859583854675e-01 -6.3124167919158936e-01</leafValues></_>
        <_>
          <internalNodes>
            0 -1 20 7.1105698589235544e-04</internalNodes>
          <leafValues>
            1.5594737231731415e-01 -7.9479473829269409e-01</leafValues></_>
        <_>
          <internalNodes>
            0 -1 37 1.5080228331498802e-04</internalNodes>
          <leafValues>
            -8.3345359563827515e-01 2.0225016772747040e-01</leafValues></_>
        <_>
          <internalNodes>
            0 -1 70 -1.0596696665743366e-04</internalNodes>
          <leafValues>
            1.8738469481468201e-01 -8.5290771722793579e-01</leafValues></_>
        <_>
          <internalNodes>
            0 -1 42 6.2659219838678837e-04</internalNodes>
          <leafValues>
            2.1603208780288696e-01 -7.8428143262863159e-01</leafValues></_>
        <_>
          <internalNodes>
            0 -1 73 8.0580794019624591e-05</internalNodes>
          <leafValues>
            -6.5072536468505859e-01 2.3235762119293213e-01</leafValues></_>
        <_>
          <internalNodes>
            0 -1 45 1.3714934175368398e-04</internalNodes>
          <leafValues>
            1.2399706989526749e-01 -9.7410982847213745e-01</leafValues></_></weakClassifiers></_>
    <!-- stage 7 -->
    <_>
      <maxWeakCount>16</maxWeakCount>
      <stageThreshold>-1.6567901372909546e+00</stageThreshold>
      <weakClassifiers>
        <_>
          <internalNodes>
            0 -1 10 4.0794350206851959e-04</internalNodes>
          <leafValues>
            -7.4187558889389038e-01 5.6855577230453491e-01</leafValues></_>
        <_>
          <internalNodes>
            0 -1 113 8.5471023339778185e-04</internalNodes>
          <leafValues>
            -5.6555449962615967e-01 5.1025170087814331e-01</leafValues></_>
        <_>
          <internalNodes>
            0 -1 68 2.9726285720244050e-04</internalNodes>
          <leafValues>
            -7.6113647222518921e-01 3.6998906731605530e-01</leafValues></_>
        <_>
          <internalNodes>
            0 -1 36 2.0297234004829079e-04</internalNodes>
          <leafValues>
            -7.5482267141342163e-01 2.3753000795841217e-01</leafValues></_>
        <_>
          <internalNodes>
            0 -1 99 -2.0315893925726414e-04</internalNodes>
          <leafValues>
            1.8239554762840271e-01 -9.5241761207580566e-01</leafValues></_>
        <_>
          <internalNodes>
            0 -1 31 7.7218655496835709e-04</internalNodes>
          <leafValues>
            -7.7733373641967773e-01 2.0801754295825958e-01</leafValues></_>
        <_>
          <internalNodes>
            0 -1 84 -2.5146367261186242e-04</internalNodes>
          <leafValues>
            -8.3931845426559448e-01 1.9811296463012695e-01</leafValues></_>
        <_>
          <internalNodes>
            0 -1 32 -1.8901293515227735e-05</internalNodes>
          <leafValues>
            -7.3891550302505493e-01 1.9997927546501160e-01</leafValues></_>
        <_>
          <internalNodes>
            0 -1 109 -2.5433632545173168e-03</internalNodes>
          <leafValues>
            4.3525737524032593e-01 -4.3439286947250366e-01</leafValues></_>
        <_>
          <internalNodes>
            0 -1 16 1.2444611638784409e-03</internalNodes>
          <leafValues>
            -5.7201594114303589e-01 3.0421394109725952e-01</leafValues></_>
        <_>
          <internalNodes>
            0 -1 102 9.0464913228061050e-05</internalNodes>
          <leafValues>
            1.5123383700847626e-01 -8.5733801126480103e-01</leafValues></_>
        <_>
          <internalNodes>
            0 -1 91 -8.0094230361282825e-04</internalNodes>
          <leafValues>
            -9.5113772153854370e-01 1.3728067278862000e-01</leafValues></_>
        <_>
          <internalNodes>
            0 -1 26 -1.7549587937537581e-04</internalNodes>
          <leafValues>
            2.8933921456336975e-01 -5.6188011169433594e-01</leafValues></_>
        <_>
          <internalNodes>
            0 -1 13 3.1804572790861130e-04</internalNodes>
          <leafValues>
            -5.4524648189544678e-01 2.9924494028091431e-01</leafValues></_>
        <_>
          <internalNodes>
            0 -1 122 3.0223632347770035e-04</internalNodes>
          <leafValues>
            -3.7675929069519043e-01 4.3976590037345886e-01</leafValues></_>
        <_>
          <internalNodes>
            0 -1 40 1.5193352010101080e-03</internalNodes>
          <leafValues>
            2.3488156497478485e-01 -7.1990370750427246e-01</leafValues></_></weakClassifiers></_>
    <!-- stage 8 -->
    <_>
      <maxWeakCount>17</maxWeakCount>
      <stageThreshold>-1.2373695373535156e+00</stageThreshold>
      <weakClassifiers>
        <_>
          <internalNodes>
            0 -1 116 -1.4931599434930831e-04</internalNodes>
          <leafValues>
            6.2706565856933594e-01 -5.3088039159774780e-01</leafValues></_>
        <_>
          <internalNodes>
            0 -1 90 3.2852581352926791e-04</internalNodes>
          <leafValues>
            -5.6223767995834351e-01 4.6852815151214600e-01</leafValues></_>
        <_>
          <internalNodes>
            0 -1 12 3.5700097214430571e-04</internalNodes>
          <leafValues>
            -6.7172086238861084e-01 3.2865813374519348e-01</leafValues></_>
        <_>
          <internalNodes>
            0 -1 50 -2.3065898858476430e-04</internalNodes>
          <leafValues>
            2.4940957129001617e-01 -7.3530828952789307e-01</leafValues></_>
        <_>
          <internalNodes>
            0 -1 67 5.6073404266498983e-05</internalNodes>
          <leafValues>
            -8.0196249485015869e-01 2.0099994540214539e-01</leafValues></_>
        <_>
          <internalNodes>
            0 -1 94 1.2589493417181075e-04</internalNodes>
          <leafValues>
            1.8782906234264374e-01 -7.8879731893539429e-01</leafValues></_>
        <_>
          <internalNodes>
            0 -1 115 -3.3503770828247070e-04</internalNodes>
          <leafValues>
            -8.7622427940368652e-01 1.7781125009059906e-01</leafValues></_>
        <_>
          <internalNodes>
            0 -1 24 -2.2631595493294299e-04</internalNodes>
          <leafValues>
            2.3884040117263794e-01 -6.1799079179763794e-01</leafValues></_>
        <_>
          <internalNodes>
            0 -1 65 2.9149960028007627e-04</internalNodes>
          <leafValues>
            -7.8045928478240967e-01 1.7842347919940948e-01</leafValues></_>
        <_>
          <internalNodes>
            0 -1 119 2.1670880960300565e-04</internalNodes>
          <leafValues>
            -7.0875191688537598e-01 2.0872822403907776e-01</leafValues></_>
        <_>
          <internalNodes>
            0 -1 9 8.8975019752979279e-04</internalNodes>
          <leafValues>
            -5.8911198377609253e-01 2.8544500470161438e-01</leafValues></_>
        <_>
          <internalNodes>
            0 -1 86 -2.2129339049570262e-04</internalNodes>
          <leafValues>
            -8.8822269439697266e-01 1.9114582240581512e-01</leafValues></_>
        <_>
          <internalNodes>
            0 -1 85 2.1703574748244137e-04</internalNodes>
          <leafValues>
            1.3099397718906403e-01 -9.2207616567611694e-01</leafValues></_>
        <_>
          <internalNodes>
            0 -1 44 3.6314653698354959e-04</internalNodes>
          <leafValues>
            9.1035813093185425e-02 -9.6374243497848511e-01</leafValues></_>
        <_>
          <internalNodes>
            0 -1 52 4.3037257273681462e-04</internalNodes>
          <leafValues>
            -6.9652450084686279e-01 1.8365181982517242e-01</leafValues></_>
        <_>
          <internalNodes>
            0 -1 3 -5.6041749194264412e-03</internalNodes>
          <leafValues>
            5.8810138702392578e-01 -2.5304079055786133e-01</leafValues></_>
        <_>
          <internalNodes>
            0 -1 75 2.0285965001676232e-04</internalNodes>
          <leafValues>
            -5.2708947658538818e-01 2.9223689436912537e-01</leafValues></_></weakClassifiers></_>
    <!-- stage 9 -->
    <_>
      <maxWeakCount>20</maxWeakCount>
      <stageThreshold>-1.4920018911361694e+00</stageThreshold>
      <weakClassifiers>
        <_>
          <internalNodes>
            0 -1 120 1.8656512256711721e-03</internalNodes>
          <leafValues>
            -3.2796779274940491e-01 6.6101694107055664e-01</leafValues></_>
        <_>
          <internalNodes>
            0 -1 23 -2.3873378522694111e-03</internalNodes>
          <leafValues>
            4.6212950348854065e-01 -5.0223141908645630e-01</leafValues></_>
        <_>
          <internalNodes>
            0 -1 74 1.0297915432602167e-03</internalNodes>
          <leafValues>
            -6.3581049442291260e-01 3.4472849965095520e-01</leafValues></_>
        <_>
          <internalNodes>
            0 -1 72 -2.1270292345434427e-03</internalNodes>
          <leafValues>
            2.7058008313179016e-01 -6.0706561803817749e-01</leafValues></_>
        <_>
          <internalNodes>
            0 -1 39 1.7351456335745752e-04</internalNodes>
          <leafValues>
            -8.6022627353668213e-01 2.3788671195507050e-01</leafValues></_>
        <_>
          <internalNodes>
            0 -1 96 -4.0348814218305051e-04</internalNodes>
          <leafValues>
            2.4280497431755066e-01 -6.4295572042465210e-01</leafValues></_>
        <_>
          <internalNodes>
            0 -1 53 4.5457119995262474e-05</internalNodes>
          <leafValues>
            -7.0952880382537842e-01 1.7912112176418304e-01</leafValues></_>
        <_>
          <internalNodes>
            0 -1 106 7.8705669147893786e-04</internalNodes>
          <leafValues>
            1.3839796185493469e-01 -9.2742466926574707e-01</leafValues></_>
        <_>
          <internalNodes>
            0 -1 118 -2.1136907162144780e-04</internalNodes>
          <leafValues>
            3.9694565534591675e-01 -3.9753720164299011e-01</leafValues></_>
        <_>
          <internalNodes>
            0 -1 87 4.5668995880987495e-05</internalNodes>
          <leafValues>
            -7.8915125131607056e-01 1.5220703184604645e-01</leafValues></_>
        <_>
          <internalNodes>
            0 -1 78 -8.3171680671512149e-06</internalNodes>
          <leafValues>
            3.6938357353210449e-01 -4.0465956926345825e-01</leafValues></_>
        <_>
          <internalNodes>
            0 -1 79 6.6998961847275496e-04</internalNodes>
          <leafValues>
            1.5740577876567841e-01 -7.8561156988143921e-01</leafValues></_>
        <_>
          <internalNodes>
            0 -1 21 -3.5149751056451350e-05</internalNodes>
          <leafValues>
            -6.2958753108978271e-01 2.0276625454425812e-01</leafValues></_>
        <_>
          <internalNodes>
            0 -1 22 5.1240129396319389e-03</internalNodes>
          <leafValues>
            -4.6183231472969055e-01 3.5646393895149231e-01</leafValues></_>
        <_>
          <internalNodes>
            0 -1 82 4.6893249964341521e-04</internalNodes>
          <leafValues>
            2.3394709825515747e-01 -6.0757756233215332e-01</leafValues></_>
        <_>
          <internalNodes>
            0 -1 95 -8.0583442468196154e-05</internalNodes>
          <leafValues>
            1.8932101130485535e-01 -6.8071550130844116e-01</leafValues></_>
        <_>
          <internalNodes>
            0 -1 5 -2.1229106932878494e-03</internalNodes>
          <leafValues>
            2.4796797335147858e-01 -4.8002129793167114e-01</leafValues></_>
        <_>
          <internalNodes>
            0 -1 66 -2.5858250446617603e-03</internalNodes>
          <leafValues>
            5.5589574575424194e-01 -2.7271232008934021e-01</leafValues></_>
        <_>
          <internalNodes>
            0 -1 92 3.3571751555427909e-04</internalNodes>
          <leafValues>
            1.6525596380233765e-01 -1.</leafValues></_>
        <_>
          <internalNodes>
            0 -1 30 -4.6123267384245992e-04</internalNodes>
          <leafValues>
            1.9028818607330322e-01 -6.0681354999542236e-01</leafValues></_></weakClassifiers></_></stages>
  <features>
    <_>
      <rects>
        <_>
          0 4 9 4 -1.</_>
        <_>
          3 4 3 4 3.</_></rects>
      <tilted>0</tilted></_>
    <_>
      <rects>
        <_>
          0 27 18 2 -1.</_>
        <_>
          6 27 6 2 3.</_></rects>
      <tilted>0</tilted></_>
    <_>
      <rects>
        <_>
          1 2 6 28 -1.</_>
        <_>
          3 2 2 28 3.</_></rects>
      <tilted>0</tilted></_>
    <_>
      <rects>
        <_>
          1 11 6 4 -1.</_>
        <_>
          4 11 3 4 2.</_></rects>
      <tilted>0</tilted></_>
    <_>
      <rects>
        <_>
          3 5 3 13 -1.</_>
        <_>
          4 5 1 13 3.</_></rects>
      <tilted>0</tilted></_>
    <_>
      <rects>
        <_>
          3 7 3 7 -1.</_>
        <_>
          4 7 1 7 3.</_></rects>
      <tilted>0</tilted></_>
    <_>
      <rects>
        <_>
          4 4 4 7 -1.</_>
        <_>
          6 4 2 7 2.</_></rects>
      <tilted>0</tilted></_>
    <_>
      <rects>
        <_>
          4 4 6 9 -1.</_>
        <_>
          6 4 2 9 3.</_></rects>
      <tilted>0</tilted></_>
    <_>
      <rects>
        <_>
          4 9 6 4 -1.</_>
        <_>
          6 9 2 4 3.</_></rects>
      <tilted>0</tilted></_>
    <_>
      <rects>
        <_>
          4 10 2 5 -1.</_>
        <_>
          5 10 1 5 2.</_></rects>
      <tilted>0</tilted></_>
    <_>
      <rects>
        <_>
          4 10 4 1 -1.</_>
        <_>
          6 10 2 1 2.</_></rects>
      <tilted>0</tilted></_>
    <_>
      <rects>
        <_>
          4 11 6 2 -1.</_>
        <_>
          6 11 2 2 3.</_></rects>
      <tilted>0</tilted></_>
    <_>
      <rects>
        <_>
          4 28 4 1 -1.</_>
        <_>
          6 28 2 1 2.</_></rects>
      <tilted>0</tilted></_>
    <_>
      <rects>
        <_>
          5 13 3 1 -1.</_>
        <_>
          6 13 1 1 3.</_></rects>
      <tilted>0</tilted></_>
    <_>
      <rects>
        <_>
          5 25 6 4 -1.</_>
        <_>
          5 25 3 2 2.</_>
        <_>
          8 27 3 2 2.</_></rects>
      <tilted>0</tilted></_>
    <_>
      <rects>
        <_>
          5 25 22 2 -1.</_>
        <_>
          5 26 22 1 2.</_></rects>
      <tilted>0</tilted></_>
    <_>
      <rects>
        <_>
          5 26 8 3 -1.</_>
        <_>
          5 27 8 1 3.</_></rects>
      <tilted>0</tilted></_>
    <_>
      <rects>
        <_>
          5 26 21 3 -1.</_>
        <_>
          5 27 21 1 3.</_></rects>
      <tilted>0</tilted></_>
    <_>
      <rects>
        <_>
          6 1 19 2 -1.</_>
        <_>
          6 2 19 1 2.</_></rects>
      <tilted>0</tilted></_>
    <_>
      <rects>
        <_>
          6 1 20 2 -1.</_>
        <_>
          6 2 20 1 2.</_></rects>
      <tilted>0</tilted></_>
    <_>
      <rects>
        <_>
          6 4 1 9 -1.</_>
        <_>
          6 7 1 3 3.</_></rects>
      <tilted>0</tilted></_>
    <_>
      <rects>
        <_>
          6 7 2 3 -1.</_>
        <_>
          7 7 1 3 2.</_></rects>
      <tilted>0</tilted></_>
    <_>
      <rects>
        <_>
          6 9 4 10 -1.</_>
        <_>
          6 9 2 5 2.</_>
        <_>
          8 14 2 5 2.</_></rects>
      <tilted>0</tilted></_>
    <_>
      <rects>
        <_>
          6 12 1 6 -1.</_>
        <_>
          6 15 1 3 2.</_></rects>
      <tilted>0</tilted></_>
    <_>
      <rects>
        <_>
          6 22 4 4 -1.</_>
        <_>
          6 22 2 2 2.</_>
        <_>
          8 24 2 2 2.</_></rects>
      <tilted>0</tilted></_>
    <_>
      <rects>
        <_>
          6 23 1 4 -1.</_>
        <_>
          6 25 1 2 2.</_></rects>
      <tilted>0</tilted></_>
    <_>
      <rects>
        <_>
          6 23 3 3 -1.</_>
        <_>
          6 24 3 1 3.</_></rects>
      <tilted>0</tilted></_>
    <_>
      <rects>
        <_>
          6 24 1 2 -1.</_>
        <_>
          6 25 1 1 2.</_></rects>
      <tilted>0</tilted></_>
    <_>
      <rects>
        <_>
          6 24 2 4 -1.</_>
        <_>
          6 24 1 2 2.</_>
        <_>
          7 26 1 2 2.</_></rects>
      <tilted>0</tilted></_>
    <_>
      <rects>
        <_>
          6 24 21 4 -1.</_>
        <_>
          6 26 21 2 2.</_></rects>
      <tilted>0</tilted></_>
    <_>
      <rects>
        <_>
          6 25 6 2 -1.</_>
        <_>
          9 25 3 2 2.</_></rects>
      <tilted>0</tilted></_>
    <_>
      <rects>
        <_>
          6 28 9 1 -1.</_>
        <_>
          9 28 3 1 3.</_></rects>
      <tilted>0</tilted></_>
    <_>
      <rects>
        <_>
          7 4 2 4 -1.</_>
        <_>
          7 6 2 2 2.</_></rects>
      <tilted>0</tilted></_>
    <_>
      <rects>
        <_>
          7 4 3 3 -1.</_>
        <_>
          7 5 3 1 3.</_></rects>
      <tilted>0</tilted></_>
    <_>
      <rects>
        <_>
          7 4 3 9 -1.</_>
        <_>
          7 7 3 3 3.</_></rects>
      <tilted>0</tilted></_>
    <_>
      <rects>
        <_>
          7 5 1 6 -1.</_>
        <_>
          7 7 1 2 3.</_></rects>
      <tilted>0</tilted></_>
    <_>
      <rects>
        <_>
          7 6 3 4 -1.</_>
        <_>
          8 6 1 4 3.</_></rects>
      <tilted>0</tilted></_>
    <_>
      <rects>
        <_>
          7 24 1 4 -1.</_>
        <_>
          7 26 1 2 2.</_></rects>
      <tilted>0</tilted></_>
    <_>
      <rects>
        <_>
          7 24 2 4 -1.</_>
        <_>
          7 26 2 2 2.</_></rects>
      <tilted>0</tilted></_>
    <_>
      <rects>
        <_>
          7 25 2 2 -1.</_>
        <_>
          7 26 2 1 2.</_></rects>
      <tilted>0</tilted></_>
    <_>
      <rects>
        <_>
          7 25 8 4 -1.</_>
        <_>
          7 25 4 2 2.</_>
        <_>
          11 27 4 2 2.</_></rects>
      <tilted>0</tilted></_>
    <_>
      <rects>
        <_>
          7 26 7 3 -1.</_>
        <_>
          7 27 7 1 3.</_></rects>
      <tilted>0</tilted></_>
    <_>
      <rects>
        <_>
          7 28 7 2 -1.</_>
        <_>
          7 29 7 1 2.</_></rects>
      <tilted>0</tilted></_>
    <_>
      <rects>
        <_>
          8 0 5 9 -1.</_>
        <_>
          8 3 5 3 3.</_></rects>
      <tilted>0</tilted></_>
    <_>
      <rects>
        <_>
          8 4 2 6 -1.</_>
        <_>
          8 7 2 3 2.</_></rects>
      <tilted>0</tilted></_>
    <_>
      <rects>
        <_>
          8 5 1 6 -1.</_>
        <_>
          8 8 1 3 2.</_></rects>
      <tilted>0</tilted></_>
    <_>
      <rects>
        <_>
          8 5 4 1 -1.</_>
        <_>
          10 5 2 1 2.</_></rects>
      <tilted>0</tilted></_>
    <_>
      <rects>
        <_>
          8 6 2 6 -1.</_>
        <_>
          8 6 1 3 2.</_>
        <_>
          9 9 1 3 2.</_></rects>
      <tilted>0</tilted></_>
    <_>
      <rects>
        <_>
          8 6 2 6 -1.</_>
        <_>
          8 8 2 2 3.</_></rects>
      <tilted>0</tilted></_>
    <_>
      <rects>
        <_>
          8 7 2 6 -1.</_>
        <_>
          8 10 2 3 2.</_></rects>
      <tilted>0</tilted></_>
    <_>
      <rects>
        <_>
          8 8 2 4 -1.</_>
        <_>
          8 8 1 2 2.</_>
        <_>
          9 10 1 2 2.</_></rects>
      <tilted>0</tilted></_>
    <_>
      <rects>
        <_>
          8 10 2 2 -1.</_>
        <_>
          9 10 1 2 2.</_></rects>
      <tilted>0</tilted></_>
    <_>
      <rects>
        <_>
          8 26 4 3 -1.</_>
        <_>
          8 27 4 1 3.</_></rects>
      <tilted>0</tilted></_>
    <_>
      <rects>
        <_>
          8 28 6 1 -1.</_>
        <_>
          10 28 2 1 3.</_></rects>
      <tilted>0</tilted></_>
    <_>
      <rects>
        <_>
          9 5 2 4 -1.</_>
        <_>
          9 7 2 2 2.</_></rects>
      <tilted>0</tilted></_>
    <_>
      <rects>
        <_>
          9 5 4 4 -1.</_>
        <_>
          11 5 2 4 2.</_></rects>
      <tilted>0</tilted></_>
    <_>
      <rects>
        <_>
          10 6 4 4 -1.</_>
        <_>
          10 6 2 2 2.</_>
        <_>
          12 8 2 2 2.</_></rects>
      <tilted>0</tilted></_>
    <_>
      <rects>
        <_>
          11 3 6 6 -1.</_>
        <_>
          11 3 3 3 2.</_>
        <_>
          14 6 3 3 2.</_></rects>
      <tilted>0</tilted></_>
    <_>
      <rects>
        <_>
          11 28 4 1 -1.</_>
        <_>
          13 28 2 1 2.</_></rects>
      <tilted>0</tilted></_>
    <_>
      <rects>
        <_>
          15 3 6 6 -1.</_>
        <_>
          15 3 3 3 2.</_>
        <_>
          18 6 3 3 2.</_></rects>
      <tilted>0</tilted></_>
    <_>
      <rects>
        <_>
          15 4 6 4 -1.</_>
        <_>
          15 4 3 2 2.</_>
        <_>
          18 6 3 2 2.</_></rects>
      <tilted>0</tilted></_>
    <_>
      <rects>
        <_>
          15 27 15 2 -1.</_>
        <_>
          20 27 5 2 3.</_></rects>
      <tilted>0</tilted></_>
    <_>
      <rects>
        <_>
          17 26 4 4 -1.</_>
        <_>
          19 26 2 4 2.</_></rects>
      <tilted>0</tilted></_>
    <_>
      <rects>
        <_>
          17 27 6 3 -1.</_>
        <_>
          20 27 3 3 2.</_></rects>
      <tilted>0</tilted></_>
    <_>
      <rects>
        <_>
          18 1 5 2 -1.</_>
        <_>
          18 2 5 1 2.</_></rects>
      <tilted>0</tilted></_>
    <_>
      <rects>
        <_>
          18 5 6 2 -1.</_>
        <_>
          20 5 2 2 3.</_></rects>
      <tilted>0</tilted></_>
    <_>
      <rects>
        <_>
          18 22 4 4 -1.</_>
        <_>
          18 22 2 2 2.</_>
        <_>
          20 24 2 2 2.</_></rects>
      <tilted>0</tilted></_>
    <_>
      <rects>
        <_>
          18 26 6 2 -1.</_>
        <_>
          18 26 3 1 2.</_>
        <_>
          21 27 3 1 2.</_></rects>
      <tilted>0</tilted></_>
    <_>
      <rects>
        <_>
          18 28 6 1 -1.</_>
        <_>
          20 28 2 1 3.</_></rects>
      <tilted>0</tilted></_>
    <_>
      <rects>
        <_>
          19 4 4 4 -1.</_>
        <_>
          19 6 4 2 2.</_></rects>
      <tilted>0</tilted></_>
    <_>
      <rects>
        <_>
          19 5 6 2 -1.</_>
        <_>
          19 6 6 1 2.</_></rects>
      <tilted>0</tilted></_>
    <_>
      <rects>
        <_>
          19 7 4 6 -1.</_>
        <_>
          19 7 2 3 2.</_>
        <_>
          21 10 2 3 2.</_></rects>
      <tilted>0</tilted></_>
    <_>
      <rects>
        <_>
          19 8 4 4 -1.</_>
        <_>
          19 8 2 2 2.</_>
        <_>
          21 10 2 2 2.</_></rects>
      <tilted>0</tilted></_>
    <_>
      <rects>
        <_>
          19 26 4 2 -1.</_>
        <_>
          19 26 2 1 2.</_>
        <_>
          21 27 2 1 2.</_></rects>
      <tilted>0</tilted></_>
    <_>
      <rects>
        <_>
          19 26 5 3 -1.</_>
        <_>
          19 27 5 1 3.</_></rects>
      <tilted>0</tilted></_>
    <_>
      <rects>
        <_>
          19 27 8 3 -1.</_>
        <_>
          19 28 8 1 3.</_></rects>
      <tilted>0</tilted></_>
    <_>
      <rects>
        <_>
          20 3 4 6 -1.</_>
        <_>
          22 3 2 6 2.</_></rects>
      <tilted>0</tilted></_>
    <_>
      <rects>
        <_>
          20 4 4 1 -1.</_>
        <_>
          22 4 2 1 2.</_></rects>
      <tilted>0</tilted></_>
    <_>
      <rects>
        <_>
          20 4 6 1 -1.</_>
        <_>
          22 4 2 1 3.</_></rects>
      <tilted>0</tilted></_>
    <_>
      <rects>
        <_>
          20 5 5 3 -1.</_>
        <_>
          20 6 5 1 3.</_></rects>
      <tilted>0</tilted></_>
    <_>
      <rects>
        <_>
          20 8 2 4 -1.</_>
        <_>
          20 8 1 2 2.</_>
        <_>
          21 10 1 2 2.</_></rects>
      <tilted>0</tilted></_>
    <_>
      <rects>
        <_>
          20 22 5 6 -1.</_>
        <_>
          20 24 5 2 3.</_></rects>
      <tilted>0</tilted></_>
    <_>
      <rects>
        <_>
          20 26 6 1 -1.</_>
        <_>
          22 26 2 1 3.</_></rects>
      <tilted>0</tilted></_>
    <_>
      <rects>
        <_>
          20 26 4 3 -1.</_>
        <_>
          20 27 4 1 3.</_></rects>
      <tilted>0</tilted></_>
    <_>
      <rects>
        <_>
          20 27 4 2 -1.</_>
        <_>
          20 27 2 1 2.</_>
        <_>
          22 28 2 1 2.</_></rects>
      <tilted>0</tilted></_>
    <_>
      <rects>
        <_>
          21 4 4 2 -1.</_>
        <_>
          23 4 2 2 2.</_></rects>
      <tilted>0</tilted></_>
    <_>
      <rects>
        <_>
          21 4 4 5 -1.</_>
        <_>
          23 4 2 5 2.</_></rects>
      <tilted>0</tilted></_>
    <_>
      <rects>
        <_>
          21 7 6 1 -1.</_>
        <_>
          23 7 2 1 3.</_></rects>
      <tilted>0</tilted></_>
    <_>
      <rects>
        <_>
          21 8 1 2 -1.</_>
        <_>
          21 9 1 1 2.</_></rects>
      <tilted>0</tilted></_>
    <_>
      <rects>
        <_>
          21 10 4 6 -1.</_>
        <_>
          21 10 2 3 2.</_>
        <_>
          23 13 2 3 2.</_></rects>
      <tilted>0</tilted></_>
    <_>
      <rects>
        <_>
          21 25 1 2 -1.</_>
        <_>
          21 26 1 1 2.</_></rects>
      <tilted>0</tilted></_>
    <_>
      <rects>
        <_>
          22 4 4 4 -1.</_>
        <_>
          22 6 4 2 2.</_></rects>
      <tilted>0</tilted></_>
    <_>
      <rects>
        <_>
          22 5 2 4 -1.</_>
        <_>
          22 7 2 2 2.</_></rects>
      <tilted>0</tilted></_>
    <_>
      <rects>
        <_>
          22 10 6 2 -1.</_>
        <_>
          24 10 2 2 3.</_></rects>
      <tilted>0</tilted></_>
    <_>
      <rects>
        <_>
          22 28 4 1 -1.</_>
        <_>
          24 28 2 1 2.</_></rects>
      <tilted>0</tilted></_>
    <_>
      <rects>
        <_>
          22 28 6 1 -1.</_>
        <_>
          25 28 3 1 2.</_></rects>
      <tilted>0</tilted></_>
    <_>
      <rects>
        <_>
          23 0 6 4 -1.</_>
        <_>
          23 0 3 2 2.</_>
        <_>
          26 2 3 2 2.</_></rects>
      <tilted>0</tilted></_>
    <_>
      <rects>
        <_>
          23 4 2 6 -1.</_>
        <_>
          23 7 2 3 2.</_></rects>
      <tilted>0</tilted></_>
    <_>
      <rects>
        <_>
          23 5 2 4 -1.</_>
        <_>
          23 7 2 2 2.</_></rects>
      <tilted>0</tilted></_>
    <_>
      <rects>
        <_>
          23 9 1 4 -1.</_>
        <_>
          23 11 1 2 2.</_></rects>
      <tilted>0</tilted></_>
    <_>
      <rects>
        <_>
          23 12 2 4 -1.</_>
        <_>
          23 12 1 2 2.</_>
        <_>
          24 14 1 2 2.</_></rects>
      <tilted>0</tilted></_>
    <_>
      <rects>
        <_>
          24 2 4 28 -1.</_>
        <_>
          26 2 2 28 2.</_></rects>
      <tilted>0</tilted></_>
    <_>
      <rects>
        <_>
          24 4 1 4 -1.</_>
        <_>
          24 6 1 2 2.</_></rects>
      <tilted>0</tilted></_>
    <_>
      <rects>
        <_>
          24 4 1 6 -1.</_>
        <_>
          24 7 1 3 2.</_></rects>
      <tilted>0</tilted></_>
    <_>
      <rects>
        <_>
          24 4 1 10 -1.</_>
        <_>
          24 9 1 5 2.</_></rects>
      <tilted>0</tilted></_>
    <_>
      <rects>
        <_>
          24 5 1 6 -1.</_>
        <_>
          24 8 1 3 2.</_></rects>
      <tilted>0</tilted></_>
    <_>
      <rects>
        <_>
          24 5 2 6 -1.</_>
        <_>
          24 7 2 2 3.</_></rects>
      <tilted>0</tilted></_>
    <_>
      <rects>
        <_>
          24 6 1 4 -1.</_>
        <_>
          24 8 1 2 2.</_></rects>
      <tilted>0</tilted></_>
    <_>
      <rects>
        <_>
          24 8 2 6 -1.</_>
        <_>
          24 10 2 2 3.</_></rects>
      <tilted>0</tilted></_>
    <_>
      <rects>
        <_>
          24 12 2 8 -1.</_>
        <_>
          24 12 1 4 2.</_>
        <_>
          25 16 1 4 2.</_></rects>
      <tilted>0</tilted></_>
    <_>
      <rects>
        <_>
          24 13 2 2 -1.</_>
        <_>
          25 13 1 2 2.</_></rects>
      <tilted>0</tilted></_>
    <_>
      <rects>
        <_>
          24 13 2 6 -1.</_>
        <_>
          24 13 1 3 2.</_>
        <_>
          25 16 1 3 2.</_></rects>
      <tilted>0</tilted></_>
    <_>
      <rects>
        <_>
          24 24 2 4 -1.</_>
        <_>
          24 26 2 2 2.</_></rects>
      <tilted>0</tilted></_>
    <_>
      <rects>
        <_>
          24 24 3 2 -1.</_>
        <_>
          24 25 3 1 2.</_></rects>
      <tilted>0</tilted></_>
    <_>
      <rects>
        <_>
          24 24 3 4 -1.</_>
        <_>
          24 26 3 2 2.</_></rects>
      <tilted>0</tilted></_>
    <_>
      <rects>
        <_>
          25 6 1 6 -1.</_>
        <_>
          25 9 1 3 2.</_></rects>
      <tilted>0</tilted></_>
    <_>
      <rects>
        <_>
          25 7 2 2 -1.</_>
        <_>
          26 7 1 2 2.</_></rects>
      <tilted>0</tilted></_>
    <_>
      <rects>
        <_>
          25 14 3 2 -1.</_>
        <_>
          26 14 1 2 3.</_></rects>
      <tilted>0</tilted></_>
    <_>
      <rects>
        <_>
          25 22 1 3 -1.</_>
        <_>
          25 23 1 1 3.</_></rects>
      <tilted>0</tilted></_>
    <_>
      <rects>
        <_>
          25 24 1 4 -1.</_>
        <_>
          25 26 1 2 2.</_></rects>
      <tilted>0</tilted></_>
    <_>
      <rects>
        <_>
          26 10 2 12 -1.</_>
        <_>
          26 10 1 6 2.</_>
        <_>
          27 16 1 6 2.</_></rects>
      <tilted>0</tilted></_>
    <_>
      <rects>
        <_>
          26 11 2 4 -1.</_>
        <_>
          27 11 1 4 2.</_></rects>
      <tilted>0</tilted></_>
    <_>
      <rects>
        <_>
          28 8 2 3 -1.</_>
        <_>
          29 8 1 3 2.</_></rects>
      <tilted>0</tilted></_></features></cascade>
</opencv_storage>
